28 16
11 0.0040881247 -0.05800131 0.10040383 0.39915836 -0.08644976 -0.0015939402 0.6417942 0.119488835 -0.10240201 -0.090102375 0.08904962 0.066737175 -0.08992277 0.07193285 -0.3179732 -0.095343076
18 0.02426792 -0.0196876 -0.022332495 0.10169537 0.04744365 0.05305565 0.34414476 0.03702984 0.013721367 -0.05365648 0.025588727 0.07073992 -0.08121521 -0.017368682 -0.2028883 -0.04151751
27 0.06991689 -0.09721942 0.036407936 0.23861346 0.039252173 -0.0071390886 0.4464078 0.011889714 -0.11950656 -0.0041359193 -0.020447461 0.02693263 -0.048387196 0.025119744 -0.26392013 0.016614502
6 0.040582854 0.01069593 -0.012207596 0.2798274 -0.038899075 0.040067583 0.48831525 0.01933892 -0.0147915855 -0.09319531 0.009796061 0.112095416 -0.05467206 0.01666809 -0.23818326 -0.1105466
0 -0.007853599 -0.019092519 0.035952806 0.28532606 -0.02973587 0.054262828 0.46236005 0.10032465 -0.05294783 -0.11386471 0.057975825 0.06717647 0.010030468 0.010655759 -0.22834477 -0.12157902
17 -0.0019627046 -0.009887833 0.06236375 0.20444658 -0.04318186 0.033626474 0.3233831 -0.00049781194 -0.05179765 0.012367207 0.032197274 0.036985014 -0.0096309185 0.014895206 -0.078648604 -0.006283111
5 -0.051590413 -0.070340134 0.02941097 0.21161316 -0.06494106 0.049373638 0.3271653 0.0698092 0.01982621 -0.07838913 0.028115373 0.07761799 -0.046012614 -0.028655188 -0.14352699 -0.10241554
22 -0.035951793 0.036003534 0.032644123 0.14210108 0.047945164 0.06561935 0.15081178 0.022273637 0.0082678115 -0.05561022 0.07943979 -0.04010215 0.02210124 0.015239132 -0.12719373 0.0016690291
20 -0.009608558 0.029529182 0.07664917 0.0655797 -0.0028192932 -0.022592345 0.18756749 0.03814915 0.031848222 0.017819691 0.08062063 0.07545461 0.03142725 -0.042262755 -0.14378327 -0.0223918
4 -0.02260363 0.032166637 0.059045374 0.10594398 0.0018516838 0.02895789 0.25334793 -0.036108546 -0.024110679 0.0010539758 0.009975767 0.085184485 0.03363844 0.050268896 -0.10217809 0.018967802
12 -0.051525712 -0.0033380492 0.0018492278 0.11674563 0.009270692 0.05309909 0.31272557 -0.0066613234 0.020073352 0.009417656 -0.0023749599 -0.02131371 0.0064918166 0.052017216 -0.13085493 -0.080426075
23 -0.03503916 -0.050837066 0.057142794 0.10283824 -0.06550312 0.035497524 0.26317155 -0.022140762 -0.02836353 -0.02481522 0.011944077 -0.036732905 -0.009647702 -0.011941351 -0.10269397 -0.027586704
26 0.021917865 -0.07996489 0.010230537 0.14432596 0.023234652 -0.0033213547 0.16693828 0.04722191 -0.034030497 0.0031512661 -0.029651036 0.01606223 0.024638267 0.062271114 -0.13008197 -0.0040583513
8 -0.046290625 0.015641324 -0.015362538 0.118558355 0.055049013 0.027160257 0.28287068 -0.011171453 0.0141642615 0.030826863 -0.032487474 -0.0020140382 -0.067043096 -0.026738651 -0.14052401 -0.09049844
15 0.05079468 -0.048526555 0.0807659 0.1584484 -0.053642277 0.03795753 0.2571091 -0.02081455 -0.07178556 -0.038687695 -0.034235563 0.015803354 -0.026019383 0.035732314 -0.09454699 -0.035597615
21 -0.036916308 0.005017633 0.0038288855 0.095912814 0.027818387 0.036750846 0.1040582 -0.0027201893 -0.032729633 -0.019876944 0.02514114 -0.0045901295 -0.053097878 -0.049462244 -0.109956786 -0.048777215
25 -0.007537444 -0.057786837 -0.011696082 0.122686885 0.020558398 -0.006151229 0.31203437 0.036104336 -0.078701116 0.036333263 0.06774001 0.06430127 -0.06882547 0.051317386 -0.103070684 0.004423813
2 0.024877656 0.0011821387 -0.0045189057 0.15626279 0.055677243 0.041405745 0.16056643 0.023199309 -0.0061731962 -0.07809725 -0.032987174 0.024261463 -0.009967654 -0.031916644 -0.118329324 -0.076257795
7 0.05393238 -0.019133007 -0.015724454 0.15757863 0.05402401 -0.0054593533 0.26000598 0.05586202 0.02054083 -0.022051157 0.068323225 -0.016796296 -0.07272866 0.060753223 -0.104090646 -0.045944218
19 0.031142598 -0.03658499 0.029020976 0.109626256 0.038228 -0.03782425 0.1782706 0.04094062 0.012476422 -0.04961641 0.06486892 0.0004338493 0.042132687 -0.02939219 -0.11293701 0.030685032
1 0.0076370635 -0.02683561 0.07764281 0.16567424 -0.065661274 0.033893604 0.22932237 0.048376966 -0.0058194245 -0.020404344 0.020897618 0.006207374 -0.064845726 -0.0057390337 -0.070307314 0.026364293
9 0.061862674 -0.05490207 -0.04817709 0.16061139 0.020333223 0.04728443 0.21113363 0.0019221607 0.030339565 -0.0031746593 0.032402985 0.0065948535 -0.039271146 -0.01227045 -0.059818476 -0.024662994
10 -0.054426797 -0.078274325 -0.028820526 0.11326189 0.011244276 0.07775247 0.22929053 -0.0043757497 -0.009905858 0.004311417 0.066545345 0.016675165 0.004820101 -0.035699654 -0.10244351 0.019694176
24 -0.009361465 -0.085550785 0.05795861 0.0868144 -0.015457604 0.073840335 0.18883854 -0.012554244 -0.06060164 0.027277697 -0.02494412 0.03860677 -0.052921653 0.05080264 -0.06963273 -0.0068768985
16 -0.0060008834 -0.032806 0.07578289 0.12852475 -0.022943553 -0.04654891 0.1216677 0.009866323 -0.025367456 -0.03350202 0.06874443 0.019837499 0.018967919 -0.03534306 -0.0947996 -0.057699464
3 -0.043738123 -0.0022590766 -0.032697495 0.058221884 0.019068247 0.047279958 0.13318653 0.027803242 -0.04038211 0.029863184 -0.030804902 0.050772287 -0.06423898 0.018834775 -0.09251522 -0.04655052
13 -0.02156546 0.024861606 0.05346821 0.041758873 -0.0032985443 -0.04382238 0.18065278 0.0740173 -0.030644007 -0.010418912 0.01782529 0.051448386 -0.067517154 0.010214828 -0.019454269 -0.004960815
14 0.010242325 -0.08113327 0.08127648 0.09973822 -0.028815497 0.039683487 0.241373 0.03360279 -0.016198575 -0.069583274 -0.044219635 0.08767819 0.015691945 -0.030756723 -0.09699283 -0.033320624
