28 16
11 0.087871075 -0.1609959 0.16094236 0.8802247 -0.030527819 -0.54120976 0.6406969 0.39441857 0.009387859 -0.10612714 0.322651 -0.07835761 -0.12444663 -0.19877172 -0.73814356 -0.33362108
0 -0.22696786 0.61286014 0.0036410699 -0.40169603 0.5234189 -0.19736789 1.2543651 0.04872749 0.8701118 0.43795258 0.033633593 0.09724685 -0.3069286 -0.48496184 -1.0796944 -0.33446628
18 0.036187194 -0.7334946 0.39908814 0.5224534 0.1063685 0.22514896 1.183451 -0.6481658 -0.7331906 0.3291462 -0.7271512 -0.03485395 0.024882715 0.044542294 -0.9978147 0.012125809
6 0.29236487 1.0662572 -0.010446922 0.5890411 -0.07119666 -0.37792757 1.3505706 0.3012683 0.42662123 -0.25622413 0.23678367 0.114006825 -0.91739714 0.28101647 -0.40302426 -0.24451868
27 -0.544386 -0.7698136 0.42226657 0.38178918 -0.38326544 0.51643777 1.2888709 0.47275937 -0.4218128 -0.22257975 0.21378447 0.70567155 0.30013993 -0.11424847 -0.4049268 -0.51827055
5 0.0824711 0.55933017 0.087730415 0.42045444 0.07980424 -0.36894315 0.95720375 0.22475433 0.3804296 0.03336995 0.22652797 -0.0054406845 -0.4311573 -0.071192384 -0.5159966 -0.2091013
17 -0.17289181 -0.59787434 0.30746767 0.57894576 -0.13793759 0.13623098 0.9113376 -0.02052076 -0.3454651 0.004413346 -0.13547575 0.18914023 0.05277665 -0.08428367 -0.6143506 -0.25414014
10 0.20308621 0.8754178 0.13472167 0.6335764 -0.0657066 -0.24641892 1.190541 0.28443536 0.25832495 -0.24980359 0.2666913 0.0020981203 -0.77217126 0.33450845 -0.32479203 -0.11038058
2 -0.14986232 0.46535066 0.13405232 -0.11390131 0.25798437 -0.20039615 0.9868414 0.10675285 0.5623053 0.27666613 0.12866823 0.13401411 -0.19920497 -0.30396158 -0.76332927 -0.2486918
21 -0.08111505 -0.4092298 0.3534341 0.44470656 0.021216372 0.16213138 1.0520396 -0.36001813 -0.41327253 0.18936726 -0.3617961 0.1178407 0.041351043 0.040290322 -0.740099 -0.07036811
19 -0.1405416 -0.5239297 0.30504197 0.40296215 0.025630731 0.24807823 1.0519603 -0.38299954 -0.42989796 0.22651292 -0.4282997 0.030922113 0.05934214 0.048219915 -0.7338596 -0.14729507
4 -0.18171598 0.4051577 0.110836096 -0.09784565 0.19175334 -0.12841314 1.0383658 0.053747565 0.50866115 0.2165404 0.06257188 0.03389332 -0.24434464 -0.27855092 -0.70118904 -0.2612082
1 -0.12525688 0.4168968 0.052306604 -0.07185946 0.31353608 -0.19033499 0.9926458 0.12751742 0.55207235 0.26901537 0.02700195 0.070587724 -0.238741 -0.21719651 -0.77647585 -0.24845554
3 -0.2070814 0.512789 0.016893834 -0.1930499 0.36698717 -0.15738806 1.0166589 0.030196594 0.6151405 0.34205243 -0.0034058099 0.038710773 -0.28796536 -0.3208884 -0.75829184 -0.30390966
20 0.020153396 -0.5569912 0.38711974 0.5119038 0.007045825 0.19389452 1.0692825 -0.48541832 -0.5413959 0.2198343 -0.539656 -0.006599574 -0.014238589 0.044066142 -0.8085721 -0.083802186
22 -0.08810586 -0.4993872 0.30569023 0.4361911 0.051632416 0.23858383 0.9407177 -0.4253697 -0.5017125 0.19861834 -0.44338587 0.028956875 -0.026216188 -0.02461248 -0.7639629 -0.10643195
23 -0.4583636 -0.7096145 0.34143576 0.27629533 -0.28157657 0.42215437 1.1607301 0.32155082 -0.40433496 -0.06674811 0.15759762 0.6297636 0.14868195 -0.042515583 -0.32781872 -0.34676945
13 0.079533435 -0.10558472 0.14274134 0.74652106 0.028454129 -0.25775766 0.7268755 0.23160924 -0.03690293 -0.135195 0.10850709 0.020273603 -0.14657435 -0.13760859 -0.61399794 -0.30486044
8 0.20359506 0.65210485 0.08375426 0.49225006 -0.004075844 -0.25846797 1.1132404 0.28047124 0.26550958 -0.14675355 0.23316057 0.02953229 -0.690969 0.26260707 -0.3228104 -0.15768027
15 0.06814771 -0.18121994 0.17229423 0.7421222 0.005964606 -0.3473934 0.7455414 0.29891613 0.0028900765 -0.13368177 0.2527072 0.010081454 -0.055897634 -0.17428307 -0.6290714 -0.22930449
9 0.18730873 0.7205183 0.13882096 0.5160377 -0.10366265 -0.25663894 1.1021332 0.28847867 0.30040625 -0.15396781 0.20692435 0.035946786 -0.7193947 0.19106036 -0.29522726 -0.099729516
16 0.12861635 -0.15553345 0.09145807 0.8151096 -0.003761761 -0.30696434 0.7595194 0.26121628 0.027864117 -0.08332827 0.23075452 -0.012719346 -0.17190054 -0.14180976 -0.57259595 -0.2692056
24 -0.47758126 -0.67113304 0.3192954 0.31922996 -0.2724265 0.44150445 1.1460662 0.30427113 -0.3084744 -0.09207062 0.18675731 0.5526651 0.1757186 -0.1217164 -0.37458426 -0.33171666
25 -0.47188634 -0.72470444 0.44338202 0.31150225 -0.31446996 0.49898973 1.2172788 0.30874696 -0.3721167 -0.085121594 0.090533555 0.62975895 0.12650788 -0.048029177 -0.38123775 -0.38517568
12 0.06585246 -0.055259675 0.18570267 0.720265 -0.0070034657 -0.39309174 0.6809412 0.22744872 0.023907956 -0.08176267 0.23696226 -0.01967682 -0.14809571 -0.167131 -0.62157995 -0.29557142
14 0.036080424 -0.13406286 0.113434166 0.70842755 0.0048251944 -0.27554467 0.6986595 0.21879195 -0.08003306 -0.02860777 0.11339508 0.010724498 -0.18986532 -0.1031355 -0.6274637 -0.26867387
7 0.20975208 0.9214064 0.11721662 0.46838003 -0.065891474 -0.36229303 1.1760523 0.3477068 0.3034745 -0.19052005 0.23357908 0.07875873 -0.8500253 0.28611642 -0.22784773 -0.11883057
26 -0.38055056 -0.61702883 0.41051683 0.31179723 -0.2979892 0.35755533 1.1110582 0.35757133 -0.26923752 -0.17720604 0.09968288 0.59937006 0.15613489 -0.122297294 -0.35837743 -0.37637946
