28 16
11 -0.19285494 0.16519688 0.22219542 0.6142385 -0.28765458 -0.24135855 1.1797192 0.6274033 0.0449803 -0.09116953 0.41097432 0.17742862 -0.7195152 0.11857407 -0.29372436 -0.3178383
18 -0.63517416 0.38690338 -0.044673324 -0.07212385 0.4139758 0.75893664 0.7563824 0.1590165 0.5862391 -0.31753573 0.5445651 0.06434384 -0.47670627 -0.67068 -1.0501769 -0.38340977
6 0.530074 -0.7459862 0.3520446 1.082625 0.32839888 0.17803095 1.4081477 -0.265707 -0.41440514 0.22641504 -0.51286876 0.059324127 0.14463194 0.16769634 -1.0523832 0.27693376
0 0.22839259 0.62974465 0.093198314 0.99033034 -0.103202544 0.12388261 1.12648 -0.8367248 0.11639753 -0.16359769 -0.414742 0.67804784 0.4620855 0.21202087 -0.53045696 -0.48704815
27 -0.64695525 -0.5104149 -0.34471616 0.31565025 -0.23154113 0.8002997 0.9242729 0.72490156 0.36667413 -0.6166988 0.23064181 0.49188107 0.116854675 -0.7260957 -0.31216222 -0.7316113
5 0.22292054 -0.0067703584 0.2724656 0.8582264 -0.034270406 -0.007900015 1.0892944 -0.22878985 -0.14273907 0.09619192 -0.20069233 0.24537636 0.04895558 0.19999671 -0.43594205 -0.06968751
17 -0.4818278 0.009003354 -0.0106514 0.2646605 -0.12895133 0.28257564 0.84021664 0.5439441 0.32168055 -0.27566934 0.38867667 0.23215646 -0.4465645 -0.35069743 -0.361071 -0.4331318
22 -0.5774794 0.27363846 0.0078046564 0.14762588 0.32221898 0.7155783 0.7173046 0.12770651 0.4586773 -0.30689028 0.45838338 0.030574305 -0.24807161 -0.5435176 -0.90150326 -0.33517677
19 -0.58434135 0.3366315 0.05760842 0.0018629725 0.26476538 0.60269946 0.6914892 0.16300164 0.50885123 -0.23584634 0.5118646 0.12980792 -0.27057686 -0.611789 -0.893792 -0.36544967
4 0.12545665 0.48973942 0.15025593 0.8288426 -0.035339627 0.16730933 1.0242697 -0.7264185 0.08857707 -0.10022609 -0.33240998 0.58549434 0.45235065 0.18521272 -0.4945956 -0.3347319
2 0.12215886 0.400177 0.10115072 0.79141384 -0.009457984 0.16661045 0.98817855 -0.6795602 0.10042052 -0.058962174 -0.36304668 0.4394569 0.4212233 0.19904792 -0.49535227 -0.38069177
21 -0.57302755 0.2600545 0.011432668 0.021940922 0.23081829 0.6708032 0.6538604 0.037751596 0.44874048 -0.27961585 0.39799047 0.004962032 -0.24199134 -0.57188404 -0.81416315 -0.34994963
10 0.3480587 -0.60813564 0.27563363 0.9312842 0.24517772 0.20200232 1.1192034 -0.15344031 -0.25813162 0.14307477 -0.39587545 0.097448766 0.17577103 0.15095548 -0.8485166 0.1427727
14 -0.19196185 0.16373864 0.15054016 0.54908437 -0.1403165 -0.182257 1.1541809 0.45554933 0.08093627 0.018531531 0.23579599 0.16026443 -0.63538057 0.045507375 -0.25366017 -0.3249245
9 0.40351418 -0.4952736 0.34607482 0.8926977 0.15350077 0.19470803 1.1089801 -0.2783338 -0.3045139 0.11804419 -0.4085578 0.09002983 0.14394319 0.15855567 -0.7458269 0.13377766
20 -0.567457 0.30102444 -0.012501124 0.121486865 0.3121741 0.66735697 0.7014294 0.075820565 0.42182237 -0.27622423 0.41838124 0.06473768 -0.33158705 -0.58639014 -0.9109674 -0.39346412
13 -0.12503335 0.05178258 0.13589327 0.52885723 -0.12451091 -0.16138643 1.0944136 0.43627343 -0.0057864403 0.022793878 0.29528084 0.19709092 -0.5516015 0.090531364 -0.24110222 -0.19904709
1 0.17783743 0.49470526 0.09735921 0.8671818 0.0149221895 0.150454 0.9147048 -0.68059254 0.09556365 -0.16919966 -0.37601677 0.5179542 0.39876089 0.11908429 -0.501356 -0.43432114
15 -0.07339173 0.073699936 0.14015731 0.57490456 -0.09023067 -0.1475548 1.0966222 0.46711513 0.083875775 -0.037839532 0.2971076 0.12477947 -0.56738156 0.103636295 -0.27512443 -0.24635917
8 0.45086375 -0.6274353 0.35750654 0.99453104 0.24956992 0.10402358 1.2191453 -0.18150873 -0.30385244 0.13961737 -0.34854257 0.058653094 0.20543626 0.14497946 -0.8517874 0.24969621
16 -0.10747263 0.042668045 0.22741842 0.586427 -0.17599247 -0.07104918 1.0518446 0.4189977 0.059147 -0.04336764 0.23608798 0.12994339 -0.52824193 0.014005032 -0.29424065 -0.16393133
24 -0.42155388 -0.42212415 -0.29279798 0.31097776 -0.12991278 0.63204074 0.79747444 0.49049014 0.3345716 -0.39841798 0.19286688 0.35793936 -0.008891878 -0.55373067 -0.25603327 -0.49864477
26 -0.5713657 -0.45118326 -0.2933648 0.25089017 -0.12748577 0.7152164 0.8251039 0.48205125 0.31928787 -0.41324443 0.22794943 0.38493088 0.057695813 -0.6159004 -0.32120308 -0.47742233
7 0.34424487 -0.5298966 0.33846748 0.8681401 0.1792186 0.23349012 1.0960565 -0.27076152 -0.29598406 0.1734158 -0.39941755 0.12997712 0.12361163 0.18128891 -0.7396904 0.14593716
3 0.0682318 0.40841183 0.15721658 0.7913591 -0.08456708 0.076392934 0.9057232 -0.52551156 0.10870756 -0.15015022 -0.17634578 0.49297592 0.3168166 0.05892881 -0.45649895 -0.4261074
23 -0.5152246 -0.44198197 -0.2975416 0.22264151 -0.11759591 0.6752041 0.73671085 0.50807285 0.25698447 -0.36895716 0.10334254 0.4061398 0.008736893 -0.54607713 -0.31510994 -0.5097259
12 -0.19913258 0.11706017 0.22408992 0.5263788 -0.17588206 -0.19199173 1.1937041 0.6171648 0.05333595 -0.06275779 0.34169695 0.20092075 -0.6866347 0.029391095 -0.25750437 -0.25555995
25 -0.53802747 -0.48013094 -0.2231707 0.20792261 -0.18496975 0.70627 0.79016936 0.56130177 0.34278032 -0.51732934 0.13651161 0.47278738 0.07824015 -0.6614921 -0.28309512 -0.5578383
