28 16
11 -0.091345474 -0.08616183 -0.026968418 0.50429326 -0.08327063 0.12947582 0.8913975 0.14226389 0.018133631 -0.066654325 0.15261835 0.055571835 -0.15708314 0.04015742 -0.3453378 -0.21102993
0 -0.07512986 -0.07389893 -0.12786296 0.4187684 0.05111915 0.22549036 0.9653908 0.07358442 0.11324782 -0.06765235 0.114663795 0.09868332 -0.17453744 -0.040763084 -0.4025027 -0.21877962
18 0.0066229114 -0.13718326 -0.06689105 0.36304334 0.038427863 0.116815716 0.7159951 0.032392923 0.00021231628 -0.013820409 0.019497802 0.014449719 -0.09093371 -0.018395597 -0.31098768 -0.117266774
6 -0.03464503 -0.011083274 -0.12290584 0.42725453 -0.033569627 0.14847803 0.7941422 0.033383437 0.07771057 -0.079933636 0.0793361 0.120988846 -0.1143251 -0.00022120879 -0.3005825 -0.22733411
27 -0.071751416 -0.11870311 -0.09509064 0.54651344 -0.030837106 0.2449984 1.0302086 0.15964319 0.10966703 -0.13456367 0.14102766 0.050628595 -0.0675615 -0.021053221 -0.34361476 -0.31779036
5 -0.07379509 -0.05241565 -0.020979522 0.41558436 -0.046787657 0.15383835 0.74130106 0.035402805 0.027830452 0.006136527 0.10398955 0.055923898 -0.07804435 -0.004511187 -0.20454589 -0.12769935
17 -0.10013455 -0.12053497 -0.040765688 0.3480764 -0.06646558 0.15254608 0.6240317 0.09107516 0.09610719 -0.07533659 0.07219131 0.07310608 -0.09446601 -0.047188766 -0.21109295 -0.19778045
3 -0.08817221 -0.0008111664 -0.026362041 0.32285988 0.05251612 0.16501062 0.51661134 0.03348065 0.06223274 -0.05452976 0.12330453 -0.02998029 -0.02932826 0.009110762 -0.23789792 -0.09646061
21 -0.03899142 -0.0016926352 0.03405745 0.17115322 -0.0070371297 0.043462824 0.40721312 0.052461464 0.075437896 0.010997566 0.10062391 0.07946527 0.0011298996 -0.05316113 -0.20237362 -0.09930563
1 -0.07149322 -0.0018700378 -0.008104279 0.28474915 0.015017531 0.12947048 0.6112154 -0.01738509 0.04341229 -0.007447194 0.06803174 0.08479988 -0.019859679 0.030858196 -0.22001502 -0.079139546
24 -0.0833307 -0.027464272 -0.07369715 0.18713978 0.024534965 0.12806758 0.47499824 0.0046326946 0.09548905 0.011601333 0.027309334 -0.030553013 -0.01586232 0.03259611 -0.15370251 -0.15260273
22 -0.0751208 -0.06860975 -0.0016097776 0.21218188 -0.062545784 0.11707032 0.47629306 -0.000620635 0.04469627 -0.04324965 0.04711344 -0.03707424 -0.04010315 -0.037802536 -0.16005173 -0.120889306
8 -0.03204051 -0.104325466 -0.06589695 0.3083618 0.026664587 0.08746794 0.48502025 0.072205484 0.03425627 -0.008772372 0.028471928 0.037498858 -0.02481323 0.04171624 -0.22595656 -0.11122965
4 -0.092394024 -0.0028096496 -0.07038105 0.22109187 0.06573689 0.106577255 0.5123704 -0.0034197015 0.07747369 0.033201434 0.0070064645 -0.0063143396 -0.10158616 -0.04070114 -0.20222375 -0.1624206
19 0.0074504185 -0.09560676 0.008902445 0.3315667 -0.04552046 0.14003542 0.60030097 0.0018758844 -0.0019779424 -0.05044314 0.010387593 0.022868806 -0.07221748 0.008161082 -0.20232183 -0.14343219
10 -0.07775651 -0.032048244 -0.05649967 0.298367 0.026427766 0.12288419 0.49085626 0.020503324 0.011825036 -0.030495763 0.07635829 0.018248858 -0.108304836 -0.052614227 -0.23623192 -0.15513201
7 -0.063660346 -0.08222934 -0.113262445 0.29861447 0.034573175 0.09544274 0.66418177 0.05456963 0.0073031913 0.028605957 0.12927958 0.081953 -0.11901205 0.029614424 -0.20192254 -0.11942938
20 -0.0059586335 -0.035395913 -0.044795718 0.2529715 0.05537768 0.10633489 0.36966693 0.033449084 0.035288658 -0.07415505 -0.009654003 0.02022448 -0.043343537 -0.044297162 -0.17734376 -0.13707128
25 0.018475061 -0.0673489 -0.07736965 0.3049617 0.05228373 0.0910398 0.568138 0.08539316 0.09385622 -0.0358801 0.1116933 -0.014433505 -0.11075851 0.049058985 -0.17573468 -0.14889894
2 -0.020976933 -0.076497294 -0.03146922 0.32898426 0.042188246 0.06379013 0.6101752 0.07621181 0.06935067 -0.07066565 0.1257576 0.023577312 -0.01710198 -0.042952232 -0.26327467 -0.0882839
13 -0.028866192 -0.069668435 0.027243722 0.29211774 -0.07335989 0.11108728 0.47731215 0.06656067 0.043834265 -0.021274725 0.058349617 0.006422452 -0.10510155 -0.015739774 -0.12843059 -0.04767217
23 0.025194084 -0.10502937 -0.1078498 0.32763976 0.019489639 0.15305188 0.55487627 0.033122905 0.10710073 -0.021738024 0.07792862 0.0097111575 -0.07997889 -0.023557212 -0.14466572 -0.13266899
15 -0.10252769 -0.1048579 -0.072450235 0.2276274 0.00313361 0.15143368 0.47512245 0.013951277 0.034310717 0.009300688 0.10471357 0.023049662 -0.035855725 -0.038782954 -0.16453135 -0.05204966
12 -0.06372687 -0.11590845 0.0015718304 0.211227 -0.026890647 0.16062434 0.44372094 0.018348495 -0.00513854 0.024541225 0.02364768 0.052396554 -0.10547344 0.038628824 -0.12735789 -0.0900918
9 -0.051790018 -0.06444181 0.004302056 0.2954258 -0.014156441 0.037402064 0.45077682 0.03340456 0.031696185 -0.04125801 0.12596989 0.03724903 -0.029602043 -0.049612872 -0.20177358 -0.15406254
14 -0.09811542 -0.05525937 -0.08504111 0.268584 0.009926946 0.15524521 0.5557705 0.068407655 0.013198612 0.016989198 0.02735807 0.07234432 -0.12889329 0.01047281 -0.22592188 -0.15302011
16 -0.058085866 -0.008697924 0.01005669 0.17363608 -0.009725697 0.029251518 0.4384557 0.0970272 0.009339122 -0.016479237 0.0532412 0.06261406 -0.10841104 0.0006285737 -0.09668391 -0.07991986
26 -0.031672556 -0.13580857 0.0005478093 0.2566143 -0.024826821 0.15114944 0.56257224 0.06453779 0.071652725 -0.08189949 0.004956826 0.08670269 -0.027867928 -0.053105593 -0.16794764 -0.1436349
