28 16
11 -0.061859857 0.020611402 0.03439755 0.26418433 -0.07670846 -0.008277043 0.49602345 0.10015382 -0.023591988 -0.057693765 0.09992667 0.074329875 -0.058242504 0.017116774 -0.21597649 -0.11756381
27 -0.029788662 0.019117165 -0.053207368 0.14155345 0.033090256 0.07121924 0.4823453 0.046493612 0.04871402 -0.05506151 0.04255924 0.1156888 -0.08342153 -0.044421054 -0.223538 -0.10474426
0 -0.00742411 -0.030703627 -0.01574191 0.21004546 0.042905793 0.00028486128 0.49215168 0.01738922 -0.047917183 0.0029371874 0.0029590393 0.05280222 -0.023365662 -0.03309745 -0.2512117 -0.050570995
18 -0.028085973 0.077215165 -0.05751957 0.28693125 -0.040715624 0.049912337 0.6147338 0.027707504 0.036543034 -0.08303024 0.041668892 0.16155228 -0.056030296 -0.024113093 -0.24908239 -0.17339526
6 -0.08555113 0.0389215 0.010495588 0.3090816 -0.038921226 0.052592896 0.61844206 0.12920068 0.006814817 -0.10719183 0.11170453 0.110251874 0.02343079 -0.048177816 -0.26498556 -0.18317069
17 -0.03492076 0.030618457 0.031822387 0.19049257 -0.044190638 0.038049825 0.355398 0.004009283 -0.014595746 0.01759212 0.04687567 0.059712365 -0.0012246473 -0.007780287 -0.06403937 -0.036495958
5 -0.10778441 -0.031029489 0.013683838 0.21072263 -0.06672493 0.045587797 0.40334144 0.07828567 0.057067093 -0.06416908 0.058249764 0.101406574 -0.03146188 -0.06530488 -0.15750831 -0.13381872
25 -0.054717302 0.050596885 0.019798022 0.13953325 0.038543 0.064796835 0.18364276 0.01730153 0.017266002 -0.043785542 0.075139284 -0.026845137 0.025553133 0.011627163 -0.112320855 -0.01739866
9 -0.032074008 0.049819496 0.06554811 0.060238548 -0.0065888227 -0.02543738 0.20903526 0.04071337 0.050124098 0.024025073 0.084872454 0.0941853 0.042461295 -0.05920689 -0.13782662 -0.042459447
15 -0.04279353 0.0564765 0.038706273 0.08887896 0.0017897313 0.027007038 0.25788796 -0.036546934 0.0026485755 0.0024092542 0.020428352 0.091715395 0.042387906 0.028497685 -0.09187806 0.00026794896
3 -0.10333934 0.03399756 -0.029847112 0.117731765 0.01782228 0.05939586 0.38746053 -0.004834676 0.053602677 0.023507591 0.014511546 -0.0019167159 0.020512572 0.020794027 -0.14809765 -0.121253416
14 -0.06321819 -0.011543134 0.03281212 0.035459474 -0.065401584 0.034929436 0.15859464 -0.0283102 0.009114329 -0.022794414 0.01571103 -0.03830327 0.0073493267 -0.036542002 -0.046434604 -0.04220985
24 -0.015438821 -0.042014632 -0.015345022 0.13411206 0.028496655 0.005053684 0.19694635 0.055539407 0.005962332 0.0003977907 -0.010858147 0.033711005 0.03527441 0.033631936 -0.12878644 -0.036802515
4 -0.07590329 0.04612731 -0.026791112 0.055160478 0.055294193 0.014504281 0.21141864 -0.019578248 0.03742921 0.052701037 -0.030325357 -0.0057574473 -0.048550516 -0.043049958 -0.09337432 -0.089570396
23 0.03650443 -0.02384237 0.050412465 0.10551239 -0.04406349 0.03967444 0.19053794 -0.030830264 -0.04342898 -0.028076718 -0.037210498 0.018486869 -0.0145940855 0.016167555 -0.05003055 -0.03850264
12 -0.06202587 0.019219844 -0.0047215912 0.15465826 0.013560047 0.048755933 0.2528049 0.006830385 -0.02457647 -0.026996488 0.036227114 0.029819515 -0.06373198 -0.05838905 -0.1548972 -0.092717506
13 -0.0454767 -0.016485183 -0.039113708 0.11625266 0.015835727 0.0031169092 0.35624892 0.0395366 -0.04186878 0.033313427 0.082204774 0.089446194 -0.06504128 0.021306207 -0.09779392 -0.0367719
21 -0.00420637 0.023831172 -0.026803395 0.19312918 0.056800142 0.05171198 0.29665706 0.02690238 0.013884174 -0.07238485 -0.0203108 0.059343103 -0.023244213 -0.050009046 -0.15065019 -0.11721015
26 0.038812947 0.0044273697 -0.02801285 0.10519101 0.051349305 -0.012168189 0.19789805 0.048961714 0.038776334 -0.009027223 0.06825044 -0.019291522 -0.06504623 0.053942975 -0.0573591 -0.042091474
7 -0.010538782 -0.016634244 0.024870506 0.17124963 0.02831668 -0.03274476 0.33341044 0.066086255 0.03514012 -0.06053261 0.094926775 0.03784695 0.044950083 -0.060579594 -0.17279401 -0.018325884
8 -0.00968807 -0.008360684 0.06694787 0.1376362 -0.0671786 0.023201875 0.2022019 0.04762867 0.019444441 -0.01070426 0.030912751 0.0067967605 -0.049546782 -0.027679073 -0.04690059 0.02219088
20 0.033842932 -0.026939616 -0.06563261 0.17959312 0.014664086 0.056463756 0.30070323 0.005892196 0.050725643 -0.0016156744 0.044535562 0.036629412 -0.044728182 -0.023913246 -0.07378308 -0.05940524
1 -0.10288053 -0.052943457 -0.037152253 0.11664186 0.008458751 0.0753063 0.2977831 -0.0012583119 0.011688562 0.019141069 0.08119719 0.029794835 0.020154227 -0.05500278 -0.113892466 -0.008277438
19 -0.03807323 -0.05115281 0.031725086 0.0717654 -0.011813081 0.080205746 0.20116928 -0.010996406 -0.027732939 0.028653154 -0.013043812 0.055237845 -0.05149526 0.026761044 -0.05785501 -0.03425133
2 -0.040581577 -0.011371456 0.056542102 0.12974742 -0.016599435 -0.043874606 0.17216666 0.013799506 0.0018013197 -0.026887335 0.08548655 0.031815976 0.02611853 -0.062421203 -0.10729225 -0.08245513
10 -0.07556949 0.018826304 -0.038956936 0.105912 0.015070208 0.04990742 0.2632315 0.046282224 -0.018336527 0.024901183 -0.0040376345 0.07990039 -0.06356976 -0.010287363 -0.1379552 -0.081190184
22 -0.032293633 0.046971563 0.030275892 0.056332126 0.0006172864 -0.03622044 0.24012828 0.07388978 -0.011839998 -0.008006707 0.022237074 0.07333686 -0.072584726 -0.0030493294 -0.026669474 -0.029467363
16 -0.01204469 -0.051614445 0.052259557 0.038938016 -0.025351439 0.035188153 0.1621355 0.02413443 0.012250199 -0.05613319 -0.041968934 0.08625315 0.024187518 -0.049422357 -0.04676564 -0.037492167
