28 16
11 -0.07788057 -0.11896806 0.16290566 0.5606415 -0.09821018 0.063930996 1.0617961 0.110018305 -0.11072442 -0.038443305 0.103440806 0.060969662 -0.12153054 0.04416543 -0.3815605 -0.030787267
0 -0.07222177 -0.11226567 0.042812157 0.53103375 0.09508227 0.18418218 1.2757274 0.084913805 0.021473901 -0.048770912 0.10531296 0.17084502 -0.20724444 -0.085594974 -0.59384054 -0.08268506
18 0.00068966614 -0.18597423 0.14100546 0.48206165 0.07307814 0.01839816 1.1131337 0.004377343 -0.18351056 0.032552376 0.0146261975 0.03696095 -0.038539164 -0.013278968 -0.4364361 0.13790406
6 -0.025896799 -0.012773547 -0.009207385 0.535759 0.006371609 0.13610849 1.0413479 0.03299471 0.023198964 -0.08011496 0.09053776 0.14947246 -0.105507776 0.00013431284 -0.4124182 -0.09809644
27 -0.10809788 -0.108408265 0.09906809 0.525113 -0.03177362 0.13779196 1.1032437 0.10356465 -0.086777896 -0.08020841 0.12199772 0.07419971 0.025343694 -0.007457555 -0.3657139 -0.059065487
17 -0.07638598 -0.09047997 0.13992946 0.46107876 -0.041408073 0.09482375 0.94882756 0.007253189 -0.09486292 0.036664877 0.07170706 0.063879766 -0.02706161 -0.0029994342 -0.25785804 0.0394488
5 -0.117109574 -0.13301338 0.0875103 0.5068409 -0.050049074 0.13462915 0.9710753 0.09043449 0.0100027695 -0.0655587 0.086411305 0.118896425 -0.11008903 -0.051713962 -0.36294603 -0.08981727
9 -0.08386342 -0.0273747 0.07220491 0.46472687 0.072664626 0.14974159 0.8207963 0.040939707 -0.0047917664 -0.053202897 0.13927704 0.0104381265 -0.025749786 0.010059764 -0.3576725 0.0034189746
1 -0.077833235 -0.035587564 0.12686215 0.3825877 0.03846607 0.06982347 0.8869396 0.07124526 0.032542087 0.023069177 0.13903403 0.15753296 -0.063843146 -0.08947452 -0.44892246 -0.05618423
21 -0.06906453 -0.04372727 0.1312603 0.34980625 0.022537014 0.06484189 0.84047127 -0.028099293 -0.07164528 0.017180912 0.05448849 0.10133035 0.023632275 0.036478695 -0.28262138 0.07995718
23 -0.13436787 -0.06870496 0.039640196 0.33168578 0.023560325 0.13384488 0.8560788 -0.0013945919 0.0034269895 0.03131598 0.049772397 0.010475941 0.0028569894 0.030753905 -0.2835773 -0.05689606
22 -0.09243941 -0.10516903 0.119890764 0.3171038 -0.045896538 0.08024356 0.7790708 -0.013076744 -0.059119526 -0.015374329 0.053209048 -0.0122405095 -0.017707175 -0.03621039 -0.25672722 0.015912697
3 -0.04510206 -0.13220695 0.053939704 0.422238 0.062017184 0.08060348 0.7804535 0.0837341 -0.021375848 0.00012099868 0.03452679 0.07809458 -0.048438266 0.012157977 -0.3811229 -0.0220514
12 -0.105222255 -0.043108623 0.053903524 0.33287248 0.042474274 0.08628161 0.7705995 0.0010378071 -0.018224712 0.048281983 -0.006699747 0.024865868 -0.10707284 -0.03725232 -0.285745 -0.07355438
15 0.0034818193 -0.10324748 0.12880763 0.34234005 -0.06294508 0.0994929 0.65585 -0.013740721 -0.090441145 -0.027834572 -0.018698547 0.038133405 -0.059691064 0.017952662 -0.21339363 -0.025489941
2 -0.10556734 -0.073527485 0.06397167 0.46647924 0.059732366 0.132337 0.9087035 0.039618965 -0.043837022 -0.022897819 0.092100695 0.08562023 -0.14917277 -0.090419665 -0.4491666 -0.08611811
26 -0.074706145 -0.10756081 0.028853867 0.3080095 0.02864101 0.056625307 0.7736046 0.042916533 -0.09020554 0.046511803 0.10986954 0.08841312 -0.07097298 0.028188301 -0.22680615 0.027434614
13 -0.022889867 -0.060477503 0.052639842 0.36402327 0.045549203 0.09824723 0.62450534 0.034800835 -0.03184383 -0.06541346 -0.006665065 0.049244884 -0.04805875 -0.04108732 -0.26105237 -0.06535839
10 -0.0010526031 -0.066383235 0.015502092 0.45980874 0.0823774 0.08251193 0.8875389 0.08086003 0.026400529 -0.027616024 0.1447426 0.027097836 -0.118769646 0.050885443 -0.32497886 -0.045977738
20 -0.0131081715 -0.10165724 0.09838373 0.34657556 0.05168116 -0.006022081 0.71987605 0.056062147 -0.035829075 -0.043939065 0.10783925 0.026385324 0.028333215 -0.038399484 -0.28477436 0.07236561
16 -0.037076753 -0.08067096 0.12697999 0.3762331 -0.07355527 0.09111114 0.67885786 0.059500568 -0.022891263 -0.013494947 0.049831983 0.027462127 -0.10605783 -0.019407982 -0.20926797 0.030456927
7 0.030323854 -0.07834156 -0.031132719 0.35807964 0.042989764 0.10598503 0.6115423 0.019932343 0.04146982 -0.0062659453 0.08164816 0.038637478 -0.073717006 -0.018496867 -0.20124605 -0.023246879
25 -0.15085766 -0.1553443 0.0352774 0.37650767 0.006245728 0.16434568 0.8838431 0.0070362897 -0.049975377 0.021547616 0.12526408 0.052051373 0.013322631 -0.03800134 -0.27898398 0.041552123
14 -0.0678813 -0.14399132 0.122926176 0.34122273 -0.027794313 0.14833513 0.72894204 0.008108194 -0.084287964 0.02808565 0.011192856 0.06930105 -0.09760578 0.036776844 -0.23707691 -0.003945073
4 -0.07799797 -0.1013889 0.12801671 0.43471238 0.014270957 0.035024803 0.80721456 0.04410844 -0.031119484 -0.03272716 0.13763566 0.08456643 -0.04975828 -0.0829698 -0.3752415 -0.07200765
8 -0.08600401 -0.05279934 -0.00021520251 0.3700019 0.048827883 0.1329206 0.76056236 0.057474714 -0.036386058 0.018075414 0.03955013 0.095231734 -0.12292543 0.003676547 -0.33157983 -0.058647327
19 -0.05721782 -0.049041662 0.11911632 0.29642692 0.02435688 -0.0039630453 0.7595654 0.08554927 -0.07937982 0.00024377728 0.055261564 0.08002026 -0.09282109 -0.0054999148 -0.21849145 0.040144123
24 -0.06981635 -0.14953925 0.12383019 0.33513755 -0.013602875 0.11758345 0.8136256 0.04775058 -0.035672337 -0.056230877 0.017718632 0.11590002 0.01620967 -0.053370163 -0.2639658 -0.008600957
