28 16
11 -0.5137264 -0.2195071 0.16114728 0.46732074 -0.32939073 -0.017330533 1.0168836 0.5035751 -0.45472112 0.13003162 0.49956605 0.24984343 -0.5961857 0.29062307 -0.32746574 -0.09565628
6 0.07202343 0.06684299 0.1523319 0.068227075 0.608496 0.7536449 1.0187519 0.5049781 0.47384694 -0.4020551 0.17704274 0.5303359 -0.40547928 -0.48424783 -1.0551243 -0.19198395
27 0.41177368 -0.44970083 0.016985254 0.88613486 0.4196226 -0.4952829 1.385458 -0.3194031 -0.39142048 0.2920717 0.010964665 -0.16379642 0.24388044 0.30830896 -0.91785175 0.3891144
18 -0.34194905 0.30763394 -0.2725371 0.84478045 -0.5780938 -0.360018 1.0956655 -0.859627 -0.08980511 -0.1257183 0.24759799 0.003270037 0.16595253 -0.15886785 -0.6784235 -0.929627
0 -0.12728074 -0.4692384 0.20349619 0.84201753 -0.44323713 0.6631583 1.1749887 0.92894834 0.59713525 -0.458 -0.1811035 -0.0066746525 -0.1872902 -0.6321275 0.031537607 -0.6773403
17 -0.088248 -0.0043102936 -0.06005562 0.67855674 -0.11241653 -0.35658565 0.99385136 -0.5062546 -0.30072835 0.17534348 0.21483578 -0.039103456 0.12767644 0.15700893 -0.5512151 -0.14987332
5 -0.20156224 -0.24623235 0.16582158 0.3975896 -0.08525676 0.43436134 0.86169267 0.578238 0.23856314 -0.20606345 0.091330245 0.23532444 -0.35300592 -0.28345543 -0.29875606 -0.27999195
8 0.01091316 0.08018176 0.18110093 0.24567102 0.45861745 0.614717 0.85971737 0.38056293 0.3770941 -0.3425743 0.19223112 0.31334907 -0.22018954 -0.36977348 -0.88654643 -0.17171231
9 0.03601815 0.102109686 0.19181372 0.16909203 0.3724496 0.4854421 0.8545906 0.32645854 0.40072495 -0.27793393 0.18879694 0.40352473 -0.17367123 -0.42755383 -0.87568617 -0.23496132
25 0.27237308 -0.27693763 0.07081018 0.7353551 0.3298867 -0.31648532 1.2098165 -0.27238983 -0.23812349 0.21584857 0.04484686 -0.039013784 0.24618739 0.2730153 -0.73058957 0.31415546
19 -0.38298783 0.26090392 -0.20750076 0.6775398 -0.45752823 -0.18339978 0.99639654 -0.71008444 0.027505692 -0.07956424 0.18738459 -0.07852802 0.16155759 -0.16577038 -0.5842697 -0.86507666
21 -0.33549273 0.199147 -0.13451467 0.62703955 -0.47245735 -0.2076079 0.8909001 -0.6852215 -0.035023853 -0.09972442 0.19859713 -0.10130801 0.15462962 -0.19042021 -0.53556067 -0.7290748
23 0.2682831 -0.35761982 0.008492343 0.7639005 0.31130174 -0.33108705 1.1089277 -0.18611297 -0.2243255 0.19545569 0.019791258 -0.09474734 0.21827829 0.24923192 -0.7409348 0.22039272
2 -0.13389419 -0.32689288 0.14085138 0.6270987 -0.26664305 0.47213015 0.9611266 0.59943545 0.47630545 -0.23321407 -0.1936961 -0.03500892 -0.22531913 -0.51173687 -0.030847186 -0.51903903
7 0.09298053 0.007479701 0.19387482 0.22983359 0.32233608 0.5522042 0.84595203 0.3052203 0.3130711 -0.32887644 0.07096702 0.32931885 -0.23944837 -0.3656661 -0.7721044 -0.22681046
20 -0.3795818 0.30326444 -0.21878752 0.7760725 -0.50541735 -0.23716334 0.9457656 -0.80845904 -0.04240465 -0.13542865 0.21891348 -0.06438941 0.13558787 -0.27198854 -0.6499932 -0.9353377
15 -0.40828538 -0.24869402 0.059611395 0.4211057 -0.19308731 0.047911968 0.9944261 0.37097523 -0.30485797 0.1554454 0.36036992 0.21706648 -0.46346325 0.16176058 -0.23460098 -0.10815799
10 0.10814072 0.07422418 0.1259506 0.24396758 0.49716848 0.54992694 0.8389019 0.31395277 0.36883593 -0.366812 0.08549156 0.36085472 -0.20972429 -0.41956416 -0.9128522 -0.24120462
26 0.3337569 -0.3174213 -0.0052207024 0.733104 0.38863757 -0.37285632 1.1491417 -0.17719606 -0.23668021 0.21461295 0.11966741 -0.123337224 0.12300042 0.32687184 -0.7033411 0.2789175
24 0.36690664 -0.34496188 0.030342732 0.7736236 0.37316003 -0.4248203 1.1506861 -0.24561547 -0.2150791 0.16599678 0.072437555 -0.13974717 0.29875794 0.204956 -0.75325376 0.32661864
4 -0.08213937 -0.3534931 0.21582241 0.7029549 -0.36457124 0.489881 0.97997797 0.6309869 0.46321076 -0.3011262 -0.1219817 -0.009434153 -0.2235352 -0.5005382 -0.038789924 -0.43731946
1 -0.08619483 -0.36033064 0.083606064 0.72276986 -0.3373258 0.46732908 1.0013043 0.545023 0.45368674 -0.2607428 -0.08600933 -0.0057318164 -0.20941006 -0.4769866 -0.013850047 -0.5236554
13 -0.44766486 -0.2966183 0.068225056 0.41599026 -0.15591453 0.13795312 0.978453 0.36267814 -0.27425647 0.14344198 0.3691757 0.18922716 -0.41038758 0.11666203 -0.2905049 -0.042328484
16 -0.46672407 -0.32120025 0.13510886 0.43578756 -0.24480097 0.08428291 1.0015701 0.35846654 -0.3948418 0.20556295 0.33302763 0.21508655 -0.5083454 0.25385824 -0.23517184 -0.08040237
22 -0.36328787 0.2391948 -0.12883204 0.7254991 -0.52444285 -0.27286273 0.8425001 -0.6878228 -0.012516106 -0.1457066 0.2780162 -0.046132863 0.17498815 -0.2699868 -0.55160916 -0.8868883
12 -0.4903549 -0.24892814 0.053301908 0.46196443 -0.21880738 0.04962421 1.0159583 0.37760305 -0.3815447 0.20250207 0.33110276 0.20996217 -0.510288 0.22629404 -0.30422834 -0.1306029
14 -0.38717392 -0.19105992 0.1270326 0.41325054 -0.17287281 -0.008465783 0.99150777 0.3849338 -0.29437795 0.12209601 0.30611452 0.20153637 -0.44370857 0.16324976 -0.23655568 -0.09157278
3 -0.10077556 -0.3621631 0.18673238 0.6026758 -0.27806917 0.4095466 0.97137237 0.5076269 0.35988772 -0.2816149 -0.12704572 0.08134547 -0.1393303 -0.44572756 -0.122124694 -0.44022566
