159 32
115485051 0.0123175075 -0.20201412 0.24045144 -0.13276613 -0.05754093 -0.263546 0.43141294 0.117403425 -0.1061577 0.044274107 0.23491658 -0.44189036 -0.09192734 -0.24680166 0.16200782 0.00030139 0.0604931 0.13826732 0.018727398 0.178665 0.36740467 0.4784591 0.46570703 0.072216935 0.07933324 0.15893957 -0.3730367 0.153087 0.18015745 -0.3133919 -0.11043542 0.21989433
90420314 0.049155496 -0.2237124 0.21787597 -0.17367244 -0.00039949547 -0.2635308 0.4062707 0.08035896 -0.121994406 0.07427756 0.18901806 -0.44963858 -0.0757816 -0.26687762 0.15834387 0.037993368 0.07143411 0.16748692 0.014036577 0.22764848 0.3295023 0.4622834 0.46449208 0.05756023 0.07384271 0.14503707 -0.37882116 0.16399139 0.20295027 -0.3074314 -0.09594992 0.19279289
7727382 0.0087939575 -0.19355081 0.23537047 -0.11776878 -0.043052565 -0.21653157 0.44074017 0.12005401 -0.10960979 0.0064479886 0.23166823 -0.4271285 -0.05930573 -0.2734382 0.16707218 -0.021737654 0.011972072 0.16376284 0.08129219 0.24935818 0.33943474 0.4664921 0.46873942 0.046917003 0.05357997 0.19596234 -0.38026032 0.12982422 0.20828167 -0.31624886 -0.05887339 0.23804301
21212730 -0.02328929 -0.22771351 0.23089682 -0.10217002 -0.0535516 -0.20119007 0.41731066 0.10303291 -0.07507025 0.010395456 0.2061966 -0.39567837 -0.0853781 -0.26826075 0.16010524 -0.017594708 -0.005054525 0.17625594 0.067326464 0.25133163 0.36454058 0.46336448 0.41785845 0.058748633 0.07702704 0.16128175 -0.33783355 0.09613896 0.20264676 -0.2903102 -0.111147225 0.22708747
14297648 0.0015142184 -0.17773001 0.2603776 -0.14913647 -0.032175448 -0.23965694 0.42169395 0.09702239 -0.077617444 0.059837442 0.24267453 -0.38748896 -0.053195875 -0.28020304 0.14276895 0.0043546357 0.011644723 0.17644557 0.07751296 0.22045279 0.3465699 0.45003217 0.4559779 0.033167154 0.062892705 0.18047199 -0.37283155 0.15812548 0.22306962 -0.2793169 -0.09403319 0.2426473
7861312 -0.0128587345 -0.20772128 0.21256647 -0.18123439 -0.012606625 -0.23103958 0.44707286 0.054165795 -0.07658379 0.07980566 0.20852028 -0.47693282 -0.05492394 -0.25316614 0.17006966 -0.010473165 0.026419299 0.13778633 0.07172507 0.20083207 0.3308386 0.4844893 0.4798745 0.05814023 0.06594681 0.17324957 -0.38610515 0.106233604 0.20330629 -0.31541583 -0.08974775 0.22379938
25143948 0.008541229 -0.24554099 0.23685998 -0.13208707 -0.011608305 -0.25031686 0.41017446 0.106307924 -0.105442084 0.051375773 0.2048782 -0.45776913 -0.055926356 -0.24940541 0.16885594 0.019279318 -0.0022414378 0.1825501 0.041725803 0.23218876 0.39492422 0.48627928 0.48806792 0.048135225 0.09049047 0.21910384 -0.42494962 0.12290209 0.1845571 -0.34017742 -0.115880996 0.21109262
14391068 0.030022474 -0.21875632 0.25313902 -0.10951801 -0.047887802 -0.20451671 0.41870528 0.057512455 -0.12194769 0.019533528 0.17956191 -0.41824806 -0.076304704 -0.23902673 0.16497783 0.005519481 -0.003348422 0.15474437 0.056279626 0.24387139 0.34893423 0.44879046 0.4303129 0.05494058 0.0554847 0.1714058 -0.35507345 0.12109342 0.16187885 -0.31980824 -0.12054762 0.19955462
31353077 0.008117409 -0.21074907 0.1975822 -0.16437262 -0.011722942 -0.24816641 0.4329877 0.08041803 -0.11483568 0.08172459 0.2389348 -0.40884754 -0.09616646 -0.24674618 0.18683006 0.024939604 0.058205593 0.13865235 0.0418277 0.23360375 0.3692982 0.4603935 0.42907494 0.06750832 0.061058145 0.14199677 -0.39366907 0.1282376 0.19867212 -0.3129819 -0.10298887 0.19237462
47438746 0.03805295 -0.18971151 0.19787301 -0.14284685 -0.0059306268 -0.23823005 0.40818027 0.1105374 -0.05954697 0.06055001 0.22643082 -0.45114937 -0.095134616 -0.23618172 0.19240853 -0.0076766736 0.08539742 0.11013876 0.04448751 0.22030444 0.33730564 0.42770284 0.45371118 0.08411303 0.06690515 0.1384485 -0.3161474 0.116816774 0.24807227 -0.31795064 -0.10211026 0.23231529
316828902 0.02026857 -0.19545697 0.24761193 -0.14224866 -0.06863502 -0.2294074 0.4105527 0.113236465 -0.072958335 0.058310993 0.20563957 -0.44332892 -0.09216459 -0.27598205 0.20806274 0.022722915 0.10315426 0.09974663 0.0008547529 0.22398475 0.32776034 0.46897987 0.4409066 0.06466108 0.07715883 0.16558374 -0.33189017 0.115080446 0.2143514 -0.31035757 -0.05490419 0.21359286
10350 -0.017266454 -0.23079611 0.20731556 -0.14793846 -0.015083739 -0.20296703 0.41469747 0.05831994 -0.09241794 0.059096713 0.24023274 -0.42135262 -0.057009768 -0.28086326 0.16434702 0.03227483 0.029279571 0.10733694 0.07272369 0.20130056 0.32765406 0.46791136 0.41892073 0.059257668 0.040903725 0.19134282 -0.38204768 0.13509898 0.16925023 -0.2703078 -0.064526446 0.23034115
767396 0.008511728 -0.22063328 0.25968745 -0.1431639 -0.02890543 -0.27031845 0.38264197 0.07000966 -0.09644503 0.04366659 0.25175634 -0.44150233 -0.048650417 -0.2984662 0.16547295 -0.013148635 0.026191989 0.14730762 0.03163688 0.20311072 0.3581885 0.47603604 0.45337692 0.0861043 0.048392534 0.19713001 -0.39599353 0.14801818 0.16728707 -0.29041356 -0.10275899 0.209988
407977463 0.010174115 -0.17189454 0.23301183 -0.17951874 -0.030579323 -0.2586412 0.40696985 0.12045276 -0.093133554 0.05684318 0.20149618 -0.4031083 -0.09939659 -0.2587741 0.20540585 0.009446205 0.065727316 0.094003454 0.062755495 0.17982367 0.3081203 0.44975817 0.4134576 0.07511553 0.060417674 0.13362715 -0.37046167 0.15586515 0.228832 -0.32085127 -0.061235514 0.21000174
610533 0.030887613 -0.23667265 0.24354276 -0.14798541 0.0075569227 -0.26276436 0.41582948 0.05258416 -0.1250996 0.026434503 0.22261624 -0.46846473 -0.060128164 -0.2961622 0.18581307 0.008666654 0.04119293 0.14038083 0.0830598 0.24255414 0.3357835 0.49660084 0.4349589 0.09413879 0.05126248 0.18323797 -0.38029546 0.15479484 0.19752733 -0.27483398 -0.065252975 0.20420355
135635651 -0.011445124 -0.20974311 0.21889949 -0.17440785 -0.05640189 -0.2549637 0.4005515 0.10092846 -0.10625729 0.04055687 0.2076299 -0.43252623 -0.0530512 -0.274178 0.19364694 -0.026374666 0.090044916 0.12913013 0.03720476 0.19711299 0.28203884 0.43972588 0.40527958 0.040679164 0.024260568 0.14892153 -0.31394532 0.13525914 0.19337288 -0.31139332 -0.08252637 0.19949974
113806705 -0.009557754 -0.20751606 0.1974853 -0.18459643 -0.055129085 -0.23631293 0.35882583 0.084623046 -0.10390469 0.048617046 0.21774171 -0.37716785 -0.09101385 -0.26636308 0.18690078 -0.029862683 0.06575465 0.13415772 0.05385441 0.15762113 0.2874635 0.39611605 0.40062267 0.09679424 0.07051749 0.16517304 -0.30527797 0.10928007 0.23251116 -0.30633885 -0.08866717 0.19281784
930061 0.013901644 -0.2273611 0.2368801 -0.1309379 -0.018669387 -0.25043994 0.42761803 0.04571016 -0.07475116 0.073379144 0.19638886 -0.4332101 -0.04452154 -0.3014358 0.14822981 -0.019855188 0.06541871 0.14526264 0.086805664 0.19692582 0.36320448 0.46852684 0.4562091 0.08805941 0.03710426 0.15084961 -0.37881306 0.15592338 0.22092928 -0.2852645 -0.092119284 0.25964686
69225990 -0.023945974 -0.1916885 0.23584548 -0.1151426 -0.0064268024 -0.24337289 0.4240868 0.05543795 -0.10225713 0.0010830243 0.19284564 -0.38225827 -0.084672 -0.2471115 0.1905481 0.039713126 -0.0116565 0.14527422 0.09344559 0.24948135 0.33922425 0.41240913 0.44269237 0.038968645 0.094757415 0.16068721 -0.37176198 0.13865876 0.19319381 -0.29785243 -0.075187735 0.22746968
6978642 0.005209564 -0.20951761 0.24806425 -0.14692447 -0.017691866 -0.20796359 0.3810034 0.06840495 -0.060002748 0.06835931 0.22007132 -0.45459923 -0.06405285 -0.27753678 0.19832277 0.005653835 0.054252334 0.14781137 0.046236314 0.20029402 0.33483982 0.43239498 0.45218742 0.112040326 0.05719793 0.18134624 -0.37863868 0.13365386 0.17412739 -0.32153684 -0.10260965 0.19695519
13055232 0.032487355 -0.21757305 0.23962322 -0.16808194 -0.012700216 -0.2012866 0.3658072 0.035019692 -0.10406659 0.03473542 0.20852324 -0.44813704 -0.097271435 -0.25281727 0.13408124 -0.023012722 0.035907432 0.10484995 0.030513285 0.1758479 0.32605964 0.42057568 0.44609824 0.07717781 0.047767136 0.18930176 -0.37616363 0.11355029 0.1568586 -0.2939733 -0.08723118 0.2343211
293296964 0.0063926606 -0.17898563 0.250669 -0.19347727 -0.020322418 -0.21937338 0.38506594 0.1169647 -0.060607594 0.029821593 0.18554495 -0.4297808 -0.07602751 -0.293025 0.22492205 -0.017744323 0.050847366 0.12085332 0.026933575 0.20329218 0.3172764 0.46372497 0.43602067 0.077794835 0.08239121 0.14467272 -0.35500565 0.14807287 0.2501295 -0.32646394 -0.045640383 0.24086423
470529091 -0.0057338476 -0.18491091 0.23087059 -0.17126378 -0.05290874 -0.24703044 0.37506598 0.093405195 -0.06273187 0.043550912 0.20205261 -0.41254938 -0.04913329 -0.26495522 0.17041828 -0.034816325 0.07491729 0.13375968 0.040269796 0.15913111 0.28774145 0.47202146 0.41150427 0.08990286 0.034320597 0.1834404 -0.34640652 0.1272852 0.2156897 -0.32066682 -0.07561984 0.20194678
14515931 -0.009456855 -0.19987269 0.19653 -0.11723139 0.0053482316 -0.21889757 0.38768345 0.089827046 -0.070117384 0.0126963025 0.17968854 -0.41028947 -0.04512552 -0.24383299 0.12887213 0.0062741702 0.050155386 0.12482976 0.03683947 0.24671693 0.2993827 0.44071078 0.41978627 0.076664686 0.089192376 0.1565458 -0.37007332 0.1557795 0.1909768 -0.2691728 -0.11898904 0.24636462
20536157 0.008334265 -0.2177989 0.22823681 -0.14210926 -0.00466121 -0.23101981 0.37974188 0.08522806 -0.06337381 0.019704964 0.21021207 -0.4357703 -0.08951451 -0.25457516 0.13380186 0.013402774 0.04201805 0.13069047 0.0688798 0.2429448 0.35018995 0.4213039 0.42252967 0.05333211 0.037897956 0.18845686 -0.35853973 0.12508294 0.17901033 -0.30167782 -0.06501981 0.20238407
322303756 -0.01839261 -0.15203938 0.21919699 -0.13114041 -0.01266566 -0.20971552 0.39608133 0.07603616 -0.09703661 0.06610392 0.2051459 -0.424144 -0.032064494 -0.26515776 0.21605432 -0.0013034776 0.05178859 0.104783356 0.0066899974 0.17470421 0.30510974 0.46579584 0.4375253 0.04797098 0.06685954 0.1585426 -0.3298932 0.08535554 0.2143646 -0.31549084 -0.047334794 0.18059622
93516421 0.021694034 -0.16993853 0.2206308 -0.10468705 -0.03281382 -0.18810378 0.4086646 0.05034354 -0.10678553 0.037961077 0.19879717 -0.4082676 -0.0764906 -0.24743114 0.15681592 0.024654055 -0.0047584134 0.13678539 0.05697285 0.2221392 0.33346215 0.41293973 0.43060797 0.050835878 0.0747742 0.1731545 -0.33806446 0.10579759 0.15728103 -0.3026192 -0.062231638 0.21212506
130650476 -0.028380098 -0.18036076 0.19177535 -0.13966663 -0.067570865 -0.20879403 0.33091486 0.09823302 -0.056411833 0.075409874 0.16792196 -0.42308787 -0.08436149 -0.2817607 0.15057023 -0.011964876 0.06969909 0.08424958 0.051411893 0.18019086 0.31988296 0.43311384 0.40808833 0.04372738 0.044411257 0.16518584 -0.3314333 0.120350644 0.21592964 -0.29312545 -0.029436989 0.224058
28040164 0.014374611 -0.16986094 0.23611736 -0.13398401 -0.044044532 -0.22342713 0.36527365 0.10875416 -0.10351028 0.0067979363 0.18303615 -0.37939152 -0.086795725 -0.25256562 0.16472103 -4.7251684e-05 0.0034824547 0.14845 0.046853874 0.2461647 0.3376534 0.3885555 0.42635128 0.037536964 0.06800764 0.17882608 -0.36778006 0.11727205 0.20623007 -0.3003627 -0.114565626 0.2391547
17587207 0.005283324 -0.20084071 0.23733222 -0.14084649 -0.014784689 -0.20071535 0.3495929 0.10580306 -0.073817335 0.0631329 0.20278081 -0.39474025 -0.053634826 -0.23437557 0.16516122 -0.010675269 0.059591737 0.13372786 0.029538656 0.21980266 0.32195303 0.44826975 0.4115544 0.093045466 0.04833913 0.18124504 -0.3194785 0.10271788 0.18885855 -0.29245767 -0.05822735 0.20405535
816214 0.002964475 -0.17799427 0.2536075 -0.15289757 -0.03238103 -0.24699892 0.37799647 0.03765809 -0.08883472 0.030682629 0.22416195 -0.4039707 -0.08288819 -0.29601625 0.17046346 -0.02028764 0.048939414 0.12418596 0.07871929 0.21025607 0.346225 0.429541 0.42502213 0.10164798 0.064522475 0.15376373 -0.3876063 0.13162003 0.2070227 -0.26962703 -0.11019372 0.2491764
271606879 0.026681848 -0.15358624 0.23602723 -0.18056907 -0.062780745 -0.19868256 0.3869288 0.09934178 -0.052732583 0.042702038 0.21577239 -0.4261249 -0.09340958 -0.27121985 0.16464673 0.013379433 0.053136647 0.08290699 0.060530808 0.16560677 0.32697725 0.40562266 0.4115467 0.08275044 0.060583007 0.13603233 -0.30488858 0.08687233 0.19533709 -0.2924078 -0.040611915 0.18199061
41269447 0.01356617 -0.18584071 0.23410554 -0.19293688 -0.009299751 -0.25260732 0.40527377 0.10553497 -0.058505293 0.08842595 0.23686318 -0.4287815 -0.06529668 -0.28394675 0.17567156 0.009190309 0.059213012 0.1348322 0.015485908 0.25090706 0.30631152 0.42979932 0.41609254 0.0670411 0.028250357 0.16226368 -0.38661802 0.1396747 0.20191106 -0.30615315 -0.058357712 0.2343115
16044551 -0.013729721 -0.21122943 0.2491168 -0.11163211 -0.055502106 -0.2267713 0.41115686 0.091898456 -0.1275246 0.046133764 0.17517674 -0.4398134 -0.06214534 -0.2576961 0.17342451 0.0379344 0.0083217425 0.18069164 0.063850395 0.2604902 0.358465 0.4111633 0.4154516 0.080164656 0.0841751 0.20384851 -0.34085417 0.15597385 0.15751405 -0.2869098 -0.10661723 0.23083892
357958504 0.032858577 -0.1727453 0.24249345 -0.16701026 -0.039927654 -0.21124294 0.35653225 0.09734139 -0.045545418 0.04082893 0.21087696 -0.44500598 -0.042216036 -0.23992823 0.19258432 0.011461474 0.08145806 0.087604254 0.029914292 0.20458879 0.3009048 0.43281543 0.43493003 0.08221381 0.046852294 0.14912505 -0.31422523 0.106159404 0.20743014 -0.31997252 -0.0781644 0.17701206
14413715 -0.0025619597 -0.23039019 0.2225598 -0.17313513 -0.050070968 -0.25854915 0.3733728 0.09231973 -0.081164815 0.044368085 0.20363532 -0.44225252 -0.06954559 -0.25809115 0.16574663 0.005549513 0.045738626 0.13627435 0.027277606 0.18586956 0.30533564 0.4331398 0.4318099 0.093730666 0.051874466 0.1583447 -0.33237326 0.12840548 0.17965017 -0.2561609 -0.07654519 0.19983949
30614676 0.035191588 -0.17465816 0.18087357 -0.1543993 -0.026373286 -0.20028058 0.36311352 0.07252322 -0.07646798 0.059210956 0.19510932 -0.41011494 -0.08882388 -0.22064172 0.19445136 0.031330977 0.02925174 0.1287303 0.027640885 0.21625544 0.31931397 0.43508545 0.40841067 0.08511522 0.033702828 0.17516372 -0.33935022 0.11238386 0.18591174 -0.24572918 -0.101863414 0.18949592
154239882 0.03967929 -0.17649604 0.18609492 -0.17399795 -0.0017680813 -0.1986235 0.3779146 0.07702457 -0.10712191 0.0631899 0.21039507 -0.41226494 -0.08987028 -0.25848162 0.16395473 -0.008723078 0.053805735 0.0965615 0.068295605 0.16208862 0.31065422 0.4283894 0.38447398 0.09390479 0.08324343 0.13299988 -0.34358156 0.09488314 0.17818515 -0.29083765 -0.07966195 0.17542954
6017542 0.018941332 -0.18648632 0.23997703 -0.16109303 -0.039672617 -0.22661956 0.3946645 0.10590635 -0.08995659 0.07164314 0.1807628 -0.3914459 -0.08073569 -0.23396917 0.1499487 0.009483977 0.046964336 0.13537486 0.032899972 0.17626189 0.30488098 0.40589613 0.42754138 0.07329606 0.056422822 0.18449335 -0.36582112 0.12260996 0.16493216 -0.3223803 -0.051731445 0.19736141
14413075 -0.008222359 -0.18098666 0.24040411 -0.16803719 -0.017197143 -0.24380822 0.3916014 0.060115617 -0.09829008 0.052722044 0.23635787 -0.39176512 -0.09930117 -0.27430663 0.19042262 0.0104759345 0.028588466 0.1367756 0.07972164 0.20171219 0.29728025 0.43688294 0.44045803 0.091234736 0.07228293 0.14629813 -0.35725015 0.12493467 0.20249517 -0.31125072 -0.10589918 0.21529317
58828530 -0.022067228 -0.17416292 0.21268675 -0.08212699 -0.044251703 -0.20466906 0.40617207 0.07148984 -0.111454494 0.033539377 0.19984215 -0.39836788 -0.050404806 -0.26138264 0.16522765 0.011115596 0.041490268 0.1649317 0.074500695 0.2402433 0.29110715 0.44546366 0.37965864 0.04266985 0.04853303 0.14988205 -0.36976257 0.103247836 0.1629487 -0.287746 -0.101171486 0.22806342
271142845 -0.021193946 -0.21251968 0.25206432 -0.09985271 -0.0022298784 -0.19472188 0.38874525 0.06640024 -0.0780168 0.036896367 0.22385363 -0.3773516 -0.045088306 -0.21620706 0.12325022 -0.014079641 0.015279157 0.16787978 0.0784524 0.23154621 0.35198236 0.40701538 0.4330223 0.044705324 0.035958126 0.19513097 -0.34700134 0.11593611 0.17082018 -0.30107078 -0.0716988 0.22186351
774096 0.0032796985 -0.21270841 0.1939683 -0.13832797 0.0075993217 -0.22668235 0.36354807 0.064982 -0.10723908 0.046172813 0.1970616 -0.3823996 -0.04988306 -0.2468515 0.14339848 0.02772817 0.05753918 0.14589566 0.065879494 0.22022219 0.3300481 0.39552593 0.42653042 0.08360288 0.072464496 0.15318967 -0.3407761 0.10447354 0.14414364 -0.258067 -0.04897482 0.22806409
917321 0.0077068117 -0.17864871 0.23215252 -0.16010132 -0.008306201 -0.25428188 0.4149081 0.088002734 -0.07788299 0.05735738 0.23809354 -0.3906787 -0.070257604 -0.28228942 0.18713693 0.028936472 0.04974872 0.13101028 0.034623064 0.19425888 0.35155874 0.41544428 0.40047464 0.10611914 0.08178544 0.19434404 -0.3538652 0.09962024 0.21076906 -0.29782107 -0.061420463 0.23429595
36169530 0.071477234 -0.23381868 0.27824798 -0.21613778 -0.05673688 -0.30701244 0.41463268 0.12519991 -0.062226906 0.05502231 0.23545311 -0.4688521 -0.05037814 -0.2709459 0.20760041 -0.0013130798 0.037626144 0.15789063 0.041910727 0.23503326 0.3604812 0.45456818 0.40567696 0.06644942 0.055331346 0.14441557 -0.4075492 0.124673754 0.2665014 -0.29604992 -0.07116706 0.27182907
17691468 0.033735245 -0.21093304 0.2502287 -0.13156308 -0.007325785 -0.20323344 0.38916886 0.07415385 -0.08896759 0.0556343 0.22307456 -0.41822857 -0.0609252 -0.29245773 0.16209684 -0.016988495 0.065806225 0.17008269 0.057395555 0.23965858 0.3210681 0.42992097 0.45093355 0.09303672 0.07673345 0.19745526 -0.377108 0.11980912 0.19831061 -0.3133253 -0.1095035 0.19803701
30397013 0.026461726 -0.19297318 0.20563948 -0.13986164 0.0052195904 -0.2011041 0.38259682 0.08706628 -0.11556701 0.032202218 0.19866039 -0.41567135 -0.05306976 -0.22643316 0.17261513 0.022789298 0.011112325 0.11832773 0.07463527 0.21533969 0.33164182 0.42913187 0.40320128 0.03629387 0.061144628 0.18535647 -0.35738078 0.15052743 0.15395302 -0.265685 -0.07709595 0.2294254
16589206 0.00051407254 -0.21679191 0.21214394 -0.14332838 -0.045357123 -0.21096478 0.39580503 0.04941528 -0.111441806 0.07402961 0.19463642 -0.45396394 -0.10086066 -0.24834958 0.18947752 0.019670596 0.032619298 0.16739157 0.028929953 0.21844311 0.32645318 0.4504399 0.43190292 0.098372556 0.05858938 0.14011408 -0.39652115 0.104098864 0.2112757 -0.27368042 -0.10410188 0.25195992
20015311 0.04259052 -0.21934116 0.18974602 -0.11782034 0.0046166116 -0.2380485 0.36471146 0.10286433 -0.07652557 0.06928409 0.1778495 -0.44406894 -0.06278144 -0.28577694 0.149423 -0.008840139 0.07628012 0.16129574 0.0384369 0.22002392 0.3484231 0.42149144 0.44803265 0.09783261 0.06418701 0.15105979 -0.36212343 0.115705885 0.21186751 -0.30539954 -0.08783117 0.23773718
31153819 0.01821202 -0.15549381 0.17574365 -0.12231939 -0.008555923 -0.20805115 0.37733632 0.1038048 -0.08702076 0.026688607 0.17851718 -0.38423076 -0.09486072 -0.22852767 0.13947882 0.021525439 -0.0023941945 0.14903758 0.027580688 0.1701121 0.32416132 0.41721952 0.36652997 0.06456073 0.041001085 0.12397024 -0.33744824 0.1343192 0.1905235 -0.23485437 -0.05588923 0.21344167
14731839 0.008804262 -0.21961133 0.23043858 -0.12287536 -0.009978159 -0.20103775 0.37132227 0.106561445 -0.08970878 0.033680137 0.18251234 -0.4189897 -0.096658856 -0.2105879 0.12917681 0.037575714 -0.0111510325 0.1397445 0.046865005 0.1840649 0.34625256 0.43681684 0.41262397 0.07262266 0.06273498 0.18860938 -0.3212721 0.08941827 0.16567741 -0.28815573 -0.0784084 0.19449022
383842993 0.018691674 -0.20517088 0.22423317 -0.14692128 -0.019306414 -0.23024152 0.34091198 0.06406604 -0.07969059 0.025151929 0.1715625 -0.3865794 -0.042712025 -0.2533029 0.15884335 -0.023335898 0.092311926 0.12288537 0.016801765 0.15908316 0.3047948 0.44339475 0.41575572 0.079355754 0.036339242 0.11699512 -0.34544736 0.11644169 0.22419342 -0.27797368 -0.057498474 0.22108711
28709890 0.037400685 -0.17975119 0.20138898 -0.15485619 -0.010223683 -0.24225275 0.43854496 0.13059208 -0.08844333 0.05497167 0.21007644 -0.47151232 -0.046972282 -0.30163416 0.2319824 -0.0110564865 0.068331644 0.102258116 0.005824088 0.19995458 0.29477724 0.4501322 0.391453 0.05652992 0.037202306 0.14666656 -0.3402407 0.15929165 0.25876623 -0.2846095 -0.087922655 0.25834304
89604563 -0.014861297 -0.2118997 0.19065177 -0.14928466 -0.017147988 -0.220121 0.4147492 0.057729673 -0.065629356 0.03894687 0.2441536 -0.42223856 -0.08874256 -0.27549484 0.15314539 -0.006857526 0.0829161 0.12633966 0.07323685 0.1677572 0.3485915 0.45265478 0.46032643 0.040408667 0.08299692 0.15278026 -0.39259353 0.11209486 0.18169901 -0.3022994 -0.09689764 0.19227296
451669236 0.01190778 -0.18154919 0.20210624 -0.14757004 -0.05896444 -0.2314571 0.37994057 0.118767895 -0.107771516 0.07286976 0.2101281 -0.41720882 -0.041188065 -0.2833741 0.20307568 0.016014932 0.07230345 0.09373741 0.0210771 0.1702212 0.31008258 0.4365552 0.4287641 0.098517425 0.08217626 0.13525346 -0.29081693 0.11347832 0.22330715 -0.2817338 -0.065032296 0.20910592
217136120 -0.003730102 -0.19634953 0.18198247 -0.14898647 -0.008287225 -0.21604447 0.36889583 0.09938746 -0.049263604 0.023730628 0.20121357 -0.42427498 -0.052825313 -0.22387621 0.20400034 0.01488982 0.094528124 0.1311732 0.055290084 0.20679854 0.28308496 0.45640585 0.4170709 0.06231535 0.08246449 0.1649428 -0.28726965 0.12359632 0.23749262 -0.28307986 -0.034704216 0.2121301
249049182 0.033408765 -0.20803496 0.2418315 -0.10382875 -0.039357126 -0.21638311 0.40529594 0.0622843 -0.06635751 0.0015197766 0.17719345 -0.39570737 -0.05354278 -0.2650155 0.17364174 0.03534481 -0.00406848 0.122091405 0.034172323 0.20649946 0.3334805 0.4627155 0.44000226 0.062181115 0.07211081 0.18934058 -0.32497087 0.13825023 0.20319231 -0.32157502 -0.09963962 0.19044815
749863 0.029987786 -0.21123122 0.19185631 -0.12576416 0.015476867 -0.2472618 0.42287934 0.0685678 -0.100396045 0.039827168 0.21576902 -0.43218887 -0.056499317 -0.24522306 0.18681453 -0.024477284 0.038541015 0.117837556 0.07903637 0.22972256 0.31258726 0.44082668 0.40571645 0.07761064 0.09019547 0.1598663 -0.3775245 0.10452674 0.1785022 -0.28876707 -0.0688433 0.25289404
84161531 -0.0010247091 -0.1845235 0.24681006 -0.117613554 -0.026809242 -0.17659996 0.4121285 0.102025665 -0.115148924 0.062470857 0.2137763 -0.3670028 -0.075297415 -0.23385143 0.17617515 -0.0033524462 0.041000664 0.14969955 0.0809364 0.20131226 0.31285414 0.43869698 0.38380155 0.03311294 0.04110804 0.16195613 -0.3540466 0.14455767 0.20472425 -0.28708124 -0.080363646 0.21318895
18247250 0.00066871353 -0.21560375 0.23723179 -0.13648815 -0.013129169 -0.17216282 0.38803318 0.090192854 -0.079769745 0.023573278 0.20326188 -0.38685375 -0.053942453 -0.21597701 0.16001217 0.02279879 -0.011272079 0.15830383 0.079541795 0.19523232 0.32513148 0.3994713 0.4090835 0.06553083 0.0902588 0.1629031 -0.3318214 0.12492939 0.20283152 -0.302271 -0.10513648 0.19347191
50016578 0.004611479 -0.18775313 0.19262488 -0.16594733 -0.05323312 -0.22158061 0.4031105 0.054387644 -0.080093786 0.09087312 0.2066406 -0.45372537 -0.06867955 -0.25691977 0.13596694 0.043025464 0.03006189 0.11842793 0.038080998 0.18229376 0.3534208 0.4971227 0.4607284 0.090564646 0.060591295 0.1743187 -0.3817942 0.105323665 0.20020607 -0.28914186 -0.124195926 0.19535439
35327153 -0.026845524 -0.20816973 0.22507346 -0.09185761 -0.013625315 -0.19720255 0.40484813 0.077068806 -0.09706748 0.0042088204 0.19503394 -0.4001972 -0.07010475 -0.21292703 0.13029496 -0.0043976675 -0.0030246307 0.13057509 0.043181572 0.21902351 0.32855445 0.40003046 0.3872154 0.06044654 0.077674285 0.17949584 -0.35158625 0.10777576 0.15888229 -0.2816315 -0.080220394 0.21137898
89503894 0.039044008 -0.1897651 0.1999931 -0.16211475 -0.02773362 -0.23554441 0.35282445 0.08179329 -0.10659649 0.07536574 0.15733716 -0.41111907 -0.09229724 -0.21310143 0.17987682 0.032583255 0.0567798 0.1229633 0.030111039 0.21553469 0.30686566 0.4087889 0.37877682 0.06962514 0.072266825 0.14580683 -0.31070116 0.11315531 0.19684857 -0.2550998 -0.06288276 0.17772175
25919954 -0.00998134 -0.17025049 0.18331188 -0.110829554 -0.024841443 -0.18210799 0.33637586 0.104094744 -0.09608385 0.012116246 0.2000167 -0.3783088 -0.09394119 -0.23890127 0.14413181 -0.016545385 0.017506672 0.14530526 0.044198137 0.21116982 0.3138177 0.42558914 0.3888385 0.05771972 0.0682426 0.14836912 -0.35849193 0.14170718 0.16321054 -0.30000567 -0.104502596 0.18575495
69382909 0.02404229 -0.16924421 0.22522748 -0.1689421 -0.031063884 -0.2257069 0.35773715 0.10972371 -0.07267929 0.0426198 0.1691113 -0.42231303 -0.07089315 -0.22398594 0.19270414 -0.021067003 0.019100737 0.1482244 0.030832566 0.18271375 0.33142722 0.41003087 0.4222529 0.06341616 0.034820113 0.15386805 -0.31504175 0.14765716 0.20371029 -0.2691955 -0.09160206 0.19882503
228923665 -0.0102512585 -0.16396451 0.19204019 -0.1665403 -0.06297964 -0.17642647 0.35978413 0.08714317 -0.08330872 0.075072184 0.16537128 -0.38208082 -0.06348825 -0.22640918 0.20034476 -0.014195152 0.07872838 0.09398862 0.0024827248 0.16357689 0.29485297 0.4385837 0.42743406 0.09415043 0.02393117 0.16603516 -0.32261926 0.10503122 0.20851679 -0.26184845 -0.041150395 0.20569515
14596798 0.04415183 -0.18955189 0.18702345 -0.1607208 0.00530836 -0.23841113 0.36080176 0.082098305 -0.09339498 0.022494834 0.19306204 -0.39056417 -0.059163958 -0.22817925 0.13804528 0.014634464 0.0665665 0.13598716 0.065929174 0.17857574 0.33110175 0.3846507 0.4130476 0.040822178 0.048543517 0.12794879 -0.3461311 0.10255878 0.16357082 -0.26709124 -0.065877095 0.20018795
58572832 -0.018888373 -0.19773647 0.20946987 -0.12543699 -0.057358813 -0.19659963 0.38498944 0.10177657 -0.12406194 0.03777677 0.1656007 -0.39850846 -0.07159007 -0.22640468 0.12784156 -0.012170262 0.0028806867 0.15810572 0.028187804 0.23041485 0.30269328 0.39787036 0.41257808 0.06803064 0.04805507 0.16520588 -0.31806454 0.13954213 0.17235976 -0.2837816 -0.08164698 0.18020207
1715051 0.019086597 -0.17663279 0.22524017 -0.122493155 -0.047967434 -0.24176352 0.4014557 0.082519904 -0.1069129 0.05503744 0.20799784 -0.41464967 -0.08632353 -0.23266649 0.19695356 -0.013853717 0.046278257 0.12203365 0.023694474 0.19766334 0.3041037 0.45405322 0.39525095 0.079731345 0.05453433 0.17193307 -0.3364064 0.15745725 0.19021896 -0.30387983 -0.08756737 0.20918027
15249156 -0.00077422947 -0.21830012 0.1874038 -0.16441712 0.0011945626 -0.21123941 0.4055517 0.092554346 -0.10677993 0.056375835 0.23051499 -0.397808 -0.06120948 -0.22436023 0.13032313 0.03801474 0.06403447 0.15736218 0.021277377 0.21664207 0.34053883 0.41719675 0.38786456 0.083440244 0.035833567 0.14454874 -0.33564222 0.14996739 0.211475 -0.29055798 -0.11172929 0.23475228
392821868 0.027495079 -0.2059297 0.19038555 -0.13633195 -0.038664855 -0.21519627 0.38522193 0.07769284 -0.10398698 0.010282613 0.21964017 -0.4060634 -0.09289185 -0.21198039 0.16293742 0.036187343 0.0007574167 0.11745005 0.052435283 0.211123 0.28908968 0.4148389 0.4150826 0.07962001 0.08623678 0.17232037 -0.3574454 0.113354795 0.1652124 -0.26640034 -0.10484122 0.21492112
24847059 0.007098694 -0.22002546 0.19234529 -0.13968636 -0.05156794 -0.23740406 0.41660467 0.10685433 -0.113740385 0.06569702 0.24565788 -0.45442867 -0.089559264 -0.24287234 0.18408112 0.01813252 0.07943701 0.13254361 0.05382632 0.1933703 0.31767157 0.47208518 0.44667587 0.032980416 0.0563225 0.16767226 -0.37097916 0.15511268 0.18486182 -0.31344843 -0.06418101 0.18818258
212810973 -0.018580366 -0.1920603 0.18006258 -0.15204456 -0.024563381 -0.22773843 0.3461732 0.08725066 -0.083547555 0.06002837 0.22277986 -0.38853753 -0.038926836 -0.28261995 0.20473185 -0.008928414 0.09230186 0.12371106 0.049452435 0.15936525 0.27782193 0.4577066 0.39640763 0.07295623 0.07443099 0.15114745 -0.29410285 0.117611684 0.17506312 -0.3079034 -0.07200067 0.17722595
296022551 0.03230147 -0.16097133 0.17243211 -0.12155212 -0.0037528295 -0.18731573 0.3704424 0.057769164 -0.07162719 0.018397301 0.17057872 -0.3868472 -0.06319339 -0.23762181 0.18022087 0.0048784805 0.07813085 0.13195536 0.01531627 0.20244223 0.30789676 0.4442141 0.40424192 0.0541362 0.038011737 0.14234246 -0.31612456 0.14096577 0.20009983 -0.26213074 -0.050572716 0.16240492
44244599 0.061074287 -0.15451525 0.2174776 -0.15805139 -0.047385704 -0.2667444 0.4092079 0.08292358 -0.05756678 0.06399424 0.19073239 -0.39395794 -0.07650472 -0.26136285 0.18494381 0.02957457 0.050302397 0.12511256 0.0032922702 0.24515213 0.26838678 0.4394803 0.40031534 0.04138109 0.026079137 0.115976125 -0.36205375 0.15910734 0.23415115 -0.27807313 -0.057171702 0.25002488
7852172 -0.0024872345 -0.20304903 0.22532904 -0.17047434 -0.050419115 -0.26217946 0.4150968 0.08960539 -0.103140905 0.020095408 0.21327496 -0.4033063 -0.07513084 -0.25364125 0.15002102 0.017961891 0.05242984 0.15830944 0.018375468 0.18479191 0.29648316 0.42812553 0.39567283 0.08661636 0.035222534 0.1442851 -0.33851045 0.10382694 0.18969639 -0.30627465 -0.04664301 0.23923105
15914498 0.019341754 -0.15531944 0.20936526 -0.14362696 0.009887526 -0.22315781 0.3673568 0.0798572 -0.08822224 0.023956096 0.20998281 -0.37769827 -0.03502925 -0.24417044 0.17128539 0.0043311925 0.055550247 0.11673032 0.06264439 0.21197814 0.29648143 0.3807991 0.38755384 0.08594328 0.0808471 0.17418478 -0.285628 0.13403848 0.19223431 -0.2566131 -0.07421941 0.19041097
19352783 0.009097531 -0.18602358 0.18716188 -0.15296073 -0.029946303 -0.17897467 0.36671147 0.061555754 -0.075221 0.03609084 0.19928488 -0.37801963 -0.064283915 -0.2173142 0.15887296 0.0113332765 0.047017384 0.14760794 0.03817642 0.22826031 0.33628282 0.42143866 0.3898864 0.06997659 0.081932776 0.18340208 -0.33763108 0.09570166 0.18445843 -0.2782426 -0.07369133 0.17548832
34175976 0.04770688 -0.2135793 0.22817546 -0.18273665 0.004799062 -0.19918351 0.38651907 0.068390384 -0.08681659 0.054936167 0.17997414 -0.38983276 -0.068142585 -0.23743805 0.14335485 0.037628695 0.050040416 0.12159188 0.015628 0.20673475 0.34701338 0.45223713 0.39907593 0.04306981 0.038369752 0.15670772 -0.37220946 0.0956024 0.18312581 -0.28004783 -0.11679768 0.18888606
21013084 0.048805073 -0.15317865 0.25425866 -0.14054275 -0.074916385 -0.23614678 0.43459287 0.13950676 -0.09296821 0.045749936 0.22421983 -0.44650504 -0.0936352 -0.3105004 0.21952452 -0.004420638 -0.007297546 0.11367128 0.044284686 0.2028782 0.34936583 0.45899522 0.46325755 0.05441719 0.019463193 0.15087776 -0.3795154 0.102078184 0.1815022 -0.35162383 -0.115991674 0.21130739
44423 0.03113732 -0.20122845 0.22102849 -0.12476924 0.009350559 -0.20030951 0.40513143 0.040561378 -0.11245506 0.022381904 0.17836906 -0.42402613 -0.092927694 -0.25649217 0.1627406 -0.0011885513 0.0106641725 0.14712653 0.048413392 0.21096686 0.34007585 0.4385384 0.40387455 0.079926826 0.037606675 0.1651635 -0.33110562 0.15018253 0.16935462 -0.26297104 -0.09675903 0.19875006
52189468 0.065154634 -0.19337179 0.23917866 -0.16613647 -0.07688072 -0.18384035 0.40964195 0.12648347 -0.13134444 0.03529236 0.19172719 -0.39233267 -0.068818614 -0.26518798 0.21845484 0.0022523499 -0.018698016 0.17359596 0.03507544 0.2542972 0.36648563 0.4604752 0.43463212 0.060514495 0.070848025 0.13315001 -0.3729912 0.092562705 0.23231815 -0.3381241 -0.055401653 0.19499578
392438665 -0.020128908 -0.20961095 0.19712548 -0.1391993 -0.03314288 -0.18756609 0.37323764 0.10429283 -0.067770116 0.073613666 0.18352243 -0.38174206 -0.09850494 -0.24028035 0.17576514 0.0002946615 0.08531613 0.10344643 0.026419485 0.18696924 0.30401286 0.41609305 0.42470637 0.046426587 0.07862377 0.15068008 -0.3168433 0.12400534 0.20225392 -0.28228062 -0.075734295 0.21415396
15147397 0.01776849 -0.18455392 0.16635805 -0.1714448 -0.02304153 -0.22361295 0.34700578 0.06592616 -0.103300065 0.04894113 0.20107915 -0.38315693 -0.08741396 -0.22425027 0.16157947 -0.01304756 0.04398572 0.11369269 0.027256247 0.1530461 0.30988824 0.40497792 0.36320388 0.088124976 0.05409351 0.16527295 -0.315125 0.13763261 0.18260244 -0.27802327 -0.083498985 0.22219773
143988282 0.017604765 -0.20477602 0.25206047 -0.18329532 -0.0337356 -0.27483907 0.4014205 0.04695632 -0.08527162 0.069607176 0.24346171 -0.44663668 -0.07500221 -0.25401372 0.16888292 0.023039075 0.0803179 0.13760945 0.075182565 0.18341877 0.38229638 0.4956872 0.48103562 0.033359848 0.06304238 0.18744633 -0.4099925 0.111600004 0.21718153 -0.3272553 -0.11541748 0.25147626
14166096 -0.014873298 -0.14717561 0.19603516 -0.10975846 -0.03253133 -0.21456255 0.32308722 0.068905056 -0.09903015 0.02911156 0.20741095 -0.39457884 -0.08569916 -0.24064775 0.12942335 -0.022716094 0.027536297 0.15361746 0.071461596 0.16898315 0.26866966 0.38212156 0.3455766 0.044674553 0.034315154 0.1588628 -0.3404346 0.11508778 0.17563544 -0.24029888 -0.08305676 0.15766506
16895468 0.06431564 -0.21343797 0.2627808 -0.17367198 -0.003235896 -0.2672694 0.41329062 0.12526132 -0.11125433 0.038033348 0.22837023 -0.45027173 -0.087442756 -0.29190698 0.17176563 0.013088794 0.055330884 0.12881722 0.042060602 0.2545754 0.34352425 0.42504182 0.40367058 0.044685 0.019864034 0.14225209 -0.38307866 0.12594523 0.21397258 -0.31894934 -0.047999717 0.2516403
2735631 0.0355416 -0.21211775 0.18477562 -0.1395421 0.014353663 -0.2133469 0.3700597 0.06836997 -0.07346225 0.013088768 0.20653826 -0.37574592 -0.046589687 -0.22792806 0.12996463 -0.008716186 0.072088875 0.12303075 0.018765988 0.20518783 0.28378144 0.42770877 0.4136395 0.054132607 0.0627529 0.17285939 -0.34431446 0.1127109 0.20164868 -0.23878919 -0.10762838 0.22644022
52436726 0.04605358 -0.19243552 0.22294673 -0.17112766 -0.006894017 -0.22006951 0.3829237 0.12120063 -0.059604857 0.025476296 0.1894721 -0.40416908 -0.06640736 -0.24726997 0.20906767 0.014305731 0.09692174 0.08197662 0.015824087 0.18952814 0.31822804 0.4265906 0.3888371 0.061183505 0.025181068 0.18013854 -0.3129389 0.090296715 0.21990216 -0.27959394 -0.08514553 0.1841258
243907619 0.011562553 -0.14836176 0.17008588 -0.15028384 -0.05615533 -0.21781744 0.36353996 0.074221075 -0.08453591 0.049352538 0.16741724 -0.37295973 -0.049593937 -0.27594957 0.17078695 0.0066307355 0.04380628 0.08820582 0.006288914 0.16138937 0.32433054 0.44219005 0.4004986 0.037860263 0.06832326 0.16183697 -0.31037596 0.08574503 0.1990262 -0.2798871 -0.087780364 0.20263967
434700953 0.011641239 -0.2162415 0.19218585 -0.10615722 -0.05405043 -0.2298599 0.41302285 0.08405447 -0.107988365 0.01841268 0.19769731 -0.3907877 -0.09481759 -0.264777 0.14790836 -0.0064046383 -0.006081811 0.11424927 0.07739093 0.24620584 0.317172 0.402969 0.41492626 0.04662759 0.09296301 0.17424762 -0.3769238 0.115098104 0.1547883 -0.28715134 -0.10001603 0.20400085
20476979 0.044943787 -0.17882022 0.24726535 -0.19014905 -0.008145166 -0.28709453 0.3932323 0.059338473 -0.10094775 0.055474095 0.2041685 -0.43770343 -0.044298608 -0.2526577 0.1839803 0.036481146 0.05887072 0.1380142 0.021973133 0.24860574 0.30282646 0.4506945 0.45566973 0.06315091 0.05906476 0.13867085 -0.3602902 0.15707552 0.18494776 -0.31463963 -0.051508475 0.24456437
18820850 0.012481502 -0.19641599 0.18097295 -0.12204841 -0.03819409 -0.24319725 0.39632595 0.08944578 -0.10279532 0.0715738 0.19383878 -0.4429736 -0.05054875 -0.2322048 0.20919019 0.0112785 0.052811682 0.10894519 0.055312037 0.23685509 0.3232585 0.4324033 0.40606377 0.06636409 0.03374178 0.18369858 -0.3421187 0.15530522 0.18311942 -0.30965242 -0.104148895 0.18488702
756559 0.050006263 -0.17442952 0.23992515 -0.1616135 -0.059719224 -0.26299158 0.37481967 0.10913713 -0.09409877 0.088193074 0.19807424 -0.40173042 -0.055581164 -0.26619118 0.1882184 0.039341487 0.0641258 0.15897071 0.041304726 0.24733336 0.33092827 0.4097722 0.38870317 0.072094835 0.047425028 0.15693921 -0.35772917 0.16805907 0.20349984 -0.29992756 -0.043027386 0.24070615
223297575 0.022723747 -0.16110916 0.19750872 -0.17586055 -0.025625266 -0.23738766 0.3442573 0.058861736 -0.07678363 0.021978935 0.21005607 -0.40498716 -0.03377342 -0.27403852 0.16263518 0.0020413734 0.055251595 0.11121359 0.020117503 0.1692177 0.27407116 0.38634196 0.4158859 0.06648373 0.07327553 0.11971745 -0.2992211 0.07791567 0.22489616 -0.25962806 -0.08463706 0.21903273
233386754 -0.001497889 -0.20924284 0.19937652 -0.1301831 -0.049215198 -0.2360279 0.3866973 0.07531858 -0.078549094 0.05600411 0.17180806 -0.37531134 -0.059954528 -0.20024036 0.13597009 0.015472113 0.06568088 0.09712726 0.013373623 0.20894451 0.32210922 0.3912335 0.40546137 0.06566907 0.035659246 0.14347264 -0.34059358 0.13350865 0.17957461 -0.28946277 -0.07875196 0.18144552
32257719 0.06768384 -0.17979835 0.26198664 -0.1295572 -0.05988903 -0.17934822 0.42931935 0.09648297 -0.12228477 0.033356734 0.1940911 -0.39508286 -0.11496283 -0.30352947 0.20142935 0.0017251031 0.034518946 0.124518685 0.046010345 0.22661021 0.3632704 0.46187294 0.48690775 0.07310247 0.020084258 0.14510137 -0.4003109 0.08905411 0.19378623 -0.35871118 -0.049139705 0.2152948
174320920 0.012242084 -0.19273332 0.16960669 -0.17511904 -0.00026223686 -0.21442562 0.3681348 0.06531453 -0.047160886 0.06186534 0.18686558 -0.3948714 -0.0625333 -0.24361767 0.18799825 0.020223942 0.051865723 0.12981975 0.0461052 0.16550213 0.32144117 0.40550473 0.3641866 0.08969222 0.046461083 0.17207244 -0.3227677 0.13558374 0.19532107 -0.28231314 -0.08416875 0.2183823
24044348 0.043849453 -0.20031254 0.22534257 -0.1716075 -0.024881223 -0.2714684 0.40341035 0.09918408 -0.05366944 0.075407624 0.18532346 -0.3941396 -0.06860266 -0.28997752 0.2040571 0.046180397 0.084248856 0.11488811 0.0018219512 0.23420264 0.27512744 0.4453668 0.40066993 0.08207093 0.06199259 0.14335117 -0.3549305 0.13887124 0.2381163 -0.3078019 -0.06763262 0.21565886
25677545 0.051563617 -0.15022632 0.21451499 -0.11935515 -0.05923877 -0.19093058 0.4301434 0.112838954 -0.11545124 0.035524312 0.23077407 -0.36060858 -0.062483873 -0.27930996 0.17618099 -0.01840714 -0.0018295862 0.14535776 0.023666132 0.18910205 0.35529232 0.4684883 0.45917583 0.06481862 0.018982006 0.12263446 -0.35121807 0.07801186 0.16573447 -0.30453882 -0.08993295 0.16973332
15804774 0.030703008 -0.23372725 0.2029897 -0.14831567 -0.022285685 -0.23464583 0.38996705 0.10373015 -0.06911395 0.016133064 0.24365169 -0.40517136 -0.09800226 -0.27297738 0.18537956 0.027511619 0.021193892 0.12503785 0.07023542 0.19598565 0.32351685 0.44388345 0.45099702 0.050151784 0.07940343 0.16557434 -0.36348125 0.14991699 0.2038287 -0.27340144 -0.08897433 0.19761005
61033129 0.0530692 -0.22935489 0.24096942 -0.17379034 -0.05647778 -0.2557555 0.42351982 0.07242962 -0.091235 0.024908038 0.19369458 -0.46178323 -0.035526156 -0.31260803 0.19511707 0.004504172 0.04978978 0.17204474 0.05013316 0.17401507 0.35174882 0.48977536 0.4892834 0.06745261 0.074664235 0.19283523 -0.3940432 0.15276317 0.16669554 -0.28677696 -0.07154252 0.23254725
423526663 0.003747412 -0.18615983 0.2577456 -0.13425605 -0.061320286 -0.22284307 0.41644186 0.073479004 -0.056199227 0.039915435 0.20876594 -0.44778365 -0.089220196 -0.26851454 0.16918851 -0.008087297 0.06806773 0.119902536 0.026627459 0.23969044 0.3647801 0.45244035 0.41870546 0.07173402 0.05367964 0.18396561 -0.39304408 0.1301741 0.22018832 -0.29879397 -0.07224582 0.23726374
68446438 0.042860225 -0.16813317 0.22798187 -0.1353718 -0.008915088 -0.2042121 0.33843628 0.07800257 -0.09995436 0.016862158 0.19080535 -0.33861482 -0.08447704 -0.2540319 0.13611129 0.033373084 -0.0060347724 0.15823098 0.043421946 0.20018882 0.2902006 0.36930436 0.3865262 0.07532734 0.03323644 0.14504239 -0.31588462 0.12529911 0.18958253 -0.27493063 -0.052190587 0.17376252
28880820 0.023065077 -0.14546268 0.23097181 -0.18307917 -0.03486603 -0.26000875 0.35824808 0.10876286 -0.10239957 0.07377959 0.20965554 -0.39815173 -0.09305403 -0.25328302 0.15999496 0.022808118 0.079574436 0.12705031 0.021327173 0.21366382 0.27016196 0.39500993 0.36925304 0.09117182 0.02258651 0.1180866 -0.32324597 0.13883498 0.17057285 -0.29158494 -0.06305808 0.19868423
4816 -0.015465302 -0.21287414 0.21084943 -0.12553649 -0.022341255 -0.2218766 0.3965462 0.06704115 -0.08428683 0.048107486 0.22753827 -0.4256685 -0.10765603 -0.25544608 0.20529008 -0.0106212925 0.02057901 0.1319301 0.07749535 0.20803574 0.36891043 0.41408372 0.45293117 0.0391201 0.08917677 0.17292748 -0.35727668 0.10842106 0.22065364 -0.27311444 -0.104666285 0.18230462
21897587 0.035458826 -0.21475697 0.17779653 -0.14441319 -0.048481826 -0.25513944 0.43392128 0.07462929 -0.09554778 0.03875232 0.19554809 -0.44164175 -0.096969076 -0.27222311 0.13918541 0.040858224 0.073166616 0.116309375 0.05533026 0.16991176 0.3627671 0.4822366 0.43489495 0.036533568 0.048090827 0.17506488 -0.37254837 0.13407317 0.22308268 -0.27671304 -0.10709058 0.22535843
233412024 -0.0038146088 -0.18783854 0.21386278 -0.17254968 -0.034274183 -0.20478755 0.31179526 0.07883351 -0.052360687 0.025616912 0.15755306 -0.35562328 -0.06817751 -0.2630799 0.16796632 -0.00562724 0.09056244 0.103767686 0.0540413 0.13568799 0.2920607 0.42472565 0.38594446 0.05565327 0.052476157 0.13550997 -0.32143238 0.08351127 0.19815211 -0.27361333 -0.029870236 0.18082877
78425421 0.06690895 -0.19105735 0.2591546 -0.21474332 -0.021068413 -0.2774723 0.43259987 0.10343219 -0.11364094 0.091014355 0.19980349 -0.4441589 -0.09227108 -0.27310246 0.24386975 -0.0035238431 0.08731075 0.13344277 0.06372244 0.2653433 0.31639832 0.44224054 0.3782561 0.106859334 0.049691696 0.16727935 -0.37560982 0.17636895 0.2663469 -0.3048745 -0.061312836 0.2649768
130600864 0.020101387 -0.1709524 0.207034 -0.1591421 -0.0059359563 -0.2327028 0.3761452 0.10200285 -0.11859984 0.043291084 0.1913086 -0.38581795 -0.04401685 -0.26724187 0.18157528 0.008094327 0.017583119 0.117089584 0.041690532 0.17813613 0.32064354 0.41299036 0.43422303 0.09212825 0.051840052 0.16938841 -0.3520168 0.11768908 0.1587272 -0.27592883 -0.06851607 0.22689795
211678994 0.06355269 -0.18383974 0.24848631 -0.205339 -0.037913613 -0.2814375 0.44149476 0.1299412 -0.10260678 0.06715153 0.23016763 -0.4393088 -0.0669176 -0.30461335 0.24616797 -0.02826158 0.043073382 0.10995522 0.011984334 0.21070772 0.28790507 0.45526442 0.4012311 0.06587502 0.07941962 0.17495555 -0.35621983 0.13466394 0.27145967 -0.30748016 -0.055693857 0.26861954
78925893 -0.017122459 -0.21802944 0.24420863 -0.118266314 -0.027531503 -0.19071417 0.35913336 0.06000767 -0.115293056 0.05955723 0.18653916 -0.41591275 -0.08639836 -0.2147463 0.14736052 -0.011675423 0.018715488 0.13401653 0.040222857 0.19892518 0.32887173 0.4142525 0.38873315 0.07156055 0.07926215 0.13298932 -0.36077097 0.13855581 0.14974087 -0.2796544 -0.11008482 0.23187397
15027362 0.005070373 -0.21426472 0.20928179 -0.1452885 0.0027158165 -0.18894053 0.37189043 0.087408945 -0.06980818 0.04489538 0.17677797 -0.4024867 -0.059237108 -0.21666709 0.14946243 -0.023823036 0.056793194 0.16766796 0.019995596 0.2022678 0.2929444 0.43660098 0.43281394 0.06906662 0.072441764 0.18048869 -0.32404727 0.09772909 0.19367619 -0.28721228 -0.085913464 0.22289713
385215139 0.00624951 -0.13688384 0.18867266 -0.14343823 -0.035566546 -0.22744131 0.30238113 0.09747496 -0.090474404 0.053876895 0.18574409 -0.3907115 -0.06710896 -0.25090024 0.13631293 -0.0002572405 0.09005516 0.08423692 0.018731503 0.1969067 0.30872586 0.4229412 0.3425604 0.0757606 0.028535323 0.16136494 -0.27700353 0.099437416 0.21032758 -0.28576723 -0.047863457 0.20119034
14223829 0.03307513 -0.1676202 0.19414847 -0.12431508 -0.037067804 -0.23846236 0.37520823 0.031201633 -0.0870771 0.042693183 0.2198363 -0.4152654 -0.06708039 -0.25824288 0.13868749 0.0013928333 0.05452807 0.109483674 0.041885957 0.22089937 0.29547215 0.39582792 0.41782805 0.07549221 0.05399194 0.18953368 -0.3058005 0.12818564 0.18770586 -0.27076825 -0.050734222 0.22253898
18498684 -0.0039034758 -0.20389049 0.19929817 -0.16444893 -0.009808195 -0.2418674 0.35534382 0.082777426 -0.07267762 0.05033143 0.16248144 -0.37560079 -0.0489998 -0.2258612 0.18004487 0.0073791733 0.06247256 0.1501525 0.04387413 0.18654649 0.3084429 0.3769031 0.4050033 0.050527617 0.044258744 0.14604771 -0.30083254 0.12280454 0.17291088 -0.2763706 -0.07982283 0.19299614
7190742 -0.003414432 -0.21414603 0.22293848 -0.13114147 -0.019480348 -0.20319302 0.39374658 0.065268256 -0.1116064 0.066484295 0.23033462 -0.43686947 -0.058784712 -0.22662519 0.14800075 -0.0041050026 0.010125237 0.14707687 0.04180838 0.21546333 0.3620439 0.4086771 0.39064655 0.07297744 0.03075017 0.13531491 -0.39263618 0.12522165 0.19094282 -0.2842502 -0.08900539 0.24377291
53830332 0.04240399 -0.20263566 0.24298483 -0.1823572 -0.034391616 -0.21457939 0.37162516 0.07548799 -0.07664615 0.05293036 0.16618791 -0.42081755 -0.090058014 -0.24341409 0.17233084 -0.025212131 0.07560853 0.12123645 0.047849447 0.20694293 0.29647785 0.4540047 0.3864641 0.060203727 0.0309538 0.15604548 -0.3574889 0.14438508 0.22149363 -0.3123298 -0.04879408 0.22444263
385711866 -0.0136839645 -0.14966531 0.15991907 -0.10458067 -0.014190895 -0.1959091 0.29906926 0.07167905 -0.07102691 0.047613576 0.20208189 -0.36948892 -0.08567101 -0.25497726 0.15374133 0.0057764417 0.054558367 0.10014495 0.061759047 0.16979617 0.29611626 0.39407834 0.34126687 0.052022737 0.024170784 0.11677835 -0.302854 0.12763475 0.17769569 -0.226604 -0.070612006 0.1625238
61040833 0.035964727 -0.21506403 0.22924705 -0.17335981 -0.0539913 -0.22740927 0.39130887 0.04727894 -0.13451953 0.08471216 0.22602315 -0.43697336 -0.03150493 -0.31608894 0.19755614 0.014063434 0.067928776 0.13714053 0.09244576 0.18668765 0.38260314 0.50435024 0.47688773 0.09934401 0.090551965 0.18659674 -0.36596292 0.14314708 0.18575379 -0.28196442 -0.076361895 0.21321994
217158161 0.026245408 -0.17275245 0.21413328 -0.16446182 -0.041823015 -0.21519333 0.3631341 0.065461874 -0.050542183 0.039997064 0.20052727 -0.36812872 -0.041858558 -0.25017208 0.15671459 0.01237625 0.043787632 0.1348364 0.013457921 0.19213332 0.28492087 0.39288592 0.3831429 0.057144992 0.035658244 0.115532935 -0.30348796 0.13459429 0.17071316 -0.23849249 -0.053432997 0.17594159
36782854 0.009001221 -0.17206298 0.18688771 -0.1223381 -0.010837144 -0.19050255 0.3868788 0.0897613 -0.10049236 0.018317217 0.21950024 -0.4087068 -0.07317292 -0.24713565 0.18059354 -0.01556983 0.04103363 0.13686542 0.033300757 0.17097676 0.2834297 0.4228061 0.3670122 0.07565584 0.04831834 0.124696985 -0.35282215 0.14249076 0.17184485 -0.2562817 -0.10603397 0.17044765
224257403 -0.00078294106 -0.1756546 0.17886585 -0.1711739 -0.055982586 -0.20821089 0.38289604 0.04740708 -0.0956381 0.052182812 0.19774382 -0.41263446 -0.041336846 -0.2686722 0.17739405 0.038613893 0.060540095 0.1487834 0.069750324 0.20634909 0.27786613 0.41715267 0.3621388 0.04618849 0.070050076 0.12437714 -0.34798783 0.10221673 0.195204 -0.25529748 -0.06628001 0.21131332
16644070 0.0009758026 -0.154944 0.17091866 -0.11827685 -0.052662928 -0.18956378 0.36481908 0.09339908 -0.10257165 0.04105811 0.2040457 -0.37554875 -0.080585435 -0.22251312 0.13296941 0.03693087 0.040944163 0.1597236 0.07635107 0.16004647 0.29053086 0.35808423 0.35464704 0.023062082 0.064349785 0.14533651 -0.33957368 0.1406671 0.17052887 -0.25727344 -0.09028768 0.1766461
24517423 0.002362218 -0.1644277 0.21140245 -0.1642224 -0.013198015 -0.22151257 0.38017568 0.102589734 -0.09906887 0.0791124 0.18792476 -0.43779022 -0.08789232 -0.26047385 0.1621299 0.005228311 0.06539316 0.14171112 0.037929006 0.20259427 0.32021967 0.43982676 0.4193166 0.051449504 0.04462462 0.14555836 -0.351682 0.1279584 0.14929456 -0.26464248 -0.09277892 0.19431998
15603992 -0.004271491 -0.19719657 0.18351468 -0.1726604 -0.024018887 -0.23836088 0.34985188 0.046481915 -0.05354652 0.043000393 0.16747859 -0.36994874 -0.09522 -0.239691 0.16399725 -0.015802115 0.017223721 0.098984174 0.06940087 0.21462731 0.3217631 0.4165268 0.40872744 0.05058052 0.08777765 0.1744147 -0.31875643 0.14652425 0.14845508 -0.26710388 -0.05122304 0.19095638
61040299 -0.0024460438 -0.22979245 0.22380677 -0.17926049 -0.041201238 -0.22250323 0.4229548 0.09549068 -0.113677084 0.083196215 0.19185504 -0.4997639 -0.079966344 -0.32260916 0.1739387 0.0053921207 0.06032061 0.15385915 0.07953313 0.20978875 0.36860234 0.48548433 0.5071635 0.10942889 0.061483596 0.18748242 -0.4119526 0.12005091 0.17233597 -0.30927724 -0.10377242 0.21535833
18306821 0.01661988 -0.193109 0.1979435 -0.1308548 -0.014074923 -0.2106197 0.39338243 0.11651948 -0.06360601 0.040954117 0.21134637 -0.4509696 -0.09232872 -0.2611536 0.182455 0.011211941 0.00040863547 0.16620132 0.031128434 0.25024194 0.3596515 0.42583027 0.44203866 0.09035452 0.045159087 0.15043035 -0.3365578 0.13366152 0.22662611 -0.33240503 -0.096849695 0.24049209
128587754 0.009387801 -0.17879559 0.16861466 -0.1543737 -0.04708975 -0.17406413 0.34167224 0.050172385 -0.055366702 0.035131477 0.17329061 -0.3739229 -0.05462503 -0.24164699 0.15372245 -0.002563658 0.07344367 0.1378818 0.04082371 0.16451971 0.29711464 0.3924909 0.35356796 0.04218296 0.04128969 0.15188809 -0.33420125 0.09725626 0.196838 -0.2736711 -0.04584959 0.18539593
242558865 -0.0056265155 -0.18238097 0.19350085 -0.12887444 -0.049630743 -0.22124465 0.31908104 0.100709535 -0.08074943 0.055516794 0.17228246 -0.39472112 -0.06513184 -0.23450527 0.17741784 -0.027754778 0.03443613 0.08559967 0.044210892 0.16350962 0.28296888 0.40608308 0.38930234 0.06823712 0.040745553 0.14375378 -0.31888196 0.09042094 0.21460918 -0.27758384 -0.09155266 0.19954826
59525600 0.03989391 -0.17568044 0.19545503 -0.13710962 -0.034118306 -0.22355679 0.3111104 0.037458662 -0.098656945 0.062464315 0.20599419 -0.3648175 -0.06105363 -0.19468544 0.14540596 -0.013256018 0.04137442 0.12345087 0.032000802 0.16093342 0.31665078 0.40290064 0.34236577 0.0412339 0.05908134 0.14671099 -0.33021784 0.13862497 0.14522992 -0.23695303 -0.04147879 0.18424672
53562440 0.059721958 -0.2019608 0.19732818 -0.18128425 -0.029892381 -0.3012317 0.44395638 0.08116876 -0.07698876 0.045938194 0.17641272 -0.47392783 -0.05166314 -0.29390234 0.22947267 -0.0068341503 0.09420785 0.15405786 0.06896162 0.2529904 0.2872983 0.4127097 0.38676915 0.07075038 0.07428193 0.16819789 -0.3713173 0.16072586 0.22599943 -0.3265588 -0.053321585 0.20215932
689273 0.013364625 -0.1907404 0.21360163 -0.13526018 -0.008959809 -0.21614054 0.37859172 0.048716456 -0.068213396 0.047961023 0.21141104 -0.3835141 -0.08078267 -0.24333222 0.16305406 -0.0077655115 0.04678931 0.11874828 0.06980088 0.170063 0.29481423 0.3808247 0.34713134 0.08947132 0.047241323 0.16945137 -0.31832588 0.1250795 0.17235431 -0.22659333 -0.10253924 0.2158396
257098434 0.04529348 -0.1707126 0.21858765 -0.110146806 -0.0152510125 -0.20600827 0.37179932 0.08448322 -0.07173149 0.06417328 0.16462445 -0.3728293 -0.096637174 -0.24335611 0.12805805 0.0130718425 0.017885795 0.12592389 0.06788163 0.1717929 0.3100799 0.39343193 0.3784036 0.03531999 0.026922448 0.17284971 -0.3517295 0.12710468 0.16228788 -0.27765885 -0.069786444 0.16217405
555448499 -0.0038094244 -0.17439762 0.143725 -0.14577527 -0.03800122 -0.18409818 0.3044375 0.049374633 -0.07650389 0.034522694 0.1406455 -0.35714015 -0.06486017 -0.23630863 0.11863351 -0.021167617 0.06221119 0.07379828 0.018260494 0.1797074 0.27889022 0.32995802 0.3529757 0.028868798 0.041560058 0.14718582 -0.2803485 0.1305282 0.16783784 -0.22102365 -0.03567805 0.14323263
127671778 -0.008892064 -0.18486919 0.17814586 -0.14300293 -0.022991106 -0.21091336 0.3235377 0.06873377 -0.053813174 0.008522602 0.15837885 -0.32358015 -0.02915443 -0.21684134 0.14291999 -0.015929209 0.038507942 0.08368636 0.0136602875 0.17374241 0.26969135 0.37965676 0.3197009 0.061939042 0.05518368 0.11791793 -0.28795373 0.1222717 0.1365097 -0.24158831 -0.055762697 0.17838813
7880682 0.022744756 -0.15467125 0.22619456 -0.12520571 0.0015184152 -0.23452187 0.38462684 0.08461315 -0.10353933 0.029891688 0.207924 -0.36617067 -0.100702725 -0.23127468 0.15563221 0.009862353 0.060974844 0.10439116 0.073483855 0.16499396 0.3196896 0.4315363 0.37168738 0.034228686 0.07274093 0.12209699 -0.35734826 0.11203868 0.15891062 -0.23804788 -0.047981605 0.20164418
66468822 0.068348706 -0.12721655 0.23228513 -0.10862547 -0.021768535 -0.16930163 0.39443442 0.118397914 -0.11918532 0.07110374 0.22004077 -0.33439893 -0.10497065 -0.26438388 0.17093456 0.0150517225 -0.01459782 0.12596159 0.061837014 0.2311094 0.3016105 0.41823786 0.4281675 0.05116294 0.048798352 0.10524293 -0.33206782 0.11842774 0.19475904 -0.32540825 -0.09211351 0.197965
62631420 0.017406614 -0.1686912 0.18508737 -0.10928354 -0.04853823 -0.14769359 0.28416777 0.057364475 -0.03760261 0.044232547 0.14258884 -0.3282848 -0.070927165 -0.22032106 0.11395204 0.020581618 0.011201348 0.11725738 0.014664358 0.17827588 0.24240181 0.32850927 0.34824884 0.025388682 0.048709482 0.12097589 -0.29528672 0.07511424 0.17920291 -0.24396305 -0.05035765 0.13526104
18744957 0.01535885 -0.17624073 0.16938621 -0.13332102 -0.049227364 -0.20407824 0.32251278 0.059380688 -0.089378 0.0076561146 0.19008067 -0.35767218 -0.038882878 -0.21334101 0.17089386 -0.009366241 0.008812611 0.11908147 0.012056689 0.19693905 0.3035847 0.3731962 0.38798493 0.090474755 0.06399732 0.158058 -0.27054077 0.11122568 0.13606371 -0.27379477 -0.0780659 0.18065454
8755772 0.036358356 -0.17730749 0.15949091 -0.07297416 -0.026924796 -0.1952621 0.30762178 0.047278047 -0.09038713 0.011976219 0.15600027 -0.2908891 -0.0404262 -0.16761197 0.15548554 0.019183882 0.00415913 0.13237368 0.0062492574 0.14927654 0.2728149 0.3570655 0.30259043 0.02098131 0.06928124 0.11488567 -0.28496125 0.12171028 0.16407056 -0.21214892 -0.06855584 0.19299254
39689218 0.03921779 -0.15076208 0.22360872 -0.15100479 -0.015521689 -0.20563552 0.3761071 0.101325914 -0.061324593 0.06521494 0.21338594 -0.35430056 -0.06523464 -0.25693104 0.14133821 0.038389552 0.026792854 0.1199678 0.059782516 0.15609783 0.32490605 0.40285972 0.39342028 0.086906314 0.058374465 0.15090382 -0.35586268 0.146762 0.13508347 -0.22781351 -0.064143874 0.18986988
21707762 -0.016944537 -0.1316011 0.17114365 -0.0884425 -0.031372927 -0.19142693 0.31594682 0.04233888 -0.096249186 0.0028579258 0.18030089 -0.33295882 -0.058861244 -0.18538278 0.1280024 -0.015646443 0.03352909 0.09836703 0.043995082 0.20661198 0.26522973 0.37171558 0.3535761 0.037576504 0.03454815 0.16197717 -0.2809849 0.09778895 0.1552693 -0.25208125 -0.059084684 0.15977502
59144478 0.02614102 -0.17980894 0.19077386 -0.110096924 -0.04856581 -0.20033607 0.31301677 0.08133703 -0.07253623 0.046628345 0.181166 -0.35375255 -0.054463208 -0.22787069 0.1674857 -0.0022503901 0.014675513 0.106743164 0.011154836 0.15865746 0.2905205 0.39264244 0.34923154 0.026516158 0.032818325 0.1559014 -0.33808368 0.1240292 0.190594 -0.23850465 -0.097973645 0.19134794
128956175 -0.005741211 -0.12277243 0.15616891 -0.118192784 -0.0030560307 -0.17598078 0.3156442 0.04892141 -0.05507592 0.0031770095 0.1764827 -0.32166326 -0.0697371 -0.19814853 0.12524882 -0.00013796086 0.026683388 0.075205244 0.01330516 0.13751368 0.22308762 0.32083187 0.3521205 0.047140278 0.021812338 0.10811443 -0.26009998 0.08978053 0.14218917 -0.23542465 -0.04194234 0.13998868
337254711 -0.013642105 -0.12635913 0.14877048 -0.09950797 -0.023684757 -0.14012879 0.32095036 0.07348967 -0.0661736 0.04011516 0.16560043 -0.32750785 -0.0417711 -0.17788991 0.16262852 0.0019831497 0.020171633 0.12911132 0.009915943 0.16065307 0.23352605 0.35791013 0.301877 0.058256976 0.07407977 0.118289076 -0.30427423 0.07073865 0.15790035 -0.24623206 -0.04616532 0.15916376
118886486 0.035846762 -0.13770065 0.14085658 -0.13006197 -0.023892237 -0.17866032 0.29590395 0.05484412 -0.076801375 0.03904525 0.12832788 -0.32464814 -0.06792848 -0.19675519 0.13101998 0.014237548 0.061667044 0.11136949 0.045800965 0.14432773 0.2132515 0.34745747 0.30504704 0.06557343 0.035569277 0.13088344 -0.2343199 0.065317504 0.13913496 -0.21678127 -0.04618523 0.12228732
49461697 0.024479749 -0.11576167 0.1446719 -0.115094446 -0.045674108 -0.12779993 0.23013476 0.036584478 -0.041245688 0.0049741357 0.12385004 -0.28317422 -0.054012176 -0.19845083 0.13349287 0.005525024 0.04956549 0.08006464 0.049968142 0.10540203 0.23227827 0.2754623 0.28560624 0.023178458 0.029672798 0.08609557 -0.24163081 0.11513179 0.14533968 -0.19212277 -0.06744469 0.15850608
35040261 -0.01531379 -0.14162016 0.12893055 -0.12538335 -0.0112551795 -0.16881004 0.277811 0.0726696 -0.08120619 0.02766962 0.13190755 -0.31755182 -0.07776265 -0.17196219 0.13556731 0.0044195442 0.019279545 0.10032029 0.0324685 0.110842936 0.24505587 0.32738185 0.26310778 0.04402793 0.059643727 0.10331731 -0.23785783 0.07231411 0.15551008 -0.18003902 -0.046113435 0.1310013
243746947 0.0022529617 -0.16806552 0.14407997 -0.08682114 -0.02538059 -0.1787301 0.33495054 0.041210055 -0.052512765 0.010202175 0.14465849 -0.3123657 -0.0697476 -0.21527526 0.11371235 -0.0067911763 0.01944402 0.098944776 0.0709267 0.19964664 0.26170644 0.34510612 0.31686512 0.074973695 0.032951467 0.15048835 -0.25485718 0.11771693 0.1501635 -0.21646465 -0.043919165 0.15488577
31064031 0.009366906 -0.1243397 0.17704666 -0.09824661 -0.009151628 -0.17849894 0.25546372 0.045831922 -0.08393528 0.033345353 0.1355258 -0.30190545 -0.0266921 -0.15170869 0.1455781 0.014043088 0.017191375 0.11016548 0.029101582 0.1295375 0.2610706 0.2898023 0.3167822 0.03362921 0.02726915 0.1190212 -0.27884802 0.1184738 0.11933156 -0.24141027 -0.04243357 0.17194633
256637969 0.027429484 -0.12911014 0.14515978 -0.121017955 -0.010744357 -0.13516177 0.25988957 0.048124522 -0.05572436 0.05327223 0.12512682 -0.308911 -0.058821153 -0.18129413 0.13511509 0.021953652 0.002222029 0.11926819 0.026194809 0.13908215 0.20275562 0.2892958 0.33092785 0.05855562 0.016118683 0.12499749 -0.2744564 0.06167339 0.15044032 -0.19937347 -0.053055663 0.1822847
105648689 0.027906662 -0.14457466 0.15554212 -0.087765284 -0.0128124505 -0.1227557 0.24145392 0.049905106 -0.06051205 0.051077187 0.13582666 -0.2520577 -0.0609286 -0.19852693 0.0957342 -0.007737571 0.052757807 0.077181704 0.014276595 0.16679862 0.19356807 0.2993668 0.29949975 0.019397505 0.039446026 0.101314336 -0.2212944 0.07158148 0.11290017 -0.16556518 -0.072099626 0.1683293
1976611 -0.014590212 -0.13020314 0.16007231 -0.14000411 -0.02305606 -0.18621562 0.29859307 0.054831076 -0.089060724 0.025258498 0.15412283 -0.30186176 -0.035143625 -0.20778553 0.11931533 0.021015681 0.006788637 0.109992005 0.05055647 0.15622345 0.23985495 0.31521133 0.30144832 0.07896293 0.055214595 0.12710612 -0.24638872 0.07034764 0.15348929 -0.22599278 -0.08947556 0.13874719
371385561 0.034774054 -0.15065765 0.13345745 -0.08192914 -0.04113764 -0.173664 0.287262 0.047679055 -0.091873825 0.023808077 0.11820346 -0.29394925 -0.06491425 -0.18203323 0.13430452 -0.0015253279 0.056012537 0.119600885 0.031037662 0.15034463 0.23612945 0.33250087 0.32598594 0.04172108 0.03658712 0.10502935 -0.25432473 0.06961693 0.13422915 -0.23462714 -0.05570298 0.15872756
40534747 0.01956951 -0.14106862 0.16703497 -0.11814777 0.012163438 -0.14794812 0.27112556 0.06882163 -0.059885565 0.03544239 0.14170326 -0.3094888 -0.058658894 -0.17756848 0.08459647 0.011836346 0.039580327 0.086293265 0.05650248 0.13673075 0.21976289 0.31203103 0.2573589 0.02358616 0.06495 0.0909385 -0.21042533 0.10021867 0.10444513 -0.1725574 -0.035272703 0.1226271
186154646 -0.01740896 -0.14380147 0.14184144 -0.06968223 -0.023781754 -0.13322301 0.20651984 0.033513535 -0.038057424 0.0013736958 0.09232077 -0.24408919 -0.07126019 -0.17405365 0.11576692 0.028734174 0.0033595697 0.10589157 0.055432815 0.13755152 0.17879204 0.28796062 0.22323456 0.027929207 0.03798627 0.07231232 -0.24241479 0.08517009 0.14091703 -0.18849334 -0.06268382 0.13750671
70807000 0.010050221 -0.12060285 0.12542619 -0.08142079 -0.005263974 -0.09987609 0.21669415 0.067634255 -0.020126602 -0.0034471513 0.100706436 -0.20348208 -0.03296214 -0.09518062 0.09730759 -0.024580166 0.049920484 0.06103702 0.021704093 0.114966705 0.13761374 0.20862901 0.20572989 0.05286509 0.04081799 0.0715852 -0.19517818 0.047090195 0.122085534 -0.16984874 -0.00761922 0.101673834
2751391 0.002484304 -0.05552262 0.1250934 -0.040572934 0.0147881145 -0.13140368 0.1941085 0.006402729 -0.06390927 -0.007561567 0.09518083 -0.15984209 -0.052323114 -0.12237363 0.06923539 -0.011920653 0.016176715 0.07313552 0.032576237 0.07962727 0.13141856 0.18337242 0.17424047 0.04331137 0.05653257 0.095652744 -0.17985553 0.03400524 0.056428783 -0.14631492 -0.023895528 0.073009975
