159 16
21212730 -0.23947176 -0.2040038 0.23231518 0.30964833 0.006321517 0.2298511 0.8586891 0.4869599 0.052429706 0.015737016 0.2142667 -0.36193037 0.17156132 -0.20981713 -0.1067289 0.01422321
90420314 -0.24770084 -0.15634446 0.20349799 0.18779433 0.113709055 0.40832835 0.88498163 0.37556806 0.12525009 0.13028428 0.106107816 -0.33488297 0.10037469 -0.25555164 -0.15805309 0.12100471
115485051 -0.21059494 -0.22742812 0.21284832 0.24418706 0.12259827 0.31455538 0.8589904 0.35389674 0.0069567487 0.16329584 0.07142711 -0.4048645 0.15976407 -0.24431477 -0.14075875 0.1836518
7727382 -0.181212 -0.1485471 0.13284522 0.2791099 0.068015456 0.29084015 0.89283013 0.41230354 0.13552433 -0.034483217 0.1580061 -0.28569925 0.17978573 -0.25777784 -0.09568569 -0.06477709
14391068 -0.24057335 -0.22200742 0.20111664 0.30183607 0.07203421 0.27908733 0.86289054 0.49084398 0.09013821 -0.054841526 0.19984588 -0.34475464 0.25810328 -0.2853849 -0.08066708 -0.046932697
7861312 -0.26956844 -0.20024852 0.28763887 0.27857608 -0.011695886 0.36254776 0.8667415 0.3769407 0.0220102 0.18638453 0.14222667 -0.39874735 0.20909105 -0.2070901 -0.029895613 0.19631544
47438746 -0.34167102 -0.14090137 0.15830314 0.38627815 0.10577647 0.47343442 0.8563788 0.34541494 0.19896466 0.20261414 0.10302965 -0.20551227 0.055249326 -0.2964341 -0.09827746 0.042238683
25143948 -0.26124704 -0.1725213 0.21412593 0.3078559 0.14959285 0.31599826 0.7924683 0.42531466 0.14076924 -0.03337757 0.22364157 -0.4151708 0.24570213 -0.259866 -0.08663111 0.017881759
316828902 -0.31535706 -0.052568145 0.21533972 0.3353685 0.1728714 0.42684838 0.8590661 0.33427307 0.21335584 0.29878798 0.15888801 -0.16509062 0.11234971 -0.33278838 -0.15775508 0.07985972
767396 -0.3051308 -0.1773686 0.3066258 0.24890307 0.040962867 0.34261465 0.86563694 0.338978 -0.017423378 0.16715698 0.09630962 -0.31988516 0.26938245 -0.16217695 -0.07899378 0.22346054
14297648 -0.2843532 -0.16860214 0.16522983 0.20967191 0.107818566 0.34237698 0.87887967 0.36879 0.13711768 0.11678726 0.12192473 -0.41214645 0.214688 -0.18353803 -0.081074364 0.0011552096
31353077 -0.30356988 -0.19900313 0.24958514 0.20193492 -0.009200427 0.36393642 0.84560496 0.33502504 0.07161318 0.13218397 0.12251407 -0.43107098 0.18321207 -0.24862865 -0.087372944 0.12247078
610533 -0.29492676 -0.2812744 0.2583905 0.2745934 0.04716426 0.30905947 0.79715246 0.44635624 -0.022001311 0.18156077 0.061666753 -0.3956137 0.27948177 -0.16789396 -0.09165778 0.2021266
69225990 -0.268104 -0.16544895 0.15302336 0.22127181 0.15123717 0.27407944 0.8178239 0.36498925 0.1462731 0.06703374 0.11346196 -0.35259676 0.1355405 -0.29833466 -0.086157545 -0.06411751
10350 -0.26291957 -0.2860652 0.35528317 0.30180642 -0.02611013 0.3374831 0.89395964 0.38752654 -0.08517318 0.12427788 0.044776168 -0.40794832 0.2295725 -0.19308771 -0.050650917 0.18397096
407977463 -0.29598072 -0.11477726 0.1921257 0.33063555 0.14722894 0.43941534 0.82730055 0.3210207 0.08853926 0.17883578 0.11219363 -0.3266036 0.056603078 -0.27428916 -0.15598439 0.07170081
113806705 -0.3201699 -0.11225645 0.12065757 0.36098498 0.21552147 0.46660197 0.92274797 0.326813 0.13444608 0.34128106 0.14174818 -0.193369 0.0121034235 -0.25489268 -0.065112665 0.11916217
322303756 -0.29248983 -0.0857525 0.13786292 0.4434624 0.25315347 0.50714004 0.8512767 0.33487484 0.17648228 0.2186535 0.05792128 -0.22721487 0.077398896 -0.33398917 -0.12730865 0.034936376
135635651 -0.22750537 -0.11813538 0.16136019 0.36841697 0.2032865 0.4215072 0.8726906 0.3639197 0.16255641 0.22438064 0.1603334 -0.31510702 0.048019707 -0.1852509 -0.09922733 0.10128926
28040164 -0.19030465 -0.22338624 0.21234061 0.2875465 0.115122005 0.21870117 0.83110595 0.42459202 0.12738435 -0.019589754 0.21108499 -0.328875 0.23418947 -0.28935483 -0.11838711 0.05439036
13055232 -0.27818048 -0.22660065 0.32170165 0.31419384 -0.03756618 0.33284146 0.8471315 0.42919913 0.011258848 0.14779745 0.12155114 -0.38098797 0.16757303 -0.21335642 -0.050160028 0.20670274
16044551 -0.16006273 -0.22846287 0.13629767 0.3035141 0.09422401 0.2991974 0.7983718 0.38415834 0.15539454 0.033059075 0.1718739 -0.32424098 0.160319 -0.26348007 -0.03210812 0.008553889
6978642 -0.34822148 -0.28247598 0.21550684 0.24216282 0.03934746 0.3592366 0.8399655 0.35388136 -0.013967314 0.18373862 0.14761226 -0.3642655 0.24027331 -0.24639572 -0.067348674 0.21116027
271606879 -0.3131848 -0.18487497 0.22451453 0.32495776 0.14095575 0.5220023 0.8381448 0.30940446 0.09364711 0.26552185 0.06291807 -0.25330013 0.072588645 -0.2248108 -0.0691185 0.114879556
14731839 -0.24078996 -0.21112378 0.26300427 0.27759865 0.06905084 0.25309488 0.7581654 0.40116152 0.09280763 0.035294384 0.20478211 -0.33548313 0.21137325 -0.29073474 -0.09507514 0.0021196413
293296964 -0.33917326 -0.110724024 0.12045341 0.33194044 0.16861305 0.5003851 0.860984 0.33392325 0.10793108 0.27728802 0.067331314 -0.2313266 0.03794461 -0.25252146 -0.12744479 0.08325527
130650476 -0.33572328 -0.06420659 0.20168404 0.35468784 0.19543208 0.42727903 0.92029697 0.389525 0.15028876 0.27548397 0.10731438 -0.19735757 0.028395921 -0.28885245 -0.048243344 0.10286895
93516421 -0.22645728 -0.26737863 0.26441312 0.21177027 0.056557138 0.3020831 0.78551704 0.4211796 0.10230889 -0.01678364 0.09326322 -0.27616546 0.22911878 -0.30585915 -0.05273836 0.023403255
774096 -0.26155064 -0.2964308 0.30988955 0.29926914 0.086482085 0.29113653 0.81688523 0.35710913 -0.091141306 0.08925841 0.10629856 -0.40873027 0.27253053 -0.24659054 -0.046350073 0.17203468
14515931 -0.27068833 -0.20159689 0.29153144 0.3117918 0.033531465 0.34828752 0.76658523 0.44858116 0.06612924 0.07673646 0.17047293 -0.28382206 0.18412596 -0.19574551 -0.037624266 -0.019228684
930061 -0.32554567 -0.26819995 0.27440268 0.23259376 -0.024243668 0.28032738 0.88051033 0.42186517 -0.05787024 0.10869322 0.14245881 -0.39594358 0.24037194 -0.23631911 -0.053966407 0.105843864
41269447 -0.20480834 -0.116677836 0.366797 0.23841284 0.031368665 0.4435244 0.8462894 0.36659554 0.009410434 0.09148802 0.14906423 -0.38499814 0.11372767 -0.22663474 -0.21979524 0.1677094
20536157 -0.3392833 -0.2792636 0.24898359 0.24003395 0.010614278 0.302322 0.8684604 0.43373483 0.005479245 0.118360676 0.20966597 -0.31493506 0.15925117 -0.285737 -0.07668638 0.028798556
89604563 -0.2684825 -0.10863002 0.24924096 0.14101495 0.00278678 0.28730237 0.81319344 0.4701812 0.10235466 0.18340597 0.16507548 -0.46697512 0.2121251 -0.24876025 -0.1700093 0.1588362
470529091 -0.3461331 -0.12005427 0.15222412 0.46186155 0.2088824 0.50384176 0.9123252 0.28206167 0.24071138 0.33936396 0.037877873 -0.20283389 0.12535825 -0.36953682 -0.1400404 0.029667685
17587207 -0.21410026 -0.14586158 0.26647744 0.23726556 0.1290856 0.40802234 0.81863123 0.37309083 0.043169595 0.11016817 0.12643597 -0.27041334 0.17831211 -0.184704 -0.09898723 0.16843788
357958504 -0.36920136 -0.09055324 0.17464939 0.39387047 0.21974394 0.4245798 0.88934857 0.26788303 0.14919047 0.19633561 0.06780605 -0.20249702 0.08184225 -0.25625724 -0.046832822 0.15436043
816214 -0.34998113 -0.24778554 0.3376519 0.30486715 0.020389128 0.27384293 0.8631612 0.3652627 0.044214334 0.12384346 0.09627485 -0.35743335 0.21661995 -0.21011062 -0.033634085 0.17121558
30614676 -0.27142474 -0.16982609 0.27177256 0.25115362 0.06389173 0.42932066 0.7963774 0.3723363 0.13831985 0.19651933 0.1280619 -0.4204561 0.15133326 -0.23227714 -0.040409625 0.13666078
14413715 -0.28368628 -0.20481707 0.26149142 0.23958519 0.03778486 0.3104897 0.86732954 0.46797487 0.008852743 0.16401312 0.07659677 -0.34370047 0.17340618 -0.2778319 -0.12830101 0.08079676
36169530 -0.1850795 -0.16359717 0.48763022 0.14798291 0.124501206 0.5394791 0.83931196 0.41942343 0.036992677 0.06554772 0.12126047 -0.54653966 0.07679303 -0.13624853 -0.31133652 0.18490504
84161531 -0.23358984 -0.2455163 0.14717482 0.18967958 0.07595353 0.24469072 0.7961252 0.39253637 0.07682836 0.070448674 0.11049384 -0.33402207 0.1345002 -0.27691665 -0.07792555 0.06635704
35327153 -0.24746655 -0.1642317 0.24740486 0.1960026 0.10248261 0.3166346 0.74781317 0.4310979 0.14639316 -0.011338483 0.099017926 -0.2958715 0.17859794 -0.29633334 -0.013802284 -0.0091503775
58828530 -0.26275238 -0.21001793 0.18617733 0.24753977 0.053659346 0.28286773 0.7792737 0.40800157 0.15753789 -0.017414363 0.14594822 -0.2934738 0.23843409 -0.27993056 -0.013672556 0.060044635
25919954 -0.24135636 -0.18956195 0.21827552 0.21117325 0.04331918 0.23089294 0.75820506 0.387327 0.12155099 0.007491428 0.14716339 -0.30009404 0.21140626 -0.24212533 -0.10775757 -0.042536076
14413075 -0.29887933 -0.19646128 0.30512285 0.21708372 -0.019782327 0.36216187 0.8074813 0.4615862 -0.045782294 0.1939511 0.062911436 -0.36004958 0.19846463 -0.2598466 -0.101568334 0.16529636
18247250 -0.252894 -0.19166926 0.14367236 0.25138682 0.13706589 0.26254696 0.7437785 0.3990653 0.14449336 0.0029906703 0.09359931 -0.33028758 0.23749503 -0.2311451 -0.12458649 0.015004874
6017542 -0.20846114 -0.25061944 0.21791565 0.33653164 -0.011552931 0.39170593 0.84756476 0.44134718 0.09346774 0.12604298 0.10464969 -0.29834124 0.21002056 -0.17576063 -0.15008461 0.22078413
50016578 -0.29673493 -0.19892365 0.22987424 0.2012046 0.06398275 0.3469968 0.85432863 0.45184812 0.123318106 0.13648519 0.16162401 -0.5373797 0.110345356 -0.22569083 -0.1869553 0.21803328
58572832 -0.1942414 -0.20122865 0.20257497 0.29559755 0.14962964 0.25693575 0.7566972 0.36009234 0.05328559 0.0631448 0.13409594 -0.31726888 0.15442245 -0.28628755 -0.039684463 -0.019789305
154239882 -0.3402381 -0.041747022 0.1985188 0.39563283 0.19600429 0.45669952 0.8635371 0.29582524 0.095167354 0.2594502 0.12755278 -0.2833271 0.14268312 -0.27727678 -0.03553677 0.1083955
383842993 -0.31258425 -0.13293713 0.11874248 0.29395658 0.14121266 0.46354842 0.8482648 0.2944308 0.14383419 0.19720434 0.0883119 -0.3296569 0.1068187 -0.29646808 -0.052868456 0.051208857
24847059 -0.2412173 -0.08632085 0.21948548 0.23063636 0.019915875 0.3969975 0.8637323 0.36310855 0.05256665 0.17141913 0.13500707 -0.45771554 0.14443852 -0.2196382 -0.12313283 0.20370273
392821868 -0.2486525 -0.22120336 0.195182 0.2289724 0.077438824 0.25145164 0.7869503 0.37606496 0.109177 0.04643036 0.19143283 -0.36217374 0.13571331 -0.26006562 -0.012682856 0.017487127
451669236 -0.34882006 -0.123719476 0.12865289 0.37179342 0.09115326 0.45620644 0.7679391 0.33818996 0.17065185 0.26671374 0.051455893 -0.28567564 0.046534356 -0.30234012 -0.15117314 0.07068316
30397013 -0.2379706 -0.24484664 0.25288716 0.2455444 0.10240896 0.30112845 0.7879138 0.34530792 0.06687581 0.07740195 0.111849 -0.31678745 0.19479087 -0.25265372 -0.010379754 0.08839131
31153819 -0.21800356 -0.15498583 0.24660142 0.22181074 0.03604289 0.26312932 0.7632143 0.46552718 0.084157385 0.006253262 0.126572 -0.2978396 0.16777152 -0.27396646 -0.067596115 0.015707862
296022551 -0.31263563 -0.10035005 0.14401762 0.4215063 0.19190457 0.39696425 0.87178135 0.28500947 0.15089616 0.26330537 0.06569239 -0.26179013 0.1264519 -0.29375902 -0.14111148 0.15320687
14596798 -0.29520172 -0.27833515 0.3322125 0.28474924 0.034223653 0.37157097 0.7505292 0.42405486 -0.0200385 0.16977812 0.11084919 -0.3292397 0.26102906 -0.15659928 -0.084654436 0.16018029
271142845 -0.2399813 -0.18055938 0.19598378 0.28505433 0.09930406 0.35579875 0.8111418 0.45425847 0.089093685 0.116371974 0.17700267 -0.38364577 0.16038659 -0.25968844 -0.04238957 0.043725442
19352783 -0.2600892 -0.13142443 0.2561258 0.23956008 0.04492747 0.29851592 0.77880996 0.32486534 0.096269 0.059980877 0.15319355 -0.30386588 0.14074834 -0.30031222 -0.06927571 0.027109604
44244599 -0.2221295 -0.14707354 0.42001358 0.19498935 0.10759873 0.40156278 0.80998677 0.4718603 0.058619473 0.04739831 0.06466771 -0.40266785 0.17875722 -0.13152532 -0.255145 0.2380558
17691468 -0.20637393 -0.14296347 0.26244515 0.20025198 0.014688355 0.35007426 0.8731002 0.42982015 0.14168043 0.07257512 0.21395956 -0.42395613 0.12501074 -0.27253914 -0.11077749 0.10626054
249049182 -0.25852475 -0.23276818 0.25425977 0.23670757 0.14760724 0.2812871 0.8378966 0.45264283 0.10959151 0.04320264 0.17408402 -0.40183562 0.15722047 -0.25746256 -0.04112293 0.020982169
16589206 -0.35066205 -0.11966297 0.23550385 0.26070938 0.13673998 0.4607738 0.94727236 0.5341858 0.1733616 0.19989231 0.20329373 -0.42448515 0.15919672 -0.24345201 -0.14591062 0.13866416
749863 -0.34783953 -0.23094253 0.24319617 0.33570892 -0.007667229 0.31904587 0.9089711 0.44510692 -0.027670685 0.18646595 0.08449119 -0.40740755 0.19487889 -0.22754125 -0.059390675 0.16188341
917321 -0.33831772 -0.24866572 0.31843826 0.28035855 -0.048466995 0.2797994 0.82107747 0.418776 -0.09762614 0.18965209 0.03876629 -0.4071257 0.24874067 -0.2259393 -0.047997437 0.2319903
228923665 -0.33655033 -0.06604173 0.21017145 0.43173417 0.21305972 0.41612318 0.8964798 0.4257839 0.18920149 0.30147925 0.17041339 -0.2154327 0.03274748 -0.25923538 -0.1333816 0.12428632
212810973 -0.26234823 -0.068442285 0.21694514 0.35745266 0.15965623 0.4908044 0.80868876 0.327024 0.2034652 0.20572959 0.12882762 -0.28681883 0.15118171 -0.2133198 -0.073470764 0.1262228
28709890 -0.20439935 -0.19750452 0.28157845 0.3291406 0.06280386 0.4432321 0.88907677 0.4216351 0.10654723 0.16624227 0.1827309 -0.50416684 0.124165565 -0.22883877 -0.23721075 0.16407984
15249156 -0.2893042 -0.23870167 0.25723282 0.17410628 -0.01667003 0.29900488 0.7834576 0.43788147 0.07096812 0.14567709 0.10717055 -0.43580368 0.17045286 -0.20828438 -0.09289078 0.15447883
32257719 -0.12138133 -0.20122257 -0.011635266 0.02007526 -0.074121565 0.47624052 1.0513875 0.7201352 -0.06814944 -0.016974475 0.3130424 -0.45591173 0.14768516 0.06154323 -0.07633807 0.051361635
69382909 -0.23554018 -0.15051925 0.19241539 0.2977796 0.105273224 0.48025787 0.93118775 0.3919234 0.14328443 0.18839045 0.13263479 -0.38960543 0.09841146 -0.1926315 -0.060719464 0.16736695
52189468 -0.22383668 -0.16710229 0.114582814 0.23135597 0.08059485 0.39129546 0.8851828 0.5489974 -0.000503046 0.11222822 0.18594037 -0.4172164 0.14910272 -0.035799764 -0.1526287 0.008850927
21013084 -0.087880865 -0.18533342 0.046579763 0.057128895 0.09234614 0.45697784 0.9731956 0.5690245 -0.071498245 0.065576896 0.27135718 -0.45557898 0.11269397 -0.04268971 -0.1361397 0.027784998
217136120 -0.29901615 -0.16185676 0.22926842 0.25571677 0.17462398 0.4593363 0.80796593 0.41175094 0.19547573 0.16337377 0.07177316 -0.31293002 0.040061362 -0.27980533 -0.13312002 0.03189067
24044348 -0.23255727 -0.123481564 0.3770623 0.18833974 0.059643906 0.42159396 0.8339726 0.48132074 0.055710305 0.13678938 0.070365265 -0.35913408 0.13254325 -0.11870182 -0.23245537 0.18480787
34175976 -0.27563345 -0.190173 0.20728888 0.17741144 0.0063627916 0.32350668 0.9150004 0.44313127 0.06595111 0.21872795 0.1231465 -0.4524228 0.093887284 -0.30897355 -0.051821694 0.11460156
756559 -0.27217036 -0.0850455 0.4546332 0.13098839 0.101911284 0.4048349 0.85085607 0.41444194 0.02541434 0.08582851 0.17054199 -0.38129127 0.07335834 -0.19567436 -0.17972799 0.21552292
16895468 -0.23658937 -0.10870109 0.47276405 0.14175689 0.02376087 0.424255 0.80055946 0.4598142 0.06856634 0.010329127 0.09698649 -0.42189914 0.14226049 -0.18873481 -0.286323 0.2044866
1715051 -0.2971446 -0.12269404 0.21268536 0.2819913 0.014508905 0.32849267 0.8114237 0.32312247 0.017891109 0.15231152 0.125428 -0.3524914 0.1917023 -0.25111437 -0.06509543 0.13779424
52436726 -0.2439645 -0.09454755 0.20918626 0.37836552 0.08071067 0.49087012 0.7835834 0.32549998 0.09399645 0.18344672 0.055327244 -0.31753293 0.06827716 -0.2628541 -0.13050464 0.13547803
44423 -0.33640903 -0.24539874 0.33335534 0.30104485 0.069524325 0.34321854 0.80742997 0.3606459 0.06349313 0.14777347 0.18517701 -0.29733542 0.26914272 -0.1512568 -0.14280146 0.068999164
20015311 -0.25276628 -0.142866 0.26356718 0.29802442 0.11869215 0.30335405 0.85932994 0.3598546 -0.009177523 0.19425923 0.12710029 -0.36863905 0.1517379 -0.23671977 -0.045460995 0.15934207
143988282 -0.29404098 -0.2169989 0.20219304 0.20935692 0.07735513 0.33477482 0.86597973 0.45093235 0.012954253 0.1611505 0.12840894 -0.4376874 0.1961084 -0.22475584 -0.15235007 0.22901194
423526663 -0.29002085 -0.020259142 0.25709128 0.4180251 0.26406476 0.4738407 1.0672951 0.7247886 0.20508265 0.058264874 0.13434358 -0.55468243 -0.08071385 -0.22762075 -0.009698448 0.21174935
7852172 -0.276405 -0.16628978 0.26489604 0.22387242 0.0691076 0.30431697 0.86048913 0.4294003 0.055603422 0.15492406 0.17485979 -0.32259938 0.17513786 -0.25808945 -0.0235132 0.18921006
2735631 -0.31292695 -0.23487158 0.23698021 0.2488495 0.095943585 0.31472927 0.8157346 0.47766718 0.047623944 0.23023853 0.105731755 -0.42495367 0.28178298 -0.23787287 -0.032524537 0.20127593
25677545 -0.122571856 -0.2363718 0.20383158 0.11311789 0.024611533 0.31392074 0.83447766 0.5556214 0.110088415 0.039376013 0.2113012 -0.40988368 0.21614589 -0.07794543 -0.105389036 0.0054251724
28880820 -0.28965864 -0.11689445 0.36895224 0.18786575 0.13940588 0.40780047 0.80603856 0.42999586 0.05311738 0.0404059 0.088022925 -0.47898817 0.20374893 -0.13142402 -0.19117956 0.2213884
61033129 -0.22095649 -0.3235376 0.30404487 0.34015012 0.10535975 0.5720131 0.91140753 0.47408563 0.08941714 0.2128371 0.21238315 -0.4175937 0.23626995 -0.27967504 -0.1361815 0.10922338
18820850 -0.1898654 -0.12363526 0.22812614 0.30649042 0.03705392 0.36807942 0.9038466 0.4420173 0.1716583 0.2005491 0.12786861 -0.40034226 0.1376915 -0.24936521 -0.14140615 0.04468769
89503894 -0.20216203 -0.18961048 0.214937 0.20361796 0.12206948 0.38283932 0.84890515 0.40771225 0.011261209 0.16109982 0.14821887 -0.41477412 0.19547336 -0.19499925 -0.04912515 0.1817814
243907619 -0.31033596 -0.15454482 0.21194181 0.35709858 0.20651871 0.49163738 0.8662992 0.31772348 0.14274122 0.28764126 0.078743085 -0.19181807 0.042998858 -0.2386156 -0.07008283 0.14017479
61040833 -0.31204402 -0.41790542 0.22791904 0.3743255 0.038182516 0.7025513 0.9742808 0.4653943 0.06575925 0.25993803 0.17621648 -0.55071384 0.17381576 -0.17546049 -0.11415928 0.19550017
21897587 -0.29500648 -0.109964766 0.16398251 0.19061878 0.0075322352 0.3502286 0.8152844 0.4696696 0.07451549 0.08616 0.102397926 -0.48686972 0.16273876 -0.1443098 -0.16918464 0.21631573
223297575 -0.23478799 -0.18515494 0.12218648 0.3796222 0.19284812 0.39161858 0.78705245 0.4159184 0.15305272 0.23797393 0.059092302 -0.34783465 0.12315022 -0.3205273 -0.13025816 0.06976058
15147397 -0.16397199 -0.08042251 0.18588859 0.29833093 0.15094975 0.35889488 0.8295322 0.39007998 0.11497248 0.13273855 0.08760947 -0.3461507 0.17428392 -0.24024336 -0.13176821 0.17679359
20476979 -0.24526167 -0.09379604 0.2032313 0.2518136 0.15511549 0.37081194 0.8951657 0.5878031 0.0606875 0.0659838 0.1273404 -0.4827351 0.029909017 -0.21159343 -0.13423592 0.17701636
14166096 -0.2968258 -0.16340205 0.18566425 0.19050467 0.11936122 0.3895351 0.78953946 0.42304328 0.014139063 0.050537966 0.08776056 -0.312611 0.2169403 -0.15602623 -0.041368954 0.1447972
78425421 -0.19544683 -0.23380195 0.335345 0.2859945 0.12450444 0.48563942 0.8727774 0.48255542 0.11516395 0.17226742 0.13294339 -0.55665356 0.10414563 -0.11413226 -0.27419543 0.2952357
24517423 -0.32095525 -0.1360593 0.18947704 0.12807888 0.100561574 0.38397592 0.81954676 0.4448446 0.077556856 0.19272155 0.18491787 -0.50435805 0.1111015 -0.20558634 -0.10737714 0.13111566
15914498 -0.25946516 -0.25596318 0.25338027 0.30142805 0.11263984 0.347561 0.81767994 0.3589438 0.06780389 0.06848923 0.10111942 -0.33736926 0.22413467 -0.21552467 -0.14172022 0.075536326
66468822 -0.07991399 -0.15840514 0.019661196 0.028155599 0.0072279708 0.47795483 0.96541506 0.6151627 -0.081290305 -0.05193621 0.17187127 -0.41066727 0.18292724 0.010753319 -0.062945366 0.13704365
217158161 -0.25027668 -0.091801055 0.13247141 0.3274745 0.15437245 0.40647897 0.80135 0.38512036 0.10031853 0.15109853 0.10789121 -0.33626214 0.16489935 -0.25232884 -0.034754787 0.07729938
434700953 -0.24062423 -0.25648645 0.1505009 0.2143338 0.042757526 0.32604176 0.7850883 0.3879639 0.066266894 0.038235612 0.19644044 -0.32247645 0.23582196 -0.20998928 -0.12085924 0.095668755
392438665 -0.34596294 -0.14805263 0.11381032 0.33976182 0.14997126 0.46325198 0.8262971 0.30234998 0.18149428 0.15541705 0.17061526 -0.25163564 0.07512318 -0.28912526 -0.12635331 0.042988896
174320920 -0.19179088 -0.17123853 0.27373454 0.21488261 0.10130592 0.3857872 0.8979095 0.328347 0.17069632 0.12734072 0.089676715 -0.39525208 0.11083383 -0.24253416 -0.126005 0.057266075
15804774 -0.27651942 -0.18847708 0.24637283 0.27234387 -0.014216198 0.30138442 0.84226376 0.45881462 -0.012399365 0.18055648 0.1767379 -0.3534096 0.25598314 -0.27870935 -0.05011188 0.12487695
61040299 -0.2436953 -0.39154 0.22067165 0.31404293 0.073488206 0.6018297 0.9824947 0.56047523 0.17642713 0.17766596 0.28368685 -0.47243938 0.23495989 -0.20428115 -0.13903433 0.1825468
78925893 -0.27768445 -0.2513351 0.14500967 0.2701193 0.1394256 0.30340892 0.85359794 0.45249835 0.15639709 -0.0043838825 0.18626207 -0.42026496 0.21359245 -0.19722228 -0.01476068 0.07715432
211678994 -0.1547631 -0.12094381 0.31774667 0.35500768 0.05143481 0.52293265 0.8901407 0.37850785 0.16570751 0.22728752 0.21295966 -0.4326281 0.21407844 -0.18364634 -0.1354825 0.22811958
4816 -0.23581162 -0.2226294 0.28994843 0.3094 0.050491266 0.3687275 0.9495694 0.40404642 0.1428376 0.06396698 0.1043282 -0.39227352 0.23444399 -0.249227 -0.08489104 0.18534137
233386754 -0.29584926 -0.21853858 0.18390416 0.20248686 0.06543812 0.39557242 0.84593207 0.38640222 0.07650826 0.20202236 0.18374124 -0.33017045 0.18122229 -0.25625405 -0.10755278 0.084411345
18306821 -0.21313086 -0.23407368 0.12755428 0.32757995 0.16661002 0.32200193 0.9753543 0.45097983 0.07753898 0.07220274 0.1982794 -0.437162 0.20620243 -0.2064098 -0.045214195 -0.02490494
555448499 -0.25679508 -0.16986175 0.24255808 0.30038568 0.06785857 0.37694132 0.7390876 0.3487344 0.15201743 0.13696958 0.080514446 -0.36226174 0.10853506 -0.20758133 -0.06314622 0.16815974
385215139 -0.2876617 -0.09910425 0.22167927 0.30698025 0.15044655 0.45981938 0.8199908 0.36530674 0.07728478 0.26523176 0.13697018 -0.19695386 0.0763448 -0.21633302 -0.033397835 0.06519103
15603992 -0.2137691 -0.16573045 0.2918247 0.20545365 0.022349495 0.38680875 0.7599326 0.3442802 0.009748754 0.13256587 0.1144464 -0.3332523 0.22058877 -0.2220109 -0.074448265 0.14077055
53830332 -0.29309994 -0.19295113 0.22547331 0.28166547 0.15142511 0.46665412 0.8240835 0.37361294 0.15426575 0.16026162 0.13005814 -0.28640556 0.14919801 -0.21336092 -0.09558801 0.1333252
7880682 -0.4184485 -0.12677258 0.3479946 0.25809407 0.05912164 0.36881924 0.9808672 0.50707436 0.13932863 0.208397 0.174149 -0.408026 0.2830639 -0.27212748 -0.13986275 0.11221421
53562440 -0.2386688 -0.14399652 0.22625224 0.29000643 0.034140978 0.51279056 0.89504683 0.37480605 0.14366399 0.24324411 0.14733559 -0.53295445 0.18967548 -0.2015384 -0.26479557 0.27354503
59525600 -0.29185376 -0.20891608 0.20938656 0.19601463 0.068377756 0.391482 0.80546427 0.43320957 0.050288863 0.11364243 0.10525172 -0.40771687 0.18195707 -0.18939742 -0.16430332 0.07689363
18498684 -0.32268643 -0.22705838 0.27013683 0.30016047 0.06421308 0.34168425 0.8281521 0.3656223 0.002988145 0.07693945 0.109931715 -0.3585052 0.18549995 -0.14300285 -0.1377663 0.10677521
15027362 -0.31072977 -0.22206137 0.20576428 0.2860093 0.106613554 0.31731477 0.84216887 0.41885856 0.10872175 0.15545924 0.11590862 -0.41655266 0.12829775 -0.24110049 -0.09067024 0.12477581
130600864 -0.2242812 -0.21743137 0.22690311 0.18918087 0.03770726 0.31548384 0.8644344 0.43981066 0.010046421 0.22571449 0.08716158 -0.4923299 0.10001478 -0.17986676 -0.05820628 0.21116371
224257403 -0.2341217 -0.1524466 0.2054966 0.3373504 0.09999805 0.40718487 0.87548155 0.45908535 0.17325884 0.11664617 0.18509555 -0.4050468 0.17857115 -0.19443905 -0.07350163 0.07020042
371385561 -0.37360898 -0.03108778 0.15320702 0.3605051 0.22185063 0.51314855 0.98987174 0.7917183 0.14783202 0.02770685 0.19474766 -0.5525484 -0.06625037 -0.3140921 -0.07510336 0.067552134
68446438 -0.21424748 -0.16914658 0.18626402 0.24439436 0.07053963 0.3436899 0.7466482 0.38379693 0.089831844 0.04356161 0.07759321 -0.24679182 0.15855904 -0.28253183 -0.11854671 0.01588602
257098434 -0.1850164 -0.15446918 0.21382594 0.17588708 0.0898524 0.3336746 0.8202215 0.50418484 0.10247695 0.06310715 0.119296245 -0.4042091 0.16515705 -0.12823027 -0.061260927 -0.012906088
14223829 -0.37008527 -0.1705581 0.24876307 0.25720006 0.088022694 0.3179697 0.9114318 0.4251643 -0.012348851 0.16977653 0.15336697 -0.32435682 0.22510497 -0.1881443 -0.11236689 0.14808075
1976611 -0.40258017 -0.1858185 0.27286595 0.26406327 0.02506172 0.47283006 1.0033836 0.46242973 0.041962855 0.27281126 0.10291741 -0.38292077 0.2546244 -0.18177319 -0.043384824 0.11903629
7190742 -0.24235584 -0.19276755 0.1687407 0.24543306 0.06426474 0.39075857 0.91218615 0.47495657 0.009308931 0.18457484 0.09322672 -0.35945606 0.17134896 -0.17225517 -0.05772029 0.14099945
18744957 -0.22000416 -0.2058134 0.1877014 0.23738296 0.12069048 0.31213298 0.8444569 0.45030093 0.053375687 0.083059914 0.12856558 -0.3753065 0.2129886 -0.19358587 -0.11441523 0.1311139
128587754 -0.20708564 -0.15780616 0.24856086 0.21158913 0.11399787 0.2886268 0.8279159 0.3061849 0.051630206 0.063548096 0.112083085 -0.39545736 0.12372725 -0.2143824 -0.07203745 0.10840718
127671778 -0.26148117 -0.19462404 0.19816267 0.178505 -0.0075141606 0.29450613 0.7440312 0.38346857 0.0032760722 0.114303134 0.08056954 -0.37268102 0.13983454 -0.18968795 -0.12733153 0.042695645
233412024 -0.2945747 -0.09313428 0.13150518 0.35551414 0.119703226 0.4068622 0.8719247 0.3895434 0.09001904 0.20685005 0.13582706 -0.240266 0.114782654 -0.2718359 -0.08729916 0.056445472
689273 -0.2410406 -0.15313736 0.24831164 0.2988804 0.014104762 0.2995826 0.87341475 0.41788015 0.012958443 0.12432809 0.14251752 -0.37981656 0.14634085 -0.16224185 -0.024703328 0.05658816
385711866 -0.2751765 -0.15222642 0.15387686 0.2957873 0.095205724 0.45938113 0.79160464 0.391394 0.11796687 0.21295926 0.12990814 -0.2217285 0.12001863 -0.283546 -0.09574327 0.10517308
59144478 -0.26819456 -0.23427592 0.14838447 0.20888864 0.14523004 0.368848 0.9154315 0.45874438 0.040586304 0.12504838 0.22402795 -0.37100318 0.17835872 -0.17977461 -0.14587763 0.1287273
36782854 -0.18749912 -0.11958613 0.1402086 0.27741718 0.11341065 0.29643834 0.705461 0.40344974 0.018624099 0.05412938 0.15146403 -0.26183933 0.20861521 -0.24059239 -0.14058913 0.13392058
128956175 -0.19030316 -0.1960081 0.15693533 0.19958217 0.031456217 0.29198182 0.73263466 0.35024244 0.022012385 0.07697645 0.17025293 -0.3454808 0.10142471 -0.14473368 -0.067752 0.16325282
62631420 -0.27797514 -0.21261837 0.22650819 0.23529671 0.015610866 0.37135068 0.87954307 0.43978915 0.14868774 0.17521156 0.08451387 -0.37561408 0.10240767 -0.18732116 -0.15519258 0.114888385
16644070 -0.20614551 -0.1908781 0.12369814 0.24629253 0.022614019 0.27696562 0.704531 0.39093438 0.031026553 0.08495374 0.18477045 -0.3333654 0.11738694 -0.15855217 -0.04032091 0.056182243
8755772 -0.1404612 -0.13812271 0.18021543 0.18914913 0.016811002 0.28280792 0.64751947 0.26658735 0.06279316 0.069409244 0.11067272 -0.21515596 0.11406841 -0.2218854 -0.021061817 0.009805924
242558865 -0.3121404 -0.14908172 0.1438414 0.2778381 0.117661245 0.34909943 0.7300138 0.35671297 0.098674394 0.17622918 0.16625164 -0.2552577 0.17771442 -0.28241804 -0.030037018 0.07983464
243746947 -0.16280322 -0.14078805 0.2031986 0.16697468 0.00900217 0.3682589 0.71206707 0.3774606 0.11267921 0.09778612 0.18428983 -0.31883293 0.08233044 -0.23616602 -0.08850188 0.0292394
118886486 -0.18046935 -0.11514941 0.10995249 0.3033283 0.14333296 0.38234544 0.7505444 0.2514145 0.082521774 0.06908089 0.06852603 -0.2657468 0.10702714 -0.18748675 -0.067191474 0.10221979
49461697 -0.19463892 -0.07093698 0.13901755 0.29634002 0.1346735 0.3977672 0.73416257 0.30401978 0.05576831 0.11908673 0.097582 -0.20997334 0.12326086 -0.1645736 -0.053051453 0.024753911
39689218 -0.18155949 -0.09814651 0.18614943 0.2322013 0.011279083 0.27253893 0.80307835 0.34688035 0.103727095 0.14669792 0.104409054 -0.3201783 0.117460236 -0.20436278 -0.0907558 0.1584045
186154646 -0.18616131 -0.119475275 0.10795636 0.22666462 -0.00586744 0.29897553 0.6129461 0.25154927 0.011719915 0.039767336 0.06278931 -0.21592282 0.16753154 -0.1380342 -0.067425735 0.14134453
256637969 -0.21615964 -0.13740999 0.18045416 0.15015979 -0.0101298615 0.2019509 0.6545651 0.33263916 0.027153265 0.03464453 0.10647174 -0.23395407 0.107892044 -0.14813538 -0.099820904 0.104487516
2751391 -0.19763438 -0.09455126 0.11998866 0.17404799 -0.009030882 0.29841205 0.6244096 0.36188784 0.012546709 0.06976096 0.14358519 -0.335333 0.1442332 -0.21743926 -0.01847506 0.16497724
35040261 -0.17030178 -0.06866569 0.18496737 0.14529258 0.116743155 0.19810657 0.62380636 0.28958878 0.042634126 0.074129276 0.14162335 -0.2756572 0.14769946 -0.19235423 -0.015941357 0.0736895
337254711 -0.111061975 -0.14169866 0.17365274 0.2207665 0.06671463 0.23462838 0.5677601 0.31946683 0.106981754 0.11115028 0.13599043 -0.17562908 0.1650715 -0.14790837 -0.064131275 0.061820216
105648689 -0.1667191 -0.11531591 0.09170829 0.11040575 0.035119448 0.29283437 0.52025324 0.22208194 0.08730772 0.07795844 0.10326323 -0.20233153 0.13445541 -0.11156273 -0.0548869 0.059999403
21707762 -0.10215674 -0.10328011 0.10327877 0.2152953 0.09193123 0.24057531 0.5289126 0.301657 0.10142479 0.105509646 0.10091022 -0.28910276 0.107332304 -0.14959268 -0.032050133 -0.009657736
40534747 -0.11723903 -0.17053993 0.18792409 0.11906347 0.1113105 0.2878779 0.5828649 0.26430386 0.054164935 0.07943136 0.055200193 -0.20662247 0.124295115 -0.13779648 -0.110127315 0.112139665
31064031 -0.1430088 -0.10657846 0.06335948 0.1723792 0.08923096 0.2548587 0.4466068 0.19190335 0.01506932 0.06279242 0.029151203 -0.257498 0.077953465 -0.12590778 -0.115786985 0.027579088
70807000 -0.1437545 -0.06157255 0.13191448 0.14125496 -0.008669207 0.16350302 0.46636328 0.2685158 0.07255794 0.06507265 0.07885541 -0.25667712 0.07956184 -0.15693618 -0.015473485 0.047376778
