28 16
11 -0.052825406 -0.41261423 0.57507706 0.6197421 -0.5427279 -0.08707658 0.9508942 0.25505117 -0.2741607 -0.0826127 0.19478072 0.17856598 -0.23468032 0.09265838 -0.20607162 -0.19740415
18 0.050065115 -0.11215005 -0.2720848 0.07519002 0.18446754 0.26702157 1.5328561 0.06507824 0.6270929 0.0128789395 0.65996397 1.0767165 -0.23139817 -0.15787818 -0.59755546 0.053990863
6 0.024789432 -0.48011512 0.44003102 0.9163941 0.016961116 0.09418257 1.2380128 -0.15885118 -0.2767999 -0.09031231 0.123922065 -0.85136473 0.19073112 -0.29483086 -0.69052494 0.5258247
27 -0.27469715 -0.33396906 -0.8257424 0.85835254 -0.1782045 0.31512147 0.6451403 0.3009397 0.5756966 -0.42475474 0.36833632 0.66460717 -0.4138605 -0.15544464 -0.6531387 -0.73093975
0 -0.5763668 0.106270716 -0.051832933 0.74064344 0.30560815 0.43400213 1.258755 0.07045695 -0.19055884 0.14046074 -0.40620834 -0.6004964 0.13135855 -0.07908903 -0.53112817 -0.940495
5 -0.20816073 -0.17873448 0.30210122 0.6725693 -0.084470995 0.15641245 0.9726266 -0.0006291395 -0.22059157 0.057371378 -0.056270074 -0.3933032 0.049080513 -0.06693924 -0.3091378 -0.17743847
17 -0.09423971 -0.2816902 -0.21743958 0.3607153 -0.14368428 0.16557708 0.8707893 0.19483912 0.4252073 -0.15171787 0.4637752 0.73561037 -0.25155836 -0.118266724 -0.3985855 -0.1733994
8 -0.0598934 -0.31666258 0.40568513 0.8334791 0.044362113 0.163523 1.0020708 -0.12454962 -0.175849 -0.1470275 0.19405106 -0.82938945 0.23612209 -0.24764486 -0.59218276 0.44661132
19 0.018738782 -0.012075374 -0.09861915 0.052539315 0.15930085 0.16037208 1.248849 0.02471076 0.50953573 0.097835146 0.59488404 0.83138305 -0.053782523 -0.1621942 -0.5011181 0.10515946
20 0.004594759 -0.052216478 -0.20276974 0.123413235 0.15763015 0.2261526 1.3632025 -0.012024766 0.5383009 0.0459089 0.59445614 0.9606846 -0.10642683 -0.089372106 -0.5091581 0.107800536
1 -0.44696224 0.029086817 0.0030925076 0.57561517 0.23438866 0.3360045 1.0658218 -0.04271975 -0.09699127 0.16418265 -0.29101238 -0.5634456 0.11971039 -0.046003796 -0.44801572 -0.5900423
10 -0.06877939 -0.38130438 0.39695176 0.7749751 -0.07073896 0.14570506 1.1056834 -0.14387135 -0.14865263 -0.1326136 0.18179694 -0.75376433 0.18241242 -0.28848138 -0.5625176 0.39422166
25 -0.21487343 -0.3592255 -0.56853646 0.6764342 -0.03575796 0.25672838 0.6338345 0.27140328 0.44028154 -0.24354033 0.3057188 0.50074923 -0.25244573 -0.09021843 -0.5870732 -0.45779204
2 -0.526519 0.09607377 -0.0641857 0.58565646 0.31471485 0.35697034 1.1062298 -0.024748724 -0.10440852 0.22514746 -0.40154156 -0.5161751 0.014119423 -0.1077256 -0.4780217 -0.785755
14 0.012995122 -0.40292656 0.43102664 0.53750676 -0.41420364 0.025057131 0.904703 0.12667716 -0.17084756 -0.093074866 0.14026485 0.23501211 -0.20161532 0.021837812 -0.21803837 -0.14960633
23 -0.27823046 -0.30676812 -0.63529366 0.7212607 -0.065251574 0.29354852 0.56360227 0.23994319 0.43055266 -0.3063616 0.34219575 0.47958747 -0.36042267 -0.18306145 -0.60030514 -0.5562616
22 0.02724417 -0.09901013 -0.26885563 0.04607096 0.1704747 0.17901976 1.2873766 0.04565136 0.4882421 0.098848365 0.6305539 0.9560506 -0.19570972 -0.0743673 -0.43052688 0.10563224
3 -0.4038496 0.041217417 -0.056527972 0.62674767 0.28641623 0.34937125 1.022105 0.030575199 -0.093171924 0.089616954 -0.33036697 -0.37032112 0.034426138 -0.10932345 -0.47665843 -0.72041357
24 -0.19566198 -0.3182615 -0.64772695 0.73836815 -0.01256609 0.2503866 0.6129627 0.27332482 0.47432068 -0.28925288 0.36597604 0.38321346 -0.3436965 -0.08177481 -0.5577155 -0.5175961
7 0.008665976 -0.37654355 0.4127077 0.837454 0.050287068 0.06456999 1.0690597 -0.10297147 -0.17817199 -0.1539153 0.19291094 -0.8265568 0.26225513 -0.29483616 -0.60569423 0.4967766
9 -0.05671493 -0.33965188 0.42666456 0.83578765 -0.055199318 0.14255317 1.0679002 -0.07489154 -0.18875843 -0.083962105 0.100501515 -0.75250083 0.12795438 -0.24601574 -0.508029 0.36069238
21 0.10726026 -0.08878283 -0.2634661 0.077257626 0.17876968 0.22977203 1.350671 0.012948189 0.5942664 0.08895126 0.62620085 0.98325366 -0.17438927 -0.11835644 -0.42378634 0.09253017
26 -0.33629587 -0.353601 -0.7112088 0.69634956 -0.03241267 0.34881163 0.5710591 0.22769557 0.45492584 -0.25771335 0.33108306 0.42924285 -0.2836361 -0.17724101 -0.56531036 -0.52943605
13 -0.059707005 -0.4157819 0.3739799 0.4997449 -0.31517312 0.097495176 0.91239554 0.11155077 -0.12775908 -0.024563663 0.15939663 0.19972496 -0.19350466 0.014603901 -0.25142634 -0.09878833
16 -0.03806227 -0.43064997 0.47719496 0.56967646 -0.43491015 -0.06897054 0.88121957 0.1860029 -0.14078367 -0.096452385 0.2817559 0.28887087 -0.1834546 -0.027430847 -0.2400706 -0.18106863
4 -0.4811701 0.036654968 -0.0012417063 0.5852724 0.23294088 0.35149622 1.0319084 0.026007213 -0.20379329 0.19680858 -0.38451847 -0.47902295 0.012726622 -0.056612246 -0.45377424 -0.69634736
15 -0.07742896 -0.2970326 0.29569873 0.45743933 -0.29338816 -0.01436298 0.88451904 0.21485034 -0.076011345 -0.06684623 0.19753152 0.27875596 -0.23609105 -0.0061121727 -0.21315329 -0.1520926
12 -0.0669985 -0.41488358 0.32155067 0.53369015 -0.3161328 0.06939207 0.8344501 0.15157743 -0.07616357 -0.14080177 0.110754125 0.16651954 -0.11728264 -0.08067371 -0.26888296 -0.14923777
