28 16
11 -0.0034399775 -0.022520067 0.066120595 0.28120226 -0.04601892 -0.017185435 0.4309321 0.10196313 -0.05226834 -0.08034795 0.08805808 0.030850276 -0.030869015 0.01041228 -0.2265799 -0.05275493
27 0.0077541643 -0.017587775 -0.019178696 0.16772205 0.06464431 0.06652747 0.43841234 0.054499596 0.017526185 -0.07039063 0.04683612 0.07966669 -0.04488111 -0.061077837 -0.25329256 -0.047751904
6 0.07103353 -0.07754652 0.017935334 0.24196449 0.07336141 -0.005803757 0.43969882 0.00908846 -0.08503928 -0.025061103 -0.018906977 0.00746971 -0.013009408 -0.03670573 -0.26699054 0.012616655
0 0.030673679 0.034087937 -0.004922344 0.3378021 -0.021501467 0.04572181 0.5900175 0.02618002 0.0002722997 -0.11573617 0.04091092 0.121908665 -0.011881157 -0.040659472 -0.2869482 -0.10555896
18 -0.018764526 0.0005279535 0.028138634 0.25716078 -0.0065921955 0.044159707 0.416986 0.102727115 -0.039421804 -0.10717492 0.0809514 0.04801454 0.044072356 -0.035872415 -0.20788452 -0.106618986
17 -0.020395417 -0.0019390726 0.061813362 0.25061014 -0.01446495 0.045648362 0.39996764 0.02085077 -0.04830553 0.0013183261 0.061464146 0.04133334 0.02248458 -0.029426979 -0.13061848 -0.013522264
5 -0.0575982 -0.06391143 0.032699898 0.23923348 -0.04169084 0.049270567 0.3797293 0.072050005 0.025469495 -0.08386157 0.042874362 0.07044692 -0.024407603 -0.066255115 -0.17606637 -0.094834134
25 -0.042875003 0.034943927 0.030542962 0.12044066 0.053029656 0.06130751 0.11143044 0.015192941 0.004108811 -0.04102526 0.072368845 -0.045930494 0.04173953 0.0068587726 -0.10259045 0.014136265
24 -0.0148565695 0.034857377 0.07594909 0.057816975 0.002725316 -0.02343275 0.17106687 0.036221772 0.030907063 0.022540648 0.08186878 0.07335671 0.049581803 -0.055403702 -0.13192834 -0.017883305
3 -0.01877017 0.04319455 0.04914243 0.057704654 0.008794944 0.018225266 0.16489027 -0.048364542 -0.0068823025 0.004577943 0.0073856087 0.06444913 0.0557315 0.03031134 -0.061961226 0.037327085
14 -0.059506837 0.01267539 -0.016700823 0.061573613 0.028228763 0.04677881 0.21568863 -0.014716399 0.03565406 0.020897573 0.00050978735 -0.033255666 0.033152044 0.02706941 -0.08848266 -0.06226202
1 -0.042704776 -0.025063714 0.050234552 0.090938255 -0.059218884 0.036441926 0.22824448 -0.022224115 -0.0020975969 -0.041501075 0.0233384 -0.04099319 0.01634648 -0.04638823 -0.08808379 -0.028884089
26 0.0075350436 -0.056008343 -0.0057950914 0.08569637 0.042919163 -0.0022405437 0.061791487 0.046316892 -0.0062229545 0.005240096 -0.022126976 0.0055365125 0.051351544 0.033649717 -0.090023115 0.0041528195
10 -0.049003866 0.022214426 -0.015069323 0.111609764 0.07774661 0.02380626 0.27377295 -0.01601421 0.013657067 0.039163753 -0.03531132 -0.01845695 -0.05380734 -0.047532875 -0.1394427 -0.083649985
9 0.054244306 -0.04379686 0.066539146 0.14195399 -0.029196102 0.03881262 0.2218025 -0.029145965 -0.059898857 -0.03381697 -0.03949024 0.0005417045 -0.009159136 0.007288276 -0.08390999 -0.02751541
22 -0.0446528 0.004067027 0.008260857 0.13956599 0.031248545 0.044846456 0.17807245 0.0064394404 -0.04296133 -0.0251206 0.0346107 0.0030760798 -0.04312009 -0.061989833 -0.1422886 -0.06066772
20 -0.02147771 -0.037631165 -0.020165214 0.12510942 0.03554274 -0.00051893096 0.31118548 0.04252507 -0.06668339 0.028948616 0.08129284 0.063451916 -0.047041282 0.014860723 -0.10471366 -0.0072718943
7 0.029475152 -0.0071449303 0.0029158648 0.21387428 0.074067675 0.04337878 0.26132098 0.028501816 -0.010765597 -0.08776604 -0.024803882 0.022752546 0.0017969635 -0.058224 -0.17024656 -0.07742514
8 0.0580626 -0.012003575 -0.014928043 0.14146475 0.06659294 -0.0119961 0.23125039 0.049393304 0.0264704 -0.019182947 0.06398197 -0.030671446 -0.05753324 0.042914093 -0.08944893 -0.034383178
16 0.021699185 -0.035900705 0.03465338 0.16698647 0.040172588 -0.028845139 0.274066 0.05871802 0.009718188 -0.07040798 0.081089236 0.012364662 0.05274951 -0.048971377 -0.15697196 0.0151720755
4 0.016308298 -0.028157445 0.080021545 0.20392253 -0.057513133 0.03176373 0.29010755 0.044279344 -0.001510564 -0.031220047 0.02604579 -0.00047265762 -0.050058167 -0.034692507 -0.09835484 0.02882508
2 0.057513177 -0.048488405 -0.037843596 0.19618915 0.019574128 0.0497392 0.27520105 0.0027104556 0.035415865 -0.014567514 0.04589727 0.0107753435 -0.020139962 -0.037008736 -0.087630846 -0.020189177
23 -0.06610541 -0.06969187 -0.023975167 0.08267179 0.02206774 0.072139755 0.17784499 -0.0057672397 -0.008809138 0.014221 0.07088833 0.007867386 0.028909996 -0.048393533 -0.08334668 0.037161667
12 -0.019697305 -0.07047901 0.053221036 0.08561513 -0.006409546 0.07746054 0.1808483 -0.0042919875 -0.04022313 0.0134262005 -0.011900085 0.035405077 -0.035899248 0.021942997 -0.06633388 -0.008821583
21 -0.01963656 -0.027557954 0.073912 0.16923624 -0.007115777 -0.03566811 0.19447805 0.021369977 -0.023427602 -0.043443985 0.09325392 0.023863688 0.03205837 -0.068325184 -0.13351566 -0.0679038
19 -0.054510303 -0.0035164496 -0.021951875 0.14258376 0.026389485 0.058755666 0.28041622 0.05105872 -0.050042905 0.009572595 -0.0021763046 0.060301308 -0.05604078 -0.008145754 -0.16448982 -0.06852925
15 -0.022242514 0.028742142 0.048652187 0.04428448 0.003184741 -0.04441889 0.18100774 0.07513977 -0.024217272 -0.016501881 0.022357102 0.050678525 -0.053719018 -0.0056935498 -0.019816006 -0.0023737089
13 0.0015704315 -0.06499248 0.063892424 0.041352022 -0.011735437 0.033543028 0.13696249 0.027381042 0.0026538987 -0.05976246 -0.040508356 0.07340067 0.039159648 -0.055287454 -0.05185139 -0.013958279
