77 16
Valjean -0.0033514202 0.0014776886 0.031895936 0.056307957 -0.058143437 -0.044480056 0.040367946 0.056081176 -0.031346425 -0.02352108 0.046128154 -0.009584203 -0.02835384 0.040962815 -0.030376002 -0.01135011
Myriel 0.017978624 0.006199211 -0.051782593 -0.05905512 0.04569854 0.031689137 0.042235583 0.0047679096 0.039693058 -0.021283537 -0.005915016 0.036053583 -0.047010243 -0.024600655 -0.04694739 -0.005812764
Marius 0.059613243 -0.04574479 -0.014586061 -0.012110889 0.05048397 -0.0370681 0.0002822578 -0.029710844 -0.06002219 0.031295583 -0.054747418 -0.027448907 -0.0002193749 -0.0018511415 -0.04788275 0.060092136
Thenardier 0.031137854 0.057707146 -0.05098699 0.028098732 -0.025856733 0.005153343 0.053116366 -0.027888611 0.028234378 -0.04241851 -0.022178054 0.058740675 -0.009860337 0.0020085722 -0.025878936 -0.0480168
Cosette -0.009425059 0.015436217 -0.005550176 0.034585387 -0.017143607 0.014125407 0.034098715 0.0521622 -0.009085879 -0.057550892 0.027315944 0.003573656 0.04651192 -0.0050830245 -0.016490087 -0.054706305
Fantine -0.0053534806 0.017666012 0.033758923 0.044079095 -0.035644516 0.011617616 0.03805539 -0.029987827 -0.019420385 0.042485178 0.010196716 0.0011869818 0.021710232 0.0013611019 0.060117662 0.031628773
Enjolras -0.055733696 -0.04400976 0.0056340992 0.039953336 -0.053873047 0.022910863 0.032436773 0.035887107 0.04666823 -0.038547978 0.0069100857 0.037795514 -0.017750323 -0.038584515 -0.0025638938 -0.052305937
Gavroche -0.035000086 0.04440336 0.020953372 0.045160428 0.04250154 0.047067136 -0.023682222 -0.0035112947 0.014677346 -0.028243959 0.05242957 -0.06161353 0.042279005 0.018215105 -0.030830204 0.027488664
Courfeyrac -0.010872349 0.041946143 0.062280312 -0.02726528 -0.0037458688 -0.03559774 0.02406764 0.017416418 0.04306923 0.038131848 0.059615597 0.057958856 0.049362928 -0.043684408 -0.057224154 -0.0022234619
MmeMagloire -0.019374013 0.049339473 0.03711608 -0.009660393 0.0094435215 0.011187747 0.04885982 -0.059438676 -0.0012845695 0.021682471 -0.005868584 0.052386075 0.05631739 0.040853158 -0.004447639 0.048190027
Javert -0.0533396 0.020044416 -0.028987482 -0.031805977 0.022435114 0.033564612 0.048559457 -0.036040664 0.046458498 0.041409343 -0.023186252 -0.05466026 0.03398417 0.040685967 -0.0049221963 -0.041936606
Combeferre -0.04428704 -0.015606627 0.032145336 -0.022907734 -0.058562875 0.023917124 0.030527994 -0.040178522 0.007553488 -0.012967989 0.00015251338 -0.06177193 0.01682502 -0.029688165 0.0067977905 -0.009851411
MlleGillenormand 0.0137292 -0.049259856 -0.016982406 0.016644984 0.033416763 -0.014946967 -0.059438094 0.028161734 0.00059102476 0.019233242 -0.04257904 -0.008596659 0.04792863 0.045915052 -0.022958115 0.01651688
Gillenormand -0.05198206 0.03878428 -0.028983265 -0.019775674 0.05819598 0.005458653 0.046816885 -0.0379629 0.03225316 0.062017635 -0.052858695 -0.03209807 -0.04415524 -0.030391574 -0.02361603 -0.053351253
MlleBaptistine 0.049722537 -0.030274615 0.052647576 0.032891065 -0.040937662 0.024736688 0.034188434 -0.04641585 -0.04628575 -0.015470192 -0.053910792 -0.009884834 -0.0025214553 0.020623028 0.009011745 -0.005508885
Fauchelevent -0.034962863 0.010814786 -0.0056085736 0.04246056 0.02483493 0.028309196 0.008964404 -0.016874105 -0.02729258 -0.0064504743 0.008981422 -0.016537562 -0.04421115 -0.04878317 -0.057011172 -0.037094817
Bossuet -0.011546403 -0.027024195 -0.040379196 -0.023233265 0.026807234 -0.02336903 0.05236359 0.009587452 -0.045264497 0.058961242 0.04769507 0.034333006 -0.042805284 0.036391735 0.025056824 0.03240855
MmeThenardier 0.026599377 0.012123466 -0.019813523 0.052211523 0.060076118 0.023703769 -0.01773122 4.453957e-05 0.0076176077 -0.052864537 -0.051399663 -0.001443848 0.007733047 -0.035896137 -0.029532969 -0.045912966
Joly 0.05205384 0.0007581115 -0.028183743 0.03563565 0.05737509 -0.0256242 0.04977925 0.033596456 0.03674452 0.00320369 0.051331773 -0.043869004 -0.05151674 0.058120966 -0.0012353808 -0.012295485
Babet 0.028772682 -0.025595725 0.017144457 0.04337479 0.03790891 -0.046942472 0.05863969 0.029198796 0.024788246 -0.03902191 0.052874863 -0.013438538 0.055157423 -0.033512518 -0.050808877 0.042653486
Blacheville 0.010444954 -0.013740689 0.05946 0.059336588 -0.061087802 0.015657678 0.03847933 0.024202853 0.012642413 0.0026906282 0.004210189 -0.023878977 -0.044626564 -0.013055459 0.02452436 0.055116773
Tholomyes 0.057869688 -0.03734961 -0.058766693 0.061027348 0.021436155 0.032288224 0.03926465 -0.017526641 0.04576689 0.017689198 0.01794377 -0.014877319 -0.01955156 -0.014813393 0.026727721 0.00047536194
Feuilly -0.059901744 -0.06040965 -0.03842622 -0.00080356 0.01248385 0.0589498 0.034902185 -0.02681686 0.0017394722 0.031027243 0.048114434 -0.007151395 0.027021378 -0.03633988 -0.0050261915 0.05062531
Fameuil -0.014750406 -0.060396597 0.03612037 -0.02456139 -0.0076429546 0.062378228 -0.014102191 -0.029731661 -0.03330867 0.043630555 -0.035680458 0.013210386 -0.03284788 0.038254455 0.027233168 0.016289711
Favourite -0.009319276 -0.017162904 0.056205854 0.032598585 -0.0135157555 -0.05918944 -0.046412826 -0.0066483915 -0.0049684197 -0.016018182 0.060517 -0.0028657615 0.036711007 -0.046547428 -0.015662968 -0.034686655
Dahlia -0.044618845 0.007756442 -0.044854477 -0.014028862 0.023245648 0.036457017 0.007488638 0.013142064 -0.025689945 0.045158327 -0.03941901 0.02904509 -0.051374838 0.012727916 -0.031106576 -0.026548058
Bahorel -0.019431159 0.035345048 0.036239997 -0.031091556 0.004833311 -0.05309862 0.048811287 0.057858065 -0.017139554 0.005001396 0.004666567 0.034236774 -0.05378799 0.0036528409 0.04293388 0.013947457
Chenildieu 0.0070292205 -0.05826348 0.053014785 -0.039150804 -0.018702343 0.021836162 -0.00482893 0.008820564 0.011137441 -0.04268062 -0.06078008 0.056503654 0.038737833 -0.043205798 0.021271765 0.0012878925
Cochepaille 0.029710904 -0.04449965 0.025168464 0.027171463 0.062233552 -0.027960882 -0.008682907 -0.045733258 -0.06061144 -0.05675161 -0.0063922256 -0.04064557 0.030310795 -0.038525164 0.01574491 0.0046215057
Champmathieu -0.02120097 -0.0061201453 0.062369525 0.057161793 -0.027886435 0.05676891 -0.03526102 0.037068263 -0.019357622 0.021448448 0.018857658 0.04312788 -0.014836773 0.054843977 0.047433928 -0.059672788
Listolier -0.050051317 -0.047736853 0.018270358 -0.017467022 -0.04330951 -0.05080165 0.051932365 0.012440547 -0.058300108 -0.029954478 0.019604608 -0.02945754 0.033005267 -0.026459008 0.016511217 -0.050285548
Gueulemer 0.038811788 0.030118048 0.004919946 0.01883404 -0.054546773 0.013313502 -0.0054596514 -0.058244303 -0.058925897 -0.008816987 0.027702555 0.023150444 -0.04061684 -0.04295668 -0.031246334 -0.014292777
Claquesous -0.045314297 -0.060020745 -0.01714769 -0.05226776 -0.037742972 -0.035443306 -0.014650866 -0.01066874 -0.05598125 -0.0045949966 0.050953165 0.048065186 -0.045038223 -0.022917703 0.019490942 -0.059817016
Judge 0.009227738 0.040777907 0.03591512 -0.054769143 -0.028232157 -0.050876006 0.00028721988 0.0578977 0.03733316 0.031670675 0.031631634 -0.020268232 0.059701145 -0.045977652 -0.04543993 -0.014158681
Zephine -0.004866004 -0.020100653 -0.0037036687 0.046805143 -0.0043594986 -0.010155886 0.017152488 -0.05224438 0.049098775 0.053350642 -0.059900552 0.015289158 0.06190607 -0.04791127 -0.04354325 -0.04835324
Eponine 0.052474514 -0.0042583495 0.057152554 -0.050988883 0.023394272 0.016469017 0.00464195 0.014547974 -0.046681836 -0.058489844 0.014716104 0.038427845 0.049910545 0.035849333 -0.0048583597 0.05191353
Brevet -0.058351964 0.02128832 0.0016672015 0.02410777 0.046161145 -0.0420323 0.034903005 -0.05951391 -0.0050278753 -0.054304615 -0.031866714 0.058057666 -0.011614144 0.018215165 0.05669549 0.05586332
Bamatabois -0.051302716 -0.018826962 0.061791286 0.031902686 -0.009925544 -0.054325134 0.018509477 -0.04172437 0.0508267 -0.027858347 -0.00667724 0.00628978 -0.0011944622 0.007176101 0.03821163 -0.00012670457
Mabeuf -0.02028729 -0.009442061 0.03685811 0.009463131 -0.004526645 0.058332786 -0.030758023 -0.005240068 0.057346314 0.04218392 0.009392843 -0.055516005 0.0071796626 -0.014301598 0.058551475 0.0075620413
Simplice 0.009312898 0.015040055 -0.0114750415 -0.03124772 0.0014526844 -0.012588635 0.04125583 0.055875763 -0.0042172223 0.018606335 -0.03817284 0.010620773 -0.04328896 -0.054337665 -0.036876276 -0.05597797
Brujon 0.04548496 -0.036075205 0.05172719 -0.045272157 0.021385461 0.060468733 -0.048659056 -0.062156618 -0.02705717 -0.016769573 -0.0016955584 -0.055197194 -0.05385974 0.01750131 -0.05129005 -0.05668336
Child1 -0.014627919 -0.053948805 -0.04410407 -0.052507192 -0.0018833131 -0.028526872 0.041419834 0.009544745 -0.02088423 0.038181067 -0.03758304 -0.029101059 -0.04504694 -0.027103633 -0.011308312 0.04056026
Child2 -0.017314956 0.03074354 0.043152764 -0.04664816 0.028530315 0.038293615 -0.018465474 0.04140638 0.038286746 -0.04027179 -0.042278454 0.015868485 -0.010148868 -0.03790705 0.059370056 -0.032063425
MmeBurgon -0.040963113 -0.00074929 -0.016883925 0.002777502 -0.022109121 -0.0026208162 -0.0044288486 0.005142629 0.0512176 -0.03585443 -0.010372058 0.03482254 0.051050752 -0.027768955 0.05615896 0.051585406
Montparnasse -0.027720138 0.0018943995 0.026715562 -0.0245395 -0.03474979 -0.040702015 -0.004192114 -0.0018495172 0.027894273 -0.015462846 -0.0010788143 0.0153867155 0.030422494 -0.0001925528 -0.03962131 -0.057880044
Prouvaire 0.00016660988 0.04163684 0.009162635 -0.056040764 -0.049616277 0.04094939 -0.02366051 0.039093703 -0.04175645 0.052997887 -0.040727034 0.020550117 -0.0066061616 -0.042422056 -0.02054748 -0.0072588325
Grantaire -0.03419338 -0.0075709224 -0.047270715 0.016541615 0.056688428 -0.014857814 -0.006103188 0.021959752 0.054156795 -0.03701158 -0.04304737 -0.018331155 0.057173103 0.005414173 -0.054240003 -0.009043619
MotherInnocent 0.05924666 -0.047184303 -0.033488125 0.058228508 -0.056085795 0.023911923 0.0041590035 0.041629374 0.0519547 -0.017817408 -0.024951965 0.055611983 0.013060287 0.039055884 -0.05903572 0.059938267
Jondrette -0.0084269345 -0.03782572 0.018703341 -0.0028538257 0.029415578 -0.01426889 -0.025861517 0.014236867 0.05221489 -0.031222537 0.016679242 -0.049940974 -0.042333424 -0.0029229373 -0.054798305 0.017433986
Count 0.009991214 -0.014498085 0.031273693 0.06092991 0.052839175 -0.011751413 0.012863442 -0.025023058 -0.051508784 0.039237216 -0.012182385 -0.004163787 -0.011070833 -0.02834791 0.025385678 -0.026688635
Pontmercy -0.05986592 0.055894464 0.026031673 0.057717085 0.041521892 0.018279597 0.061275125 -0.027654007 -0.042520702 0.02642113 0.02330625 -0.035403818 0.060654745 -0.022239417 0.059683785 0.0052170306
Champtercier -0.039615363 -0.012356982 -0.04610659 -0.018622026 0.0065106004 0.05926679 0.05847405 -0.04122424 0.021719694 0.014222309 -0.015558451 -0.057682335 0.0064195395 -0.051035672 0.039501175 -0.036250502
Perpetue 0.034596488 0.061460763 -0.001000002 0.028303072 -0.011308759 0.046004757 0.0246256 -0.056314528 -0.014990658 0.022679806 -0.0006223023 -0.00750795 -0.0065964907 -0.010447517 0.0037809461 0.026031837
Anzelma -0.026579946 -0.023960143 -0.00033010542 0.0016834736 -0.0010550469 -0.029909417 0.026958764 -0.013574496 0.013147116 0.0041657686 0.03731048 -0.042764887 -0.042598188 -0.027976617 0.058973923 -0.009949267
LtGillenormand -0.058932766 -0.0034065098 -0.027805775 0.037500486 -0.059898034 0.017868757 -0.0578302 0.0078112483 0.037494987 0.046233416 -0.047634155 -0.037831396 -0.042740256 -0.049489632 -0.05936925 -0.013284355
Woman2 -0.0052245855 -0.045351267 0.04241897 0.006997615 0.03643042 0.009205416 0.004933536 -0.046050817 -0.013604119 0.027006745 -0.031783223 0.007067427 0.018021017 -0.009602264 0.062076837 0.052185208
MmePontmercy 0.015097916 0.044489026 0.036821485 -0.034878865 -0.032226518 -0.041677117 -0.04860522 0.05194205 -0.012389645 -0.04284352 -0.02596493 0.03215079 -0.017932102 -0.023435384 0.010133907 -0.017351836
Toussaint -0.009902254 0.006715566 -0.018612161 0.053245515 0.024443343 -0.062242895 0.039122492 -0.042214096 0.0048089474 0.027526468 -0.0318961 -0.013191685 0.050596744 -0.02652371 -0.04772663 0.057861954
Gribier -0.013471857 -0.029496461 0.0535675 0.02677086 0.02703023 0.058028206 -0.052831754 0.03284575 0.012745947 0.02617675 0.010611877 0.02790083 0.028039306 0.03815326 -0.020013109 -0.028598309
Napoleon -0.0026657283 0.015835837 -0.020394802 0.037860736 0.025963306 0.0485287 0.016057953 0.05072926 -0.008670062 0.05048704 0.023231342 -0.050295785 -0.024585098 -0.015449241 0.030581519 -0.005450994
MmeHucheloup -0.017693177 0.04896067 0.05826813 -0.010093302 -0.03224531 -0.029385999 -0.030287817 -0.06001766 0.0085751265 -0.026405722 0.015791923 0.03509052 -0.025411919 -0.059978634 0.00966686 -0.041875765
Magnon 0.01559484 -0.02362895 0.044240132 0.004001379 0.022255868 -0.017119586 -0.0106909275 0.047829956 0.008797988 -0.036565304 -0.048965603 0.007704288 0.040341437 0.034727186 -0.056106567 0.05370103
CountessDeLo 0.025293604 0.046685025 0.06091459 -0.045559883 -0.056499764 0.036475003 0.058695078 0.021918282 0.04430498 -0.00979957 0.04967186 -0.05930412 -0.05018437 -0.041502327 -0.025021598 0.031182602
Cravatte -0.02383475 -0.051999405 0.052573606 -0.02341877 0.053804353 -0.030598447 0.024491206 0.030762598 0.014953807 -0.017617524 0.017807022 -0.051601484 -0.017284632 -0.016194746 0.04530628 -0.021646276
Geborand -0.041248143 0.027127668 -0.0029655397 -0.022484735 0.04301545 0.024201944 -0.024376258 0.0048242956 0.057146892 0.048466593 0.039761692 0.029170632 0.014903054 -0.011510164 -0.03982058 -0.0018863231
Woman1 -0.009783685 -0.0035767853 -0.03914295 0.04646279 -0.041196838 -0.045245484 -0.017232165 -0.009471253 -0.047723234 0.004363999 -0.033288196 -0.007972151 -0.046031952 0.012253553 0.020457491 -0.00014461577
MotherPlutarch -0.034052238 -0.010788038 0.044280723 0.02335161 -0.055506557 -0.021334693 0.014713138 0.013362616 -0.059150055 0.028569788 -0.054106236 -0.046169177 0.02176945 -0.021693498 0.022277936 0.055588067
MlleVaubois -0.022339523 0.058252648 0.010693982 0.06154859 0.03565651 -0.05718428 -0.020798326 0.040813595 0.03501737 0.054409474 0.04328814 0.05024305 -0.061393812 0.026867658 -0.03143798 0.021952406
Isabeau 0.0378543 0.027450815 0.046952248 0.009360716 -0.007905886 0.036052495 -0.035247296 0.0002411902 0.059103668 -0.034257814 0.023839235 -0.050706387 0.061064333 0.051031962 0.008006066 0.03185986
Scaufflaire 0.008800805 -0.04034476 -0.008925319 0.040307283 -0.02885817 -0.024956658 0.030777529 0.016956866 -0.011549845 -0.017980903 0.037567064 -0.035729617 -0.0202294 -0.040548906 -0.026466459 -0.053631216
OldMan -0.02793619 -0.053195193 0.00877361 -0.053863734 -0.0619791 -0.05126016 -0.042329162 0.04175365 0.023653477 0.0022260398 -0.018487394 -0.04642701 0.0033338666 0.0031243265 0.0012226105 0.005328715
Marguerite 0.004914567 -0.0004260093 -0.05004409 -0.036689207 -0.052393198 -0.008200273 0.011378974 0.04635705 -0.012271419 -0.014533073 0.059294716 0.0004981458 -0.015028268 0.053780288 0.016793773 -0.033399835
MmeDeR 0.041175663 0.028188452 -0.04409042 -0.0020198375 0.0052155405 0.035920978 -0.010735348 -0.017540812 0.010927692 0.0052948147 0.00745517 -0.016464263 -0.037411153 0.04576865 0.047421098 0.051852226
BaronessT -0.053742796 0.01647766 -0.022249773 0.060127527 0.018148541 0.029006958 0.014910087 0.04130298 -0.03589557 0.04934007 -0.015068263 -0.028511792 -0.01288119 0.060834736 -0.042853698 -0.01369825
Boulatruelle 0.043756247 -0.00034843385 -0.03934355 -0.039959535 0.055877462 0.04018484 0.029834956 -0.020387799 -0.05792263 0.02366805 0.044753432 -0.035205558 -0.049156338 -0.018579632 -0.030824363 -0.014469445
Labarre -0.0121513605 -0.032922015 0.05904445 -0.058117077 0.028149664 0.033776104 -0.008807898 0.056294322 0.061783493 -0.034219027 -0.03763126 -0.042168587 -0.04934302 -0.01904948 -0.03496267 -0.052154258
Gervais 0.004893139 0.018716604 0.04009214 -0.016430944 -0.027834237 0.007809818 0.0024466366 0.05073124 0.0011425018 0.045197412 -0.05165322 0.052709594 -0.011805683 0.054382205 -0.04760523 0.011227414
