77 16
Valjean -0.33123457 -0.10134624 0.47933307 0.36277613 -0.1082998 0.019804925 0.68899506 0.011298831 0.0156421 0.0320835 0.02837573 -0.16540593 0.020721084 -0.38127986 -0.37374085 -0.1401054
Marius -0.32329825 -0.1217851 0.40114847 0.23086736 -0.009114927 0.10641325 0.6781546 -0.048035253 0.09458982 0.042857256 -0.039930154 -0.10975875 0.01566669 -0.47054735 -0.38936204 -0.12955303
Myriel -0.3108253 -0.19281724 0.5910186 0.29370338 0.07885756 -0.0038091452 0.74471897 -0.15110256 -0.033337045 0.20128149 -0.16946931 -0.23317294 0.09967551 -0.47845453 -0.43550223 0.07538355
Cosette -0.2647072 -0.031278316 0.32682046 0.28762448 -0.063684955 0.06437573 0.61380816 -0.06310047 0.075101554 0.011033047 -0.051486533 -0.06980903 0.030685438 -0.37043732 -0.32955128 -0.15230213
Thenardier -0.33459845 -0.090016894 0.44982892 0.33987036 -0.07279852 0.105113104 0.65803343 0.014705252 0.038330283 -0.012866467 0.022095358 -0.17684811 0.11236811 -0.42027313 -0.35406637 -0.17660715
Enjolras -0.32160622 -0.13798761 0.47444844 0.31510258 -0.07569869 0.08164263 0.62153786 -0.08624192 0.054318607 0.087458365 -0.030800527 -0.15070249 0.123319775 -0.41213903 -0.23077658 -0.05526748
Courfeyrac -0.37470338 -0.20098817 0.45364165 0.32029694 -0.08850044 0.08896411 0.616111 -0.027846117 0.12164114 0.00366966 -0.03402696 -0.123839915 0.091038845 -0.45238724 -0.28951815 -0.13146123
Javert -0.36578095 -0.0713902 0.49525604 0.33205125 -0.0057881568 0.11580872 0.59882295 -0.03870984 0.059800856 0.042677213 0.035765406 -0.22129604 0.10957953 -0.40496242 -0.3469313 -0.07292323
Fantine -0.3933426 -0.11290049 0.6074314 0.2751174 -0.049476612 0.021990476 0.7113536 -0.029777853 0.102884576 0.142429 0.026378036 -0.09009411 0.119617485 -0.5287569 -0.39229935 -0.113266334
MmeMagloire -0.33559242 -0.07436966 0.53931797 0.23606312 0.022448303 0.041958842 0.6624215 -0.15020879 0.02528817 0.16215228 -0.09983879 -0.10499757 0.13819638 -0.35938743 -0.32154825 0.04517032
Bossuet -0.3612276 -0.10953031 0.38769215 0.2110863 -0.018534116 0.098316975 0.60595423 -0.08636217 0.10778154 0.10091861 -0.059804976 -0.19691986 0.112770244 -0.35276982 -0.2797372 -0.12787245
Gavroche -0.41952848 -0.16328561 0.515661 0.28120488 -0.09381722 0.08576011 0.6884584 -0.1108456 0.07961902 0.042713586 -0.036056567 -0.23980734 0.119843684 -0.4870243 -0.28765163 -0.091708854
Combeferre -0.3487569 -0.21405004 0.46318787 0.31057334 -0.008336916 0.07531718 0.59377563 -0.038894232 0.08146601 0.069945455 -0.087503314 -0.18177181 0.15646338 -0.42078266 -0.34527972 -0.08687984
MlleBaptistine -0.34848708 -0.079079725 0.42337337 0.21602412 0.051682193 0.049654763 0.613417 -0.117187716 0.061394993 0.16351353 -0.12000789 -0.1812911 0.027813941 -0.4110236 -0.30866417 -0.08724244
MmeThenardier -0.27284914 -0.14476356 0.51034695 0.31227642 -0.09886194 0.11372601 0.63271505 -0.09264494 -0.013503464 0.038801465 -0.08286264 -0.17452087 0.06009487 -0.38542396 -0.3243151 -0.13532273
Gillenormand -0.3787272 -0.10637393 0.42822787 0.33399156 -0.008614017 0.1159314 0.6670842 -0.07606242 -0.0049174395 0.071219884 -0.015608799 -0.15122816 -0.0217635 -0.4948486 -0.4062559 -0.16498268
MlleGillenormand -0.36005157 -0.13973336 0.4134451 0.2693112 -0.018538976 0.06127857 0.7144551 -0.04276155 -0.013932928 0.14027688 0.020525482 -0.10007167 -0.0068702837 -0.41163 -0.3332502 -0.091205
Bahorel -0.28706673 -0.12707531 0.4117159 0.31315172 0.026940007 0.08287261 0.5467478 -0.057009295 0.0714255 0.0014184912 -0.0962422 -0.14990537 0.09667617 -0.43252861 -0.31588876 -0.12288174
Babet -0.30783886 -0.13547058 0.46292064 0.3414133 0.013578553 0.06957145 0.7170524 -0.023112468 0.092293054 0.056697447 0.032499537 -0.23147942 0.024895191 -0.40774196 -0.3454863 -0.1268523
Joly -0.2813482 -0.17006025 0.4399749 0.3043634 0.0018836468 0.020845223 0.6308014 -0.024389025 0.09427528 0.013852332 0.012261944 -0.15877151 0.14329724 -0.43544364 -0.33647576 -0.034020696
Fauchelevent -0.30673146 -0.12552597 0.53863186 0.37418294 -0.11116933 0.1023914 0.6736499 -0.050289534 0.05807028 0.10087587 -0.03648117 -0.19507234 0.0036509736 -0.4492109 -0.27888998 -0.008981694
Tholomyes -0.3305073 -0.21097443 0.5082698 0.36128545 -0.03225587 0.09820255 0.7165373 -0.06758768 0.099876635 0.13624811 -0.020358227 -0.13495916 0.045830917 -0.503642 -0.28852412 -0.10624426
Gueulemer -0.39419895 -0.1966849 0.4174381 0.28051007 -0.030257683 0.15279518 0.6543089 -0.07905413 0.05740038 0.077553056 0.027786028 -0.18055688 0.094396286 -0.47700498 -0.32268652 -0.050317816
Fameuil -0.41468048 -0.24086505 0.6144938 0.28508234 -0.06112796 0.12737596 0.69479185 -0.08114583 0.025122732 0.16085275 -0.07520179 -0.117591955 0.03699692 -0.46938244 -0.30605206 -0.08723075
Blacheville -0.35065514 -0.16731654 0.54800415 0.28892055 -0.05999956 -0.0027414109 0.55354613 -0.048449297 0.0407734 0.08774552 0.021404559 -0.12030745 0.09536098 -0.47430325 -0.30083525 -0.11990154
Favourite -0.46051434 -0.17476638 0.5512187 0.2995749 -0.04164466 0.109764 0.7239253 -0.03457471 0.028001584 0.16870257 -0.08130713 -0.09531182 0.015448505 -0.5002227 -0.36778527 -0.14395931
Dahlia -0.45134926 -0.1565389 0.6609896 0.2967576 -0.06162721 0.022210363 0.7992046 0.012656726 0.038959708 0.13439542 -0.036684405 -0.09509121 0.015339819 -0.5322827 -0.30164197 -0.102518804
Listolier -0.32678354 -0.19782948 0.52300406 0.21733011 -0.06596101 0.07924598 0.580433 -0.02953192 0.056790482 0.048422113 -0.08789912 -0.0671383 0.10162224 -0.46265593 -0.26450953 -0.09145324
Feuilly -0.3160739 -0.20220162 0.49917406 0.31309754 0.03069522 0.038424052 0.61653864 -0.11185527 0.014211304 0.00016249687 -0.05327673 -0.20794289 0.13570198 -0.48126605 -0.29326934 -0.079279244
Zephine -0.42549685 -0.17708878 0.64933425 0.3749998 -0.08616935 0.121489964 0.6811129 -0.013392502 0.03662373 0.14106342 -0.015532966 -0.09150659 0.0531457 -0.4503254 -0.2869951 -0.1647101
Champmathieu -0.49318272 -0.22178839 0.6194477 0.31576824 -0.10961942 -0.015138568 0.8330332 -0.07689345 0.009293596 0.06753589 -0.018003035 -0.21323977 0.15699723 -0.58477014 -0.358677 -0.1831227
Claquesous -0.30090603 -0.098390415 0.4779581 0.3060751 -0.10021233 0.09973126 0.6213794 -0.112993255 -0.008467192 0.049874414 0.009917721 -0.14267339 0.028527677 -0.48422927 -0.357019 -0.11925583
Judge -0.4504806 -0.23354834 0.54612607 0.26154113 -0.09593298 0.014375174 0.70958877 -0.089733355 0.0009104061 0.09424668 0.00547113 -0.1277994 0.0632725 -0.54150826 -0.3352712 -0.17791948
Chenildieu -0.3989278 -0.12199031 0.59442997 0.2598628 -0.08650561 -0.0016761661 0.7250763 -0.021619681 0.101898365 0.125399 -0.007988546 -0.19374396 0.167405 -0.56273365 -0.39699662 -0.13104509
Brevet -0.38287827 -0.16058405 0.5078833 0.34317866 -0.060749765 0.03415316 0.69006413 -0.12574418 0.107232906 0.13677216 -0.094177514 -0.14184593 0.15927902 -0.52884156 -0.37754333 -0.16706519
Mabeuf -0.3191308 -0.1716274 0.57310957 0.23365493 -0.014916776 0.10521021 0.69388974 -0.061522268 0.013859405 0.008702843 -0.031930014 -0.14297925 0.15345241 -0.45106605 -0.32860586 -0.038945828
Cochepaille -0.44493708 -0.12487047 0.51772106 0.32400364 -0.011196083 0.0006907053 0.7202193 -0.12959556 0.05719547 0.026216932 -0.062656164 -0.1066669 0.08881984 -0.4703563 -0.2736887 -0.068218075
MmeBurgon -0.50023097 -0.15379885 0.6341966 0.38052332 -0.043571033 -0.014201919 0.7529917 -0.14481068 0.11946858 0.04274423 -0.04765275 -0.20019314 0.11769695 -0.49514946 -0.2580699 -0.106260926
Bamatabois -0.43109402 -0.178863 0.5887819 0.31782562 -0.06792185 0.1033055 0.68097293 -0.07880656 0.118128486 0.13305192 -0.022798616 -0.22617467 0.11029178 -0.53077745 -0.28365502 -0.12279654
Simplice -0.3592703 -0.12592323 0.48831728 0.25110498 -0.03141011 0.042557802 0.71104765 0.0031993254 0.055755083 0.113683335 -0.07317763 -0.15583034 0.029211301 -0.5257266 -0.36312497 -0.15277708
Eponine -0.37153405 -0.19609463 0.6342308 0.3029382 -0.04679203 0.17436166 0.7126986 -0.13053775 0.03648327 0.0632608 -0.0474772 -0.2664855 0.032721277 -0.5237275 -0.47414443 -0.19850275
Child2 -0.4874442 -0.26477456 0.5119052 0.25846055 -0.07879031 0.030839501 0.85487324 -0.058462247 0.059483096 0.12895264 -0.116114244 -0.2158594 0.061104376 -0.6138204 -0.3682435 -0.0026903187
Brujon -0.3464466 -0.104600444 0.49854672 0.2275604 -0.0152195785 0.124123886 0.5895642 -0.011923325 0.090047985 0.013683542 -0.06748339 -0.15273833 0.061221924 -0.4698754 -0.2552398 -0.12938552
Child1 -0.515054 -0.20936877 0.5386047 0.3169216 -0.0964471 0.05679914 0.80505663 -0.06467567 0.13874775 0.048336793 -0.08203741 -0.15406877 0.16541909 -0.61544544 -0.30416757 0.0006654894
Pontmercy -0.51782894 -0.14947818 0.68851835 0.31303114 -0.15038185 0.046467714 0.83487844 -0.055827074 0.09717539 0.10841143 -0.06505898 -0.17533761 0.14847925 -0.6193438 -0.5297735 -0.24827428
MmePontmercy -0.4050667 -0.08709817 0.56738603 0.22536737 -0.13805169 0.11586873 0.686207 -0.007154469 0.00949681 0.15676399 -0.0928862 -0.14124653 0.08461934 -0.56237227 -0.42497224 -0.1584178
Montparnasse -0.35791412 -0.13312449 0.39276966 0.28296039 0.01892563 0.06036456 0.5843344 -0.024290508 0.10817859 0.020732602 -0.068059534 -0.17971341 0.12544042 -0.41089025 -0.35536528 -0.104612924
Prouvaire -0.24648207 -0.18582761 0.38523716 0.31451505 -0.092556596 0.084604114 0.55940896 -0.011898572 0.11451883 0.032407306 -0.061365854 -0.08827558 0.09661835 -0.35359764 -0.3324723 -0.020616887
Grantaire -0.30392656 -0.16389859 0.4289256 0.24713328 -0.0030498272 0.04692941 0.51456934 -0.036744747 0.10969164 0.022698147 -0.019596793 -0.1929676 0.036052093 -0.3806207 -0.32958272 -0.06002799
MotherInnocent -0.24322768 -0.11067456 0.40202254 0.28583196 0.01728765 0.04317543 0.49228448 -0.07117606 -0.015979787 0.1091961 -0.04013524 -0.12425323 0.037714854 -0.36191717 -0.20826459 -0.090353504
Jondrette -0.47551653 -0.064928636 0.56212 0.38373575 0.006767846 0.06397829 0.7533534 -0.11062501 0.012925635 0.09929104 -0.011693934 -0.2273185 0.16498612 -0.4971535 -0.23593031 -0.09745508
MotherPlutarch -0.40679386 -0.17725237 0.46366233 0.25832975 -0.028087435 0.15668708 0.75078124 -0.12092469 0.076084584 0.08134741 -0.060623713 -0.24138477 0.11152063 -0.53706545 -0.2821659 -0.13422926
Gribier -0.30612123 -0.057938192 0.51641065 0.37495694 -0.06432742 0.14190117 0.7028985 -0.14062187 0.03504142 0.1272429 -0.039630428 -0.19382106 0.046881635 -0.4777246 -0.3163433 -0.040336967
Perpetue -0.4059506 -0.16996875 0.5285632 0.30105326 -0.047115307 0.025867593 0.7303006 -0.07340446 0.07168585 0.10316645 0.0076821353 -0.2145018 0.028138949 -0.5233048 -0.28475842 -0.12041289
Anzelma -0.38420722 -0.1337787 0.42693123 0.30604768 -0.106951684 0.09761171 0.52466464 -0.051817533 0.085570835 0.11391396 -0.085597366 -0.19565247 0.022571877 -0.46717897 -0.37172538 -0.11770054
Count -0.36428207 -0.19383886 0.575086 0.2944216 0.020237332 0.06201761 0.6783773 -0.13225466 0.03496282 0.14280233 -0.096693136 -0.15545753 0.11032538 -0.47382358 -0.2704521 -0.0015218346
LtGillenormand -0.24460211 -0.055768132 0.38917267 0.17417327 -0.06433975 0.005274328 0.4246402 0.008550344 0.021065364 0.016262347 -0.053055495 -0.07684857 0.029033184 -0.35667145 -0.22709845 -0.09268501
Toussaint -0.23953247 -0.08326403 0.29079404 0.23631951 -0.0063616224 -0.01916049 0.4583779 -0.08215233 0.04151843 0.08212613 -0.059929907 -0.11523849 0.09861943 -0.32075265 -0.26026833 -0.006126971
Magnon -0.3092824 -0.13776867 0.4586992 0.26966298 -0.01507079 0.11679968 0.48412523 -0.010504384 0.057044707 0.091333866 -0.017017093 -0.099554226 0.09157281 -0.32956085 -0.2916394 -0.123750225
Woman2 -0.23815876 -0.07075036 0.30173978 0.23896296 -0.00096717075 0.09170724 0.4628928 0.0114428755 0.026100898 0.10685965 -0.004171905 -0.15321307 0.016804243 -0.31657508 -0.19692726 -0.067170225
MmeHucheloup -0.2637067 -0.05953223 0.40338302 0.19779477 -0.063989915 0.021488842 0.42224222 -0.1037887 0.0571309 0.02234885 -0.013877304 -0.07849386 0.040941376 -0.3771609 -0.2165163 -0.10821855
Napoleon -0.23934762 -0.13045727 0.43203175 0.20791738 0.011994879 0.01542047 0.47041208 -0.0069049215 0.039937768 0.050127722 -0.10043041 -0.11203246 0.10588419 -0.2891269 -0.3005036 0.023077264
Woman1 -0.17162645 -0.019806638 0.3351943 0.12013167 -0.07565486 0.06896754 0.42262942 -0.007852986 0.07579942 0.03514858 0.029778933 -0.1506088 -0.0045727533 -0.28791586 -0.20647754 -0.016507704
OldMan -0.27864552 -0.15562364 0.43069988 0.1777176 0.04093846 0.0037048592 0.49846253 -0.03085181 0.049786996 0.066212796 -0.029659815 -0.17169854 0.049470045 -0.3392838 -0.18990137 -0.05293449
Champtercier -0.3517961 -0.09850398 0.4495 0.22324574 0.025871497 0.07213609 0.55291533 -0.06113754 0.10069801 0.14541112 -0.014544543 -0.117157325 0.09046677 -0.40529174 -0.3306667 -0.052504525
Marguerite -0.29449832 -0.11946141 0.3666336 0.27605906 -0.07406235 0.0065282215 0.49723065 -0.053726893 -0.0050956085 0.077630594 -0.05764785 -0.12576799 0.012256275 -0.3506513 -0.22721891 -0.078214295
Cravatte -0.27587783 -0.10744128 0.4064044 0.21189402 -0.060485747 0.008736271 0.46731812 -0.04336408 -0.026124239 0.1151681 -0.10655783 -0.16268073 0.08151521 -0.32721066 -0.20504119 0.031924363
CountessDeLo -0.3088831 -0.04603683 0.41365284 0.28694123 0.012658129 -0.01602527 0.49859306 -0.016897615 0.07197583 0.13617149 -0.0025105653 -0.07747836 0.00054169947 -0.33408386 -0.2938667 -0.03154706
Geborand -0.31441766 -0.11325773 0.5780067 0.28709808 -0.020074973 0.08888107 0.62737 -0.08332336 0.10660778 0.086626194 -0.047484733 -0.22533353 0.15121894 -0.3969248 -0.32589674 -0.015041509
MlleVaubois -0.2629966 -0.1446519 0.36687574 0.26305234 -0.060913056 0.034576584 0.5334819 -0.025045179 0.014873561 0.048045017 0.013046349 -0.14092173 0.020676965 -0.3899275 -0.2849714 -0.13843219
Boulatruelle -0.220689 -0.12914464 0.27976745 0.103570454 -0.08685982 -0.010793569 0.31059486 0.008748988 0.04985817 0.04488777 -0.03996548 -0.13676894 0.044544317 -0.24241035 -0.17658485 -0.051608816
BaronessT -0.23090968 -0.09040441 0.27116683 0.15340564 -0.07900603 0.03749314 0.44004077 0.0050218347 0.023735536 0.040893905 0.03659937 -0.10118328 0.03378117 -0.24906845 -0.19974832 -0.10153813
Isabeau -0.09489376 -0.02710619 0.14916335 0.111120395 -0.010121667 0.05990835 0.23850216 -0.040457275 0.032762915 0.03994773 -0.010827536 -0.076067686 -0.004693747 -0.12958366 -0.078456454 0.018127685
Scaufflaire -0.20065987 -0.038319506 0.18102026 0.18321177 0.0028904956 0.056142982 0.28448966 0.01895374 -0.012051668 0.08333238 -0.033779904 -0.095619574 0.016132873 -0.12606831 -0.1810585 -0.050823137
Labarre -0.034997586 -0.028946007 0.06866345 0.02555424 0.044070132 0.05576141 0.17351691 -0.031567745 -0.046392146 0.039335787 0.036546625 -0.07033552 -0.03277809 -0.117169395 -0.10346981 -0.039861828
MmeDeR -0.20067729 -0.10974835 0.31465855 0.092189714 0.0050764214 0.06940113 0.3322316 0.02422554 0.09252942 0.007648903 -0.059221152 -0.1314536 -0.0050032707 -0.2603455 -0.2062624 -0.10218331
Gervais -0.12282901 -0.031717926 0.2161525 0.08394169 -0.044272542 0.031069027 0.23880622 0.03030662 0.02131043 0.078107975 -0.065147385 -0.0014715032 0.012634817 -0.108482 -0.16210361 -0.022345202
