8 16
6 -0.0033514202 0.0014776886 0.031895936 0.056307957 -0.058143437 -0.044480056 0.040367946 0.056081176 -0.031346425 -0.02352108 0.046128154 -0.009584203 -0.02835384 0.040962815 -0.030376002 -0.01135011
1 0.017978624 0.006199211 -0.051782593 -0.05905512 0.04569854 0.031689137 0.042235583 0.0047679096 0.039693058 -0.021283537 -0.005915016 0.036053583 -0.047010243 -0.024600655 -0.04694739 -0.005812764
2 0.059613243 -0.04574479 -0.014586061 -0.012110889 0.05048397 -0.0370681 0.0002822578 -0.029710844 -0.06002219 0.031295583 -0.054747418 -0.027448907 -0.0002193749 -0.0018511415 -0.04788275 0.060092136
5 0.031137854 0.057707146 -0.05098699 0.028098732 -0.025856733 0.005153343 0.053116366 -0.027888611 0.028234378 -0.04241851 -0.022178054 0.058740675 -0.009860337 0.0020085722 -0.025878936 -0.0480168
3 -0.009425059 0.015436217 -0.005550176 0.034585387 -0.017143607 0.014125407 0.034098715 0.0521622 -0.009085879 -0.057550892 0.027315944 0.003573656 0.04651192 -0.0050830245 -0.016490087 -0.054706305
4 -0.0053534806 0.017666012 0.033758923 0.044079095 -0.035644516 0.011617616 0.03805539 -0.029987827 -0.019420385 0.042485178 0.010196716 0.0011869818 0.021710232 0.0013611019 0.060117662 0.031628773
10 -0.055733696 -0.04400976 0.0056340992 0.039953336 -0.053873047 0.022910863 0.032436773 0.035887107 0.04666823 -0.038547978 0.0069100857 0.037795514 -0.017750323 -0.038584515 -0.0025638938 -0.052305937
7 -0.035000086 0.04440336 0.020953372 0.045160428 0.04250154 0.047067136 -0.023682222 -0.0035112947 0.014677346 -0.028243959 0.05242957 -0.06161353 0.042279005 0.018215105 -0.030830204 0.027488664
