77 16
Valjean -0.44767267 0.0037731614 0.54560745 0.068935975 -0.37925798 0.095763944 0.87324744 -0.26574272 -0.26245958 0.06533581 -0.19866154 0.041427664 -0.135425 -0.150486 0.12782617 -0.27357852
Marius -0.13582422 -0.23654994 0.37117213 0.2851741 0.026815929 0.38804123 0.8147221 -0.16898946 -0.4728019 -0.20811246 -0.14910235 0.1785307 -0.0014754204 -0.12212218 -0.54066133 -0.56270295
Enjolras -0.21838775 -0.21914826 0.8533821 0.44438156 -0.090375036 0.26756778 0.37198046 0.08984924 -0.20872927 -0.3089674 -0.1324413 -0.09967028 0.39400497 -0.35145417 -1.0262053 -0.68404055
Cosette -0.2381442 -0.08020546 0.34626335 0.20663773 -0.270242 0.25147465 0.9826716 -0.28851748 -0.3727721 -0.03522235 -0.13195989 0.25428092 -0.04864326 -0.08805239 -0.19943777 -0.37508705
Courfeyrac -0.22419722 -0.23638521 0.7918423 0.51598287 -0.003038187 0.3987604 0.46385646 0.2143547 -0.21617875 -0.49224827 -0.06978292 -0.040198494 0.49568075 -0.3738854 -1.0676926 -0.8540132
Thenardier -0.3667375 0.26259825 0.82144994 0.62462384 -0.036122926 0.35748282 0.7951393 -0.20303392 -0.058250125 0.10998845 -0.1451655 -0.14766793 0.10870998 0.16578287 0.41587743 -0.55152476
Combeferre -0.2742665 -0.27208132 0.87133694 0.52003336 -0.072248995 0.35019287 0.34787452 0.20252223 -0.16509628 -0.4903877 -0.08647391 -0.08937112 0.45130575 -0.3910924 -1.0453873 -0.81650674
Bossuet -0.16833544 -0.1690307 0.7796559 0.5920843 0.014216427 0.4543913 0.4010399 0.18797415 -0.24113227 -0.4362476 0.051934738 -0.049377546 0.45757374 -0.33969125 -1.1325203 -0.80075306
Gavroche -0.23142302 -0.017408628 0.9220495 0.6459775 0.071217485 0.3060055 0.3937194 0.12481137 0.11418676 -0.37688065 -0.09258364 -0.04184533 0.48299706 -0.12294361 -0.8932143 -0.62671226
Javert -0.47397894 0.24718736 0.6311011 0.18608797 -0.32229766 0.16694574 0.9181763 -0.20965822 0.05277995 0.17936127 -0.08921024 0.19356434 -0.00031630084 -0.12950218 0.23796235 -0.35217503
Fantine -0.79099846 -0.31341353 0.16432822 0.35997894 0.055964574 0.0123868175 1.3137562 0.092115335 0.41018045 0.587776 0.46958748 -0.20517251 -0.17427084 -0.5867125 0.18362 0.11177469
Myriel -0.8590964 -0.8378983 0.97096604 0.042713974 -0.43734813 0.04681713 0.58478427 -0.8214511 -0.93196785 -0.056152765 -0.22365293 -0.9505737 0.16450433 -0.41075033 0.034852993 0.37796506
Joly -0.19918925 -0.32193977 0.8334189 0.6239121 -0.004874666 0.38174424 0.40600532 0.23854367 -0.14709114 -0.40801734 -0.04398531 -0.015430618 0.51776963 -0.3380277 -1.2165104 -0.7752804
MmeThenardier -0.4776047 0.26561388 0.6249105 0.60781795 -0.0478374 0.29964378 0.9014194 -0.35194492 -0.06566098 0.19083577 -0.076415055 -0.13973026 0.02484335 0.101883136 0.46429604 -0.45891085
Bahorel -0.20047745 -0.32739142 0.90811527 0.6626042 -0.01913037 0.41099262 0.37772706 0.14971156 -0.1802475 -0.47290596 -0.057761345 -0.13427679 0.50926495 -0.3508677 -1.2063051 -0.7444971
Feuilly -0.2789704 -0.30538356 0.8362726 0.59683865 -0.043750554 0.36257413 0.37932414 0.14783883 -0.19818819 -0.46120602 -0.027582796 -0.08903884 0.42736006 -0.4151748 -1.2823766 -0.75051844
Gillenormand -0.07970755 -0.30037698 0.33168268 0.22308943 0.0015667324 0.4126526 1.2163949 -0.23737203 -0.702679 -0.11661266 -0.21577491 0.4607483 -0.14035922 -0.0011865869 -0.55504256 -0.56444526
Babet -0.4574442 0.3164011 0.96672803 0.897456 0.055056974 0.39843497 0.76921046 -0.21308535 0.18153365 -0.02184253 -0.1773692 -0.13902238 0.10000006 0.25763848 0.5536036 -0.6719571
Gueulemer -0.417717 0.3746943 1.0673072 0.76072174 0.10092172 0.3310407 0.7458779 -0.15579464 0.19937706 -0.012928996 -0.2375881 -0.29835024 0.07366039 0.33852565 0.45196652 -0.73230594
Tholomyes -0.71119887 -0.5370866 0.20438322 0.6677884 0.2997712 -0.105589464 1.5741192 0.32347512 0.40405533 0.5790229 0.8058024 -0.19429493 -0.23138683 -0.8236242 -0.014586559 0.25258288
Favourite -0.9536144 -0.5559822 0.32369757 0.8744948 0.25050724 -0.05036881 1.7260696 0.36186725 0.6174862 0.7650143 0.91222477 -0.35466394 -0.31958815 -0.8945502 0.1642978 0.3601149
Zephine -0.814993 -0.57903236 0.15835041 0.7420256 0.32857743 -0.06579622 1.6963897 0.35421717 0.5857265 0.7379043 0.85632646 -0.2301946 -0.34524632 -0.9337386 0.09293091 0.2963962
Blacheville -0.9903528 -0.6268183 0.20516762 0.61696553 0.30599687 -0.060637623 1.7470362 0.30849713 0.4887646 0.7593156 0.84381604 -0.26699832 -0.32939586 -0.968503 0.051448368 0.34897816
MmeMagloire -0.87802625 -0.8525709 1.0491788 0.09654907 -0.41437778 0.012915374 0.5545595 -0.7575728 -0.91877156 0.05332892 -0.2524533 -0.822612 0.051190916 -0.30839133 0.08247912 0.4132548
Dahlia -0.968886 -0.62305135 0.23511168 0.7384555 0.251501 -0.16144307 1.7409735 0.3154451 0.48923066 0.77733654 0.95290786 -0.24606106 -0.32447594 -0.9716847 0.0828386 0.33822587
Listolier -0.95057315 -0.5636504 0.19207542 0.59145606 0.29129192 -0.08944542 1.5595624 0.37596655 0.44768015 0.7274212 0.7499058 -0.26641512 -0.3245266 -0.91105115 -0.04562057 0.25930396
Fameuil -0.9814186 -0.5451476 0.29076013 0.7339547 0.32119924 -0.16816832 1.7022787 0.38416728 0.49332553 0.7172495 0.8773378 -0.3266338 -0.33357042 -0.86593485 0.1387602 0.37039775
MlleGillenormand 0.0018545452 -0.33507705 0.24500558 0.28123176 0.07295931 0.47501928 1.3102375 -0.121544436 -0.5082701 -0.15773423 -0.17196314 0.58522713 -0.17549388 -0.1082953 -0.26922706 -0.6000732
MlleBaptistine -0.82938737 -0.77525336 0.9823104 0.19539464 -0.29442143 -0.091345705 0.5422294 -0.7635115 -0.8496586 -0.035250716 -0.20245111 -0.8783863 0.11088934 -0.34996605 0.18497702 0.39091477
Claquesous -0.51418495 0.26617172 1.0816642 0.86799586 -0.04451128 0.4067986 0.63164586 -0.2063477 0.08974156 0.016077768 -0.1360701 -0.1821496 0.14135776 0.34717152 0.5676926 -0.63362914
Eponine -0.31499183 0.26767418 1.0058084 0.71567124 0.082323395 0.39697406 0.6712525 -0.08058332 -0.095959865 -0.17726599 -0.17139775 -0.15507998 0.2906302 0.27696097 0.27003452 -0.83956957
Prouvaire -0.22741161 -0.2547923 0.8414418 0.62582475 -0.066691235 0.34106058 0.38423222 0.13927232 -0.14876537 -0.48042086 0.04011635 -0.09885979 0.43484497 -0.436846 -1.2513539 -0.73382384
Fauchelevent -0.7676755 -0.21709515 0.94150776 -0.02146841 -1.0839804 0.062329777 0.75512767 -0.38649562 -0.3095299 -0.019646049 -0.0046950867 0.5587768 -0.4933125 -0.19586472 0.08663291 -0.7865742
Judge -0.74273807 -0.014000027 0.9393307 -1.0077791 -0.024664503 -0.12560692 1.1299133 0.0932815 -0.10853873 0.13006938 -0.72511333 -0.31088868 -0.5023906 -0.80111307 -0.0625706 -0.57393694
Grantaire -0.26785845 -0.2315846 0.86280066 0.7102767 0.021201571 0.3470721 0.36781365 0.11953929 -0.0041595837 -0.37369797 -0.11253763 -0.14361784 0.52446866 -0.355202 -1.1253996 -0.79591084
Mabeuf -0.25029567 -0.34306064 1.0707843 0.6572871 0.13726854 0.4759168 0.4190231 0.2550658 -0.14844108 -0.5077159 0.10871453 -0.069213085 0.6313817 -0.2649597 -1.156701 -0.60072523
Champmathieu -0.76836073 0.033520926 0.90308243 -0.8430547 0.12472279 -0.068596825 1.258056 -0.045677565 -0.16423774 0.020255014 -0.8502746 -0.2152241 -0.6082906 -0.6233034 0.10362716 -0.6149428
Brujon -0.4796937 0.28671375 1.1691021 0.88620377 0.042631716 0.3249868 0.5484227 -0.2648701 0.16759318 -0.09676349 -0.24693584 -0.27120733 0.21485768 0.39445272 0.55791456 -0.6442962
Montparnasse -0.46275684 0.26731995 1.0309995 0.783757 0.037154935 0.41024354 0.61645764 -0.17180707 0.24466312 0.031182166 -0.17408241 -0.24090241 0.16974902 0.20740321 0.5013817 -0.64306617
Bamatabois -0.6846068 -0.00049122085 0.7566834 -0.7896504 0.050795212 -0.10690729 1.0684209 0.072409116 -0.033015363 0.17722471 -0.67799056 -0.29381496 -0.5554128 -0.71191376 0.09557438 -0.4677816
Cochepaille -0.6761417 -0.06572962 0.8928481 -1.0383661 0.10911904 -0.021380808 1.1623869 -0.019923408 -0.17202938 0.09031662 -0.7964711 -0.35647643 -0.6828142 -0.7198241 -0.010161821 -0.60325617
Chenildieu -0.6886686 -0.04764349 0.82078457 -0.8634455 0.088731565 -0.075058915 1.1920238 0.09569342 -0.09371668 0.098683834 -0.8078355 -0.2736192 -0.5851312 -0.7136796 -0.078860186 -0.5870748
Brevet -0.7869197 -0.050765138 0.997687 -1.0346671 0.0658909 -0.05440854 1.150348 0.083601244 -0.13261254 -0.003772725 -0.88438404 -0.2745671 -0.61150324 -0.7949498 0.027541438 -0.64349085
Simplice -0.71354204 -0.03899273 0.4260405 0.16335534 -0.24893405 0.13954306 1.1233332 -0.20542702 0.21503042 0.253375 -0.084891826 0.1706102 0.10841825 -0.4307554 0.43549022 0.0987765
MmeHucheloup -0.30405298 -0.35414422 0.9435469 0.62258095 -0.0060694753 0.28317124 0.34566227 0.19890358 -0.055968106 -0.4861919 -0.012536768 -0.14908554 0.55307394 -0.36088195 -1.3417821 -0.67124397
Woman2 -0.33074504 0.006575481 0.39507723 0.087674275 -0.24106632 0.25686118 0.876434 -0.16029918 -0.26301137 0.12983589 -0.16575886 0.16916753 -0.11488887 -0.22033839 -0.06533175 -0.37059236
Child1 -0.9213292 -0.467323 0.90018046 0.78417635 0.6509891 0.025164882 0.43291464 0.30607796 0.9217515 -0.69979894 -0.25055593 -0.8174115 0.4391967 -0.20935255 -1.4914219 -0.4381392
MotherInnocent -0.5895937 -0.31591102 0.950122 0.086050674 -1.1243806 0.08004449 0.73344153 -0.35444954 -0.13004069 -0.05754709 -0.19541463 0.531152 -0.43662673 -0.19051857 -0.13688217 -0.4476775
Child2 -0.92823505 -0.5671933 1.0766139 0.8765029 0.6463448 0.01214431 0.38407424 0.29519868 0.98939234 -0.74428296 -0.115298785 -0.9407767 0.2923965 -0.21260206 -1.5254178 -0.40069786
LtGillenormand -0.013646607 -0.24055421 0.29194292 0.19425343 0.06945292 0.41769263 1.2153693 -0.13420825 -0.59333366 -0.06572201 -0.21582519 0.52070445 -0.24359721 -0.1665807 -0.40827206 -0.69642305
Anzelma -0.4416688 0.44843614 0.9270822 0.7327921 0.0992603 0.426048 0.8471343 -0.22169712 -0.023573935 0.03771165 -0.13789824 -0.1595489 0.17469813 0.25388572 0.6215168 -0.69124085
Toussaint -0.38789594 0.04128654 0.43467087 0.16476879 -0.20002522 0.28139696 0.8574161 -0.2376556 -0.116095714 0.079647444 -0.17361458 0.04253125 -0.08638971 -0.1501391 0.11217798 -0.46069184
MmeBurgon -0.21698746 0.026684195 1.2070932 1.0223347 0.45664468 0.41907015 0.5587379 0.16397291 0.42020434 -0.19542928 -0.20161387 -0.49731097 0.58498347 -0.25633985 -1.3993243 0.2776407
Pontmercy -0.26033977 -0.025029482 0.64144313 0.6048418 0.10359476 0.4984104 0.9357644 -0.015504573 -0.21352649 -0.09833311 -0.035841394 -0.05604138 -0.16605462 -0.008864619 0.17142315 -0.8602174
Woman1 -0.4889246 0.03617034 0.5141615 0.054265697 -0.26641652 0.16473739 0.73874366 -0.15926866 -0.07362584 0.15619062 -0.2658062 -0.038894657 -0.17998914 -0.26429856 0.05928985 -0.380965
Perpetue -0.7532764 -0.26005787 0.43985182 0.25106475 -0.07367606 0.112499624 1.2971723 -0.1933898 0.29158553 0.51454264 0.0981192 0.05609044 -0.0145168165 -0.5348124 0.46325007 0.30229142
Marguerite -0.58273137 -0.1469551 0.37870625 0.295508 0.025823377 -0.049547393 1.0344269 0.100069426 0.22288963 0.3615871 0.24770528 -0.08254499 -0.20587455 -0.480596 0.2378713 0.057724554
Count -0.8223276 -0.7148992 0.95400983 0.063759156 -0.29381967 -0.16469663 0.5237309 -0.7056003 -0.79915065 0.011499041 -0.35650164 -0.8255648 0.106017694 -0.37713578 -0.040832482 0.4253304
MotherPlutarch -0.334795 -0.43613473 1.0448229 0.65514344 0.23275957 0.45102635 0.3153028 0.31061327 -0.031810723 -0.36155364 0.051944394 -0.16629393 0.58176214 -0.30077046 -1.1511147 -0.5466732
MmePontmercy -0.20592043 -0.09022781 0.541352 0.57940525 0.12948343 0.6314055 1.1025031 0.025953285 -0.42507982 0.01375665 -0.06568977 0.0298872 -0.24327652 -0.03360353 0.016933 -0.83765876
Gribier -0.6279142 -0.22975211 0.91665995 -0.05713444 -0.808884 -0.027315725 0.6932771 -0.28621694 -0.08847702 -0.05773077 -0.1113563 0.3964966 -0.50450426 -0.3641608 -0.10976369 -0.5061297
Jondrette -0.36225426 -0.21107963 1.35202 0.8803818 0.48830393 0.23106551 0.76908296 0.3365183 0.38492435 -0.14855307 -0.26972878 -0.45035115 0.5834557 -0.31842753 -1.4176304 0.4182644
Magnon -0.22703585 0.066625096 0.5549463 0.28756228 -0.12335389 0.30019894 0.85014707 -0.11517529 -0.106092215 -0.019752355 -0.047628976 0.033883363 -0.07612946 -0.072870776 -0.035120998 -0.37891698
BaronessT -0.18020417 -0.17357042 0.5170099 0.15391962 -0.029101275 0.27605733 0.8219254 -0.10276976 -0.30167717 -0.16850759 -0.19887483 0.18179746 -0.054566715 -0.11229618 -0.29036117 -0.5291776
Napoleon -0.82059467 -0.63162124 0.94688666 0.078242384 -0.2541571 -0.065208204 0.39316761 -0.6075743 -0.6289518 0.020817252 -0.23108307 -0.7321639 0.08872892 -0.27433735 -0.012059461 0.332685
CountessDeLo -0.73246145 -0.598339 0.8611201 0.09999454 -0.28853828 -0.12242828 0.41972265 -0.5135515 -0.6300276 -0.014846483 -0.30966395 -0.6841584 -0.0029599492 -0.30245876 0.004641911 0.24908508
Champtercier -0.81783503 -0.61851496 0.93477494 0.036764476 -0.3302599 -0.12717849 0.52112424 -0.53457415 -0.666738 0.071020275 -0.30409023 -0.7620525 0.012346276 -0.35543612 0.12094966 0.36955073
OldMan -0.8137045 -0.5622564 0.98100626 0.09633328 -0.2349132 -0.13722749 0.46094525 -0.53496695 -0.60383916 0.06259558 -0.25963756 -0.70890754 -0.040865332 -0.2678552 0.07742631 0.31973538
Geborand -0.70428324 -0.57715434 0.91645044 0.068517424 -0.2796537 -0.038232002 0.46138367 -0.52624035 -0.5406594 0.001261696 -0.20676392 -0.72884107 0.09308337 -0.27783477 0.0410615 0.33466527
Labarre -0.38260478 -0.14939015 0.5102151 0.14635305 -0.20016332 0.10101039 0.73066443 -0.17765954 -0.21168843 0.044255774 -0.11704729 -0.09227972 -0.102267854 -0.23037931 -0.029745419 -0.2890904
Cravatte -0.80181825 -0.687886 0.90473217 0.020852702 -0.29139492 -0.13504556 0.4415126 -0.4681908 -0.546556 0.022063537 -0.24371362 -0.76307845 0.03905471 -0.33096027 0.009864517 0.31509346
MmeDeR -0.37690872 -0.05965618 0.49321356 0.067240424 -0.19486213 0.13889785 0.762983 -0.10028766 -0.16932173 0.011454488 -0.11959951 -0.01135715 -0.11313401 -0.14687288 -0.04863181 -0.3738117
Gervais -0.37813768 -0.11918836 0.55658144 0.1800346 -0.14404355 0.17248483 0.6632027 -0.19532067 -0.18528606 0.00056458986 -0.1203562 -0.14138503 -0.0445742 -0.15451622 -0.05416605 -0.1977577
Scaufflaire -0.49441978 -0.02214797 0.5092508 0.09579894 -0.0935113 0.12247231 0.7681003 -0.116968066 -0.13183253 0.16240378 -0.19786096 -0.10800271 -0.18701923 -0.12470982 0.1301988 -0.261115
Isabeau -0.35066286 -0.120263025 0.5070905 0.13645262 -0.05058784 0.17287527 0.6860405 -0.18135276 -0.21471019 0.054692145 -0.07849816 -0.14121826 -0.098760135 -0.18944605 -0.049616937 -0.24562873
Boulatruelle -0.38426012 0.031974908 0.6898 0.42809296 0.0052981875 0.25868928 0.6475418 -0.08572799 0.0842914 0.0040125162 -0.08645322 -0.1438593 -0.024332749 0.021451171 0.19787933 -0.40760154
MlleVaubois -0.232715 -0.15319103 0.52822703 0.21602337 -0.016880836 0.26721326 0.84366447 -0.013223324 -0.23182411 -0.031792942 -0.19791569 0.18200687 -0.105887614 -0.088166416 -0.34092444 -0.4518869
