34 16
33 0.12518956 -0.4773029 0.06002561 0.8192242 -0.44282907 0.028220417 0.75840807 0.106812514 -0.48512927 -0.7995937 -0.16339917 -0.12631136 -0.14961264 -0.15998428 -0.540799 -0.7508448
0 -0.13751198 0.35403547 0.02817913 0.059664033 0.226761 -0.06722011 1.3183755 0.32534987 0.549278 0.08091597 0.68142045 0.31252748 0.22068457 0.031158447 -0.4805352 -0.12437502
32 0.12393854 -0.44645825 0.0061793425 0.7141361 -0.27599928 0.030127637 0.86921483 0.02905914 -0.40439314 -0.67618924 -0.1701944 -0.12208977 -0.07818222 -0.21390785 -0.5836393 -0.667428
8 0.18039918 -0.34256735 -0.07862591 0.7053636 -0.36892015 0.042131327 0.7638675 0.05123514 -0.33331448 -0.74345994 -0.16426484 0.07654613 -0.11902306 -0.1553 -0.48672652 -0.71184915
2 0.009400265 -0.07688729 -0.092655726 0.4734666 -0.13353093 0.0022757435 0.7132114 0.24207865 -0.04801156 -0.4147317 0.18543841 -0.0056408583 0.0551155 -0.07671021 -0.33074635 -0.5625706
1 -0.11829621 0.24797486 -0.10300232 0.32384917 0.08924308 -0.09893364 1.0847949 0.3303954 0.30090967 0.03828995 0.6108217 0.11730393 0.20634586 0.03239231 -0.26422977 -0.35152456
30 0.0011336968 -0.3639124 0.028092204 0.6630878 -0.3542627 0.07781444 0.7728596 0.095695525 -0.23988807 -0.64770496 -0.08287491 -0.007743672 -0.09271572 -0.2097859 -0.4652341 -0.6721088
31 -0.60759944 0.07652443 0.22764944 0.41724268 0.004082294 0.32377943 0.7918597 -0.29328048 0.13974734 -0.3037201 0.07262144 -0.8985249 0.12098774 -0.44396055 -0.49757478 -0.542473
5 -0.2283604 0.48072627 0.48234335 0.06848179 0.10108072 -0.23880525 1.5756404 0.3935672 0.638559 0.284489 0.93448997 0.539347 0.45914218 0.05104232 -0.6355451 0.11586252
6 -0.20085445 0.44633144 0.43526095 0.10652106 0.11908553 -0.15838322 1.6113212 0.27171576 0.57026285 0.1819604 0.7731599 0.54499424 0.47225618 0.13337204 -0.61497545 0.1439271
3 -0.15120268 0.17456383 -0.11762125 0.25260696 0.10289401 -0.027703572 0.9783983 0.23273423 0.28274938 -0.033943523 0.42120317 -0.005125541 0.17323312 0.046458896 -0.3426745 -0.4282319
24 -0.6882559 -0.000676068 0.2683877 0.37334082 -0.09585261 0.35678643 0.8571076 -0.41155714 0.12653624 -0.32972714 -0.038093816 -1.0454984 0.071365595 -0.57940173 -0.4875402 -0.63079584
10 -0.1750975 0.34290782 0.25780216 0.11451388 0.18788286 -0.19903049 1.3873794 0.38972557 0.54837006 0.23567984 0.7515571 0.39283225 0.42506346 0.16192837 -0.5562232 0.06594
25 -0.72350204 0.057797663 0.20841388 0.37851617 0.016442072 0.35297087 0.8564553 -0.43711096 0.14767385 -0.24814317 -0.11019876 -1.0548252 0.0028420426 -0.58665186 -0.51394904 -0.6908516
29 0.09012901 -0.40418357 0.15996058 0.6852681 -0.32810557 0.11290258 0.84880906 -0.012292933 -0.3599247 -0.6271036 -0.16133204 -0.15030064 -0.0635667 -0.16358663 -0.49538445 -0.6167739
13 -0.10394501 0.113015905 -0.070977405 0.34747344 0.057960205 -0.029456759 0.86889225 0.22669245 0.14774911 -0.11920966 0.39441094 0.04569657 0.07374468 -0.057626143 -0.37053677 -0.39995614
4 -0.19673435 0.31366202 0.2322764 0.08249146 0.1539731 -0.19086131 1.4268639 0.34690407 0.4418585 0.25445879 0.7838465 0.3915376 0.28446028 0.12141228 -0.4979475 0.066660136
23 0.02830417 -0.33677995 0.08311249 0.68125397 -0.21769059 0.13810799 0.7277207 -0.008981153 -0.29426098 -0.65557253 -0.18711384 -0.20263745 -0.06695643 -0.26202342 -0.51350254 -0.65319127
7 -0.050063867 0.1453631 -0.08611253 0.32401395 0.11431028 -0.07393575 0.96443677 0.2797099 0.27041376 -0.09846384 0.47947237 -0.00068539707 0.08136694 0.032968152 -0.32929304 -0.3820922
27 -0.071466796 -0.19908023 0.054042093 0.5106154 -0.11070737 0.05574577 0.76742077 0.018218108 -0.0879045 -0.45343617 0.04689387 -0.2560752 0.043191463 -0.23618433 -0.43953043 -0.48322403
16 -0.18017262 0.37815434 0.5022623 0.17370966 0.008154573 -0.14224645 1.531777 0.3654018 0.5803454 0.19412376 0.77806455 0.4288755 0.3274021 0.0801431 -0.5211963 0.18371996
28 -0.05624914 -0.13449174 -0.017294673 0.4843853 -0.08974113 0.091765575 0.7883143 0.023897253 0.023855692 -0.3414341 0.11386697 -0.20131968 0.0051131495 -0.20066708 -0.363984 -0.48865968
19 -0.16021122 0.002302876 -0.02097533 0.32623184 0.011473916 0.025282228 0.9281115 0.15359327 0.13166784 -0.119203106 0.3830487 -0.003865386 0.13422291 -0.094118446 -0.37353542 -0.31373852
26 -0.019886862 -0.36411786 0.1569484 0.58786595 -0.24981418 0.15318121 0.84416294 0.005247983 -0.2763771 -0.4982389 -0.09039984 -0.12577319 -0.078445554 -0.15005541 -0.4777145 -0.56042904
21 -0.13548695 0.1429213 0.08870703 0.30145374 0.037638083 -0.14359275 0.91640246 0.2348027 0.23141913 -0.04874163 0.5286033 0.078769326 0.2015855 -0.055368196 -0.37555665 -0.3118731
12 -0.17203657 0.1719935 -0.019719575 0.23904729 0.08339467 -0.025961166 0.972219 0.26158637 0.21238953 -0.005926855 0.403104 0.10929826 0.11883825 0.0010335168 -0.39742386 -0.30326784
17 -0.15015694 0.16466445 0.0704007 0.24560198 0.04941403 -0.09977145 1.008196 0.2592913 0.18940282 -0.06759918 0.4146263 0.06942816 0.08989645 -0.036174417 -0.33526546 -0.29377177
9 -0.041134614 -0.17438106 0.08535643 0.407846 -0.13704588 0.048351277 0.81276035 0.11880919 -0.02366001 -0.4061201 0.07617075 -0.016055169 0.080214836 -0.17252146 -0.38181534 -0.4707342
18 0.008229614 -0.25700983 0.07670768 0.54370695 -0.14060345 0.02864788 0.74531066 0.0072903815 -0.22386633 -0.51764214 -0.002633445 -0.13624004 0.004368632 -0.20053479 -0.40898046 -0.5214245
22 -0.019437503 -0.22801489 0.10767402 0.5749557 -0.2416402 0.10582763 0.714045 0.10007555 -0.19358414 -0.45357063 0.020445894 -0.022273399 -0.0378725 -0.10092762 -0.38416073 -0.5794721
20 -0.054428075 -0.29067528 0.07772196 0.49791762 -0.2557807 0.017568724 0.7573015 0.043811888 -0.2540716 -0.5172913 -0.01457986 -0.1426161 -0.0011573213 -0.20293 -0.4078886 -0.56732917
15 0.04942656 -0.23048371 0.050915413 0.5680169 -0.29216945 0.06790988 0.7001174 -0.01542007 -0.28139722 -0.5175883 -0.01685249 -0.07243143 -0.08540134 -0.2106771 -0.4654445 -0.5594181
14 -0.045319233 -0.30182466 0.04088113 0.48910967 -0.26867524 0.020492384 0.7445221 0.0482621 -0.24465272 -0.5016429 0.040098626 -0.025331397 -0.07666612 -0.19066726 -0.42125568 -0.59795237
11 -0.107753046 0.20080352 0.10108461 0.18310016 0.01917533 -0.13291638 0.98301274 0.30132836 0.2856075 0.011870217 0.49855623 0.10520305 0.23422693 -0.043374065 -0.41940236 -0.24447028
