28 16
0 -0.35500813 0.34536764 0.29716474 0.064192474 0.34176868 -0.20416893 1.1053165 0.37479624 -0.13203523 -0.044481643 0.8320818 -0.32938734 0.14834923 0.26791504 -0.9685027 -0.0030692522
6 -0.120582245 0.04008592 -0.054883987 -0.16936931 0.50826293 -0.02729822 0.9950038 0.24862106 -0.10612572 -0.11937484 0.4299856 -0.1549259 -0.07074534 -0.022872336 -0.81434083 0.02545306
5 -0.09670948 -0.018298276 0.004753558 -0.040622585 0.49166209 -0.08877354 1.0218754 0.22530529 -0.19819446 -0.094563276 0.41123837 -0.22348063 0.01049451 -0.023972863 -0.8332562 0.062400974
18 0.36583856 0.0046486696 -0.28427485 0.9561431 -0.15207763 0.38603854 1.2425048 -0.6541333 0.22175603 -0.060445696 -0.74903834 0.2872382 -0.48819757 -0.13272244 -0.43382886 -0.63818
11 -0.13947423 -0.035073973 0.03975154 0.18200268 0.26671317 -0.0041360008 1.0483459 0.2528881 -0.12176027 -0.19727707 0.39266118 -0.1309841 0.06451422 -0.09020768 -0.6676642 -0.109707944
27 0.16796026 -0.22020502 0.030457351 0.94448 -0.2712454 0.29074258 1.2403558 -0.34489524 0.1978846 -0.021419398 -0.24481805 0.14569058 -0.26038015 -0.24782501 -0.15929647 -0.29281926
17 0.086105235 -0.23691146 -0.027761946 0.7855207 -0.17045961 0.24288976 1.1660948 -0.20953222 0.20971286 -0.11443364 -0.17843293 0.14585781 -0.26586536 -0.26114434 -0.31184462 -0.335891
1 -0.24986368 0.24494791 0.17950557 0.14537875 0.31090418 -0.026321277 0.84352124 0.17058027 -0.030756708 -0.05856379 0.54835033 -0.26209235 0.13671389 0.11952325 -0.7105583 -0.013223573
3 -0.25720143 0.29072377 0.26170185 0.062738635 0.2828903 -0.13319941 0.90347415 0.22396833 -0.0064704223 0.011405903 0.63291603 -0.17111011 0.18313752 0.0956052 -0.78556013 -0.028229546
4 -0.30085194 0.3388518 0.25229445 0.038306426 0.3395287 -0.09630154 0.94601655 0.1587237 -0.059486084 0.014922312 0.61959106 -0.2044059 0.22345616 0.2143819 -0.78032655 0.044811174
2 -0.28169277 0.2533202 0.14797047 0.08288064 0.28810042 -0.034436062 0.9245418 0.13149069 0.00055126345 0.020637177 0.47966936 -0.27451682 0.13643742 0.17945273 -0.7027937 -0.094229355
7 -0.13254014 -0.029874152 0.019875826 0.011365421 0.29507354 0.0022460592 0.9493468 0.12254762 -0.109270915 -0.11181065 0.31450054 -0.1993833 -0.020845206 -0.066998884 -0.6452044 -0.029793724
21 0.2694562 -0.10157028 -0.19017641 0.8058644 -0.03309797 0.30096713 1.0699558 -0.4589072 0.1560492 -0.009197274 -0.5872553 0.16263385 -0.33935416 -0.07266931 -0.44524217 -0.4683733
22 0.18771856 -0.020753559 -0.18935311 0.7357364 -0.017090403 0.3051345 1.0999815 -0.49969158 0.18328546 0.035494935 -0.5711908 0.1307651 -0.4113267 -0.14554018 -0.40784976 -0.51379293
20 0.2983472 -0.09377794 -0.116136104 0.78323805 -0.108778514 0.32993108 1.0880765 -0.511777 0.09765471 -0.04533858 -0.59211427 0.15655181 -0.3828693 -0.09299295 -0.38806057 -0.4746295
19 0.18066877 -0.04600908 -0.15464425 0.7471539 -0.026204113 0.30669728 1.0369866 -0.43755877 0.11426409 -0.03126976 -0.4527836 0.12928404 -0.38160098 -0.166258 -0.44182023 -0.46037817
9 -0.09188077 0.0051604584 -0.03233688 0.074957885 0.30689168 -0.038071584 0.89933544 0.13381693 -0.11168748 -0.030953156 0.3277263 -0.0788261 -0.07138393 0.0234199 -0.5777916 -0.027230881
8 -0.092090674 0.078561924 0.010665247 0.10124692 0.38251144 -0.01762106 0.8473986 0.17198272 -0.08734747 -0.14203009 0.30833992 -0.14875583 0.0121582635 -0.016230728 -0.6904477 -0.084368594
10 -0.027767016 0.033586968 -0.021033678 0.106648155 0.34003952 -0.04689444 0.85775614 0.16832948 -0.040696464 -0.07925081 0.33657908 -0.16127193 -0.08019774 0.062600166 -0.5861181 -0.05984083
23 0.13452008 -0.18927796 0.030768324 0.72245127 -0.09676697 0.13941056 1.0807197 -0.1697874 0.17354055 -0.09867736 -0.05558405 0.06677476 -0.14118648 -0.22160871 -0.30211344 -0.1850163
26 0.109002195 -0.14355527 0.044097133 0.66922307 -0.12707655 0.20629461 1.054415 -0.17067768 0.13413584 -0.051249634 -0.123953156 0.046332214 -0.25312442 -0.16536002 -0.292732 -0.18620779
25 0.15350758 -0.16254844 -0.0773535 0.64166796 -0.027792213 0.2055526 1.0315095 -0.19846538 0.15640536 -0.038901888 -0.093870685 0.04451811 -0.21913935 -0.16339199 -0.2992476 -0.22567806
12 -0.16054559 -0.074173376 -0.008128291 0.19604008 0.23559731 0.074879296 0.9554218 0.07232386 -0.07133742 -0.073262826 0.2925503 -0.105859704 0.0152604105 -0.09858777 -0.5898837 -0.04999182
24 0.084197365 -0.1890903 0.031179624 0.6570579 -0.09832768 0.27405939 1.0795411 -0.25342104 0.10618576 -0.008256822 -0.17902331 0.08416028 -0.2461749 -0.1194553 -0.30474457 -0.25520614
14 -0.08495583 -0.019578334 0.07436089 0.22964902 0.19909745 -0.03883121 0.84899867 0.07355487 -0.053217437 -0.107658505 0.28131366 -0.08574939 0.00029976433 -0.095067106 -0.57269484 -0.13339028
16 -0.122860685 -0.0025351092 -0.02400195 0.14809391 0.25463852 0.041550744 0.88698554 0.11264542 -0.087753825 -0.04234355 0.19801049 -0.060812097 -0.084881835 -0.030258624 -0.59067667 -0.10204178
13 -0.114609025 0.040771008 0.07342641 0.14580606 0.21987839 -0.038889404 0.9352477 0.14615923 -0.06792008 -0.07447977 0.25040904 -0.063500956 -0.07872253 -0.032203898 -0.51723444 -0.069233336
15 -0.07949331 -0.07024928 0.07575788 0.1360302 0.21696824 0.03297665 0.9334389 0.12111028 -0.052472055 -0.14159448 0.19053134 -0.039594043 -0.0023468384 -0.087619044 -0.56850785 -0.08689742
