28 16
0 -0.1444481 0.12993935 0.20533773 0.39996004 -0.10180209 -0.0185413 0.89339644 0.31639984 0.09785633 -0.28374743 0.30248564 -0.10069413 0.0879712 0.046157602 -0.5316071 -0.13659324
6 0.0019741908 0.07079989 0.05356264 0.28087065 0.10256301 0.044069108 0.92081344 0.29595125 0.12039081 -0.3193824 0.17419404 0.0676895 -0.010538867 -0.097030796 -0.5570901 -0.0953388
5 0.005268942 0.019207055 0.046290815 0.42133623 0.06389496 0.042290695 0.960321 0.20176516 0.038632136 -0.23900755 0.08660415 0.009562234 0.013951482 -0.09986839 -0.55494374 -0.0926196
18 -0.08916508 0.14696598 -0.32134885 0.68871254 -0.061701264 0.30724764 1.0412798 -0.20212679 0.14298795 -0.093420126 -0.1821143 0.22346005 -0.19435966 -0.19491658 -0.41260973 -0.46104363
11 -0.06426135 0.051998176 -0.021650966 0.5412917 -0.015347646 0.15140253 1.0322647 0.22299035 0.08008939 -0.29556572 0.111525714 0.0913722 0.01285136 -0.14327823 -0.48623827 -0.25693217
27 -0.13149561 -0.0025715022 -0.15371534 0.6615002 -0.11572304 0.28594065 1.0512421 -0.107215255 0.052911762 0.024133643 -0.0007109299 0.16905183 -0.14126566 -0.17780639 -0.21990953 -0.23538807
17 -0.17234227 -0.049608022 -0.15346104 0.5963228 -0.11145852 0.26864466 0.97102714 -0.013339974 0.119203575 -0.08258207 0.0031665063 0.17991121 -0.15491426 -0.19590023 -0.2998592 -0.30011162
4 -0.15406314 0.13442586 0.07552578 0.44721687 -1.3280689e-05 0.14552405 0.8160568 0.13748515 0.122779705 -0.21488327 0.18804914 -0.08264872 0.07077464 -0.03587843 -0.45854995 -0.14414605
3 -0.1310706 0.14124566 0.11354436 0.36839592 -0.04153374 0.059719846 0.85684264 0.14905654 0.15445712 -0.14410232 0.19419158 0.039714333 0.08311593 -0.09469417 -0.48605028 -0.17722848
7 -0.058197554 0.11048166 0.07256463 0.35559264 0.03417545 0.074008524 0.8463495 0.10769718 0.075006306 -0.18862641 0.102787584 0.10122095 0.05570791 -0.039840754 -0.42311054 -0.08534868
2 -0.17965853 0.12098479 0.0592413 0.33883038 -0.027617663 0.11700348 0.86735743 0.124516144 0.16334309 -0.1602238 0.14305939 -0.10428759 0.09137022 0.01085321 -0.4347285 -0.19429915
1 -0.17436525 0.09145661 0.095641226 0.36040592 -0.10391326 0.11765396 0.8453036 0.09316233 0.12551346 -0.19818443 0.1426077 -0.10875802 0.06428657 -0.064416826 -0.42274475 -0.18222915
21 -0.09510985 0.03577581 -0.18565904 0.62342894 0.009004192 0.22609018 0.9318407 -0.035684586 0.11013713 -0.08923463 -0.11460336 0.11368087 -0.0712019 -0.12076009 -0.45025727 -0.32656524
19 -0.15368271 0.12519932 -0.19523808 0.57345945 0.04081098 0.23777674 1.0159951 -0.09493725 0.1418534 -0.04808429 -0.12217268 0.09280622 -0.15913801 -0.1954524 -0.44615886 -0.3910448
22 -0.05538107 0.05557213 -0.15500474 0.62945133 -0.059413094 0.27774516 0.96051896 -0.16059196 0.061653156 -0.09268637 -0.17588803 0.12318958 -0.14549075 -0.15463723 -0.38412467 -0.37181988
20 -0.13551697 0.09094611 -0.20332192 0.6239905 0.009791447 0.2746731 0.919246 -0.123082384 0.07379448 -0.083503805 -0.101391174 0.1164183 -0.18332803 -0.21935461 -0.44038343 -0.3835405
23 -0.11600907 -0.031603612 -0.171735 0.48080307 -0.015732255 0.18473622 0.9589116 -0.0037516267 0.027346186 0.0050890837 0.08240941 0.15305051 -0.16132437 -0.09871608 -0.27755034 -0.17220116
9 -0.034088995 0.06989748 -0.008857594 0.42262036 0.0574193 0.11618252 0.7455678 0.12284428 0.09115098 -0.2320162 0.032350197 0.035670906 0.0020493066 -0.1169784 -0.411408 -0.20378962
10 0.0098810475 0.053500574 -0.01309234 0.38818493 0.07287147 0.046223637 0.7788566 0.17101191 0.10384522 -0.1812257 0.13040146 0.008370562 -0.06014898 -0.023599312 -0.3776991 -0.15570688
8 -0.016658671 0.025379952 0.03527352 0.4052997 0.04531195 0.03023486 0.80839866 0.16780609 0.096427605 -0.22115198 0.13155533 0.04463057 0.039126653 -0.11996489 -0.4269385 -0.10260975
12 -0.04805803 0.029156832 0.039301857 0.5056075 -0.07137708 0.14872311 0.88134843 0.14019543 0.0939263 -0.18031117 0.058844734 0.042475548 -0.08726444 -0.12926249 -0.36560422 -0.12916291
24 -0.032067027 -0.0246999 -0.16472627 0.51585174 -0.015147642 0.21957672 0.827178 -0.023292895 0.12207465 -0.06329482 0.024876948 0.08358375 -0.105802864 -0.14458415 -0.2702782 -0.21666387
26 -0.14910606 -0.040462807 -0.1394445 0.46673498 -0.021705454 0.24313422 0.84864014 -0.027675232 0.08076605 -0.057297923 0.056666363 0.0856318 -0.056862786 -0.16456231 -0.31967086 -0.17013468
25 -0.10647889 -0.04556541 -0.06987307 0.46399778 -0.04049292 0.2536026 0.84594053 -0.027940875 0.044357173 -0.043420557 -0.018048573 0.11864383 -0.12164441 -0.09673352 -0.298647 -0.20424801
14 -0.055049222 0.024028296 0.042344205 0.4385895 -0.0065978863 0.04888694 0.7516776 0.112531535 0.06642138 -0.18819593 0.11223433 0.07478252 -0.0021999332 -0.15624979 -0.3984875 -0.19953239
13 -0.09444117 0.048934218 -0.05281836 0.39137238 0.023704374 0.14357372 0.8022077 0.13731933 0.04847339 -0.13081484 0.017516442 0.105116196 -0.08515861 -0.09764365 -0.41141158 -0.19466308
15 -0.069859535 0.08295005 0.025019905 0.34681237 0.009066688 0.043161735 0.7898813 0.16692501 0.053616136 -0.15849657 0.05716943 0.101752624 -0.08371681 -0.09446485 -0.32336363 -0.14972949
16 -0.04471212 -0.011947188 0.04237004 0.36286536 -0.014687649 0.123560935 0.78222597 0.12571049 0.083893426 -0.21341641 0.0008801686 0.12633072 0.0063817613 -0.14554153 -0.3590948 -0.1661165
