77 16
Valjean -0.47027785 -0.35408044 0.54863197 0.26313874 -0.011558973 0.09098845 0.89525354 0.0899563 0.013993814 0.1945419 -0.09660543 -0.1595152 -0.068156675 -0.45241922 -0.4186854 -0.10058513
Marius -0.3935106 -0.27225465 0.4037189 0.106877044 0.07370356 0.14109689 0.77744883 0.041772634 0.08915901 0.17490003 -0.12069547 -0.06838017 -0.07351297 -0.471579 -0.39173576 -0.11560114
Myriel -0.30706254 -0.5162249 0.57473737 0.21788369 0.14214373 0.016478457 0.8190101 0.026675068 -0.033298712 0.24648607 -0.257149 -0.2844828 -0.020724935 -0.45451558 -0.5383785 0.07720522
Cosette -0.38701352 -0.24602969 0.41109693 0.22057669 0.020699134 0.1228769 0.8170943 0.0031997068 0.05899858 0.1653927 -0.14378615 -0.058333278 -0.055574343 -0.43866163 -0.3906685 -0.13706559
Thenardier -0.4180223 -0.2570993 0.47693405 0.22765495 0.013445399 0.13797824 0.799472 0.0946958 0.029854555 0.12659818 -0.0725 -0.12500924 0.031331886 -0.4573797 -0.38163894 -0.16165724
Enjolras -0.4149485 -0.21750818 0.49265507 0.20575796 -0.02461191 0.11200177 0.74503535 0.014687438 0.06463197 0.22324039 -0.091436364 -0.10430838 0.017457686 -0.461122 -0.27722847 -0.11566204
Courfeyrac -0.431148 -0.25492138 0.43490353 0.1940719 -0.050703738 0.118207626 0.6896846 0.08402807 0.12489217 0.12517303 -0.08593157 -0.062586226 -0.020056168 -0.4729816 -0.31532505 -0.20028749
Javert -0.43186104 -0.23441337 0.46774137 0.22260186 0.08620403 0.15605721 0.69838285 0.03363898 0.07286804 0.16279125 -0.06032051 -0.1835774 0.02345566 -0.41446993 -0.3798667 -0.0660817
Gavroche -0.4485653 -0.21248914 0.55662996 0.14044403 0.017801436 0.07604136 0.79040617 0.07435138 0.1398759 0.25187102 -0.0569593 -0.06456515 0.053715944 -0.5527058 -0.4468803 -0.14614628
Fantine -0.43226612 -0.26876283 0.5017985 0.14049661 0.06932939 0.14080395 0.7968373 -0.037372112 0.034841992 0.21484673 -0.13540521 -0.060211435 0.028232792 -0.3993498 -0.32613316 -0.040414482
Combeferre -0.43459722 -0.20616552 0.38926017 0.123221524 0.036933277 0.13983151 0.7145216 0.007780953 0.12072287 0.22006534 -0.12472086 -0.1571692 0.022670327 -0.3836024 -0.3246768 -0.16863683
Bossuet -0.41167104 -0.23976186 0.45416844 0.12631947 -0.046757396 0.118878454 0.677552 0.0030115542 0.082313366 0.1569693 -0.09389562 -0.16965905 0.01792729 -0.4500718 -0.301858 -0.13528533
MmeMagloire -0.3787696 -0.4634518 0.5518829 0.23381367 0.10190476 0.05513576 0.7604386 0.08121859 0.03919793 0.23336607 -0.2135373 -0.22882557 0.026111813 -0.42211184 -0.47631666 -0.011220399
MmeThenardier -0.44104478 -0.24123694 0.41761366 0.15669264 0.1015586 0.13236296 0.76937145 -0.0049377037 0.072341084 0.24451222 -0.15782648 -0.14961387 -0.06578427 -0.4511234 -0.36035973 -0.14124832
MlleBaptistine -0.27928072 -0.41962746 0.5573955 0.2285576 0.024331687 0.07972831 0.75201 0.0035446212 -0.014540476 0.16691947 -0.21078035 -0.22572249 -0.030113978 -0.38088256 -0.40129465 -0.010677477
Gillenormand -0.43048802 -0.27065098 0.4276722 0.204836 0.063088305 0.12810029 0.72160226 0.016347172 0.011450054 0.18450443 -0.10625311 -0.12669876 -0.08060046 -0.47624007 -0.395309 -0.12853253
MlleGillenormand -0.41667846 -0.31940383 0.4171014 0.15232767 0.06814158 0.083692096 0.8098433 0.046530962 -0.012957202 0.26041442 -0.07174896 -0.08152645 -0.08422708 -0.41391528 -0.33664417 -0.06492051
Joly -0.36926082 -0.22936116 0.4327854 0.21314938 0.07685235 0.12051736 0.68699276 0.044161256 0.09237677 0.1292111 -0.15253735 -0.11707617 0.0076364395 -0.49246144 -0.36953107 -0.18003972
Bahorel -0.32821786 -0.24183336 0.40592223 0.19049126 0.07559848 0.07176897 0.7297154 0.071069464 0.10900636 0.17546506 -0.052929237 -0.15547425 -0.0601937 -0.37572643 -0.32066184 -0.13426751
Babet -0.33976606 -0.28497037 0.4645097 0.2149437 0.06697138 0.0691306 0.7453199 0.066518106 0.06576842 0.1223364 -0.036672186 -0.13562928 0.042284247 -0.44964164 -0.3717198 -0.060446132
Gueulemer -0.39122692 -0.29431757 0.5436275 0.247499 -0.024718119 0.13753998 0.78903383 0.064800695 0.053134464 0.18840833 -0.095855966 -0.15815933 -0.05841216 -0.46253398 -0.3370422 -0.044835743
Favourite -0.34371692 -0.3354838 0.39204884 0.19711821 0.06679733 0.1545691 0.7584791 0.005212822 0.08064425 0.20932585 -0.105057664 -0.112755135 -0.04878726 -0.45242023 -0.2780536 -0.10225551
Fauchelevent -0.514695 -0.40022218 0.45099324 0.1916453 0.056501564 0.18745127 0.8223983 -0.002938288 0.05144819 0.25317436 -0.0855255 -0.14652799 -0.00651366 -0.5132335 -0.38258386 -0.027744109
Tholomyes -0.39322695 -0.34630847 0.46074858 0.10774622 0.032641463 0.17586865 0.6637358 -0.004656432 -0.009563523 0.22561386 -0.15084031 -0.08572079 -0.06697114 -0.37020797 -0.26137698 -0.07265629
Feuilly -0.37649193 -0.24692361 0.47287005 0.1868285 0.0032307312 0.030306557 0.6068372 0.035349164 0.07161171 0.15093414 -0.03510048 -0.110362984 0.02730556 -0.4659714 -0.33195242 -0.16364445
Listolier -0.4359148 -0.28928673 0.3839547 0.11036804 0.06840271 0.15468839 0.6968789 0.031418573 0.0010253106 0.23573156 -0.17023681 -0.066603675 -0.088217504 -0.40595204 -0.3127031 -0.1230852
Blacheville -0.38941947 -0.23674165 0.4503113 0.09289625 0.043161537 0.056737464 0.7035835 0.07636258 0.007523587 0.1861918 -0.11160064 -0.054893915 -0.081341155 -0.391062 -0.23504615 -0.07391808
Dahlia -0.37513632 -0.35038158 0.48764807 0.09720808 0.027397493 0.13617602 0.694185 0.02933044 0.04021656 0.14263627 -0.17762506 -0.044318542 0.0077841375 -0.4584141 -0.2770458 -0.08936537
Fameuil -0.33758202 -0.33320007 0.4387681 0.14893278 0.106914274 0.08619092 0.65129846 -0.030023307 -0.045280308 0.12116392 -0.12793878 -0.13234302 -0.0053423154 -0.43380383 -0.24762289 -0.083584696
Eponine -0.41010514 -0.28857988 0.5281941 0.23294458 0.00840554 0.16314614 0.69175756 0.07960742 0.030247422 0.20435074 -0.09401097 -0.084777355 -0.034042243 -0.38515708 -0.30392858 -0.1604457
Zephine -0.401276 -0.31728166 0.425006 0.10561824 -0.0069679744 0.05478269 0.6930093 0.033760443 -0.03290164 0.13682891 -0.08806251 -0.12483872 0.008302557 -0.41428348 -0.2561147 -0.14183478
Claquesous -0.339561 -0.2479749 0.4606255 0.19883052 -0.021525819 0.1297905 0.7013624 -0.02714304 -0.016164668 0.16865063 -0.072986625 -0.104454614 -0.060372874 -0.4618663 -0.37002409 -0.103468135
Judge -0.47046417 -0.37627083 0.44941184 0.12801659 0.0012138744 0.061468434 0.7199547 -0.003658392 0.0052528325 0.19220123 -0.08035879 -0.075959176 -0.07401089 -0.46347395 -0.2997933 -0.1430198
Mabeuf -0.43348485 -0.24859253 0.5468319 0.10658159 -0.003164032 0.05175479 0.78308254 0.11257995 0.12129551 0.2399593 -0.07620514 -0.16189666 0.05956889 -0.5528588 -0.41139522 -0.14564233
Champmathieu -0.40230963 -0.32273838 0.442093 0.20781554 0.028446063 0.0769512 0.69951534 -0.043621913 0.103665784 0.23426439 -0.18845822 -0.10394284 0.043096572 -0.4628026 -0.35091406 -0.1302552
Brujon -0.35655102 -0.3062622 0.5437814 0.13640462 0.060421765 0.13600014 0.760685 0.05317425 -0.009985173 0.13311395 -0.09712594 -0.092933476 0.024586085 -0.41593266 -0.36588278 -0.044045478
Chenildieu -0.47873667 -0.2924054 0.47553462 0.19464509 0.083998375 0.05113297 0.7705952 -0.050608218 0.052559312 0.13921532 -0.16321026 -0.07296894 -0.03571299 -0.42536846 -0.25960284 -0.024715181
Brevet -0.4637007 -0.32605764 0.51240313 0.20038407 0.02924404 0.040370494 0.7145814 -0.03028854 0.09968124 0.16413233 -0.13138299 -0.11210425 -0.03190977 -0.4124954 -0.27205312 -0.0812199
Cochepaille -0.4617984 -0.33956057 0.52024245 0.18356547 0.03474469 0.15531582 0.71561545 0.002600601 0.1155107 0.24982046 -0.13019909 -0.18270755 -0.017510537 -0.4670412 -0.27065533 -0.07364967
Prouvaire -0.33289236 -0.18797968 0.37792236 0.10862217 0.005675016 0.06939738 0.64346313 0.09762389 0.069575794 0.1694754 -0.124356344 -0.089475244 -0.047281247 -0.45421657 -0.32673115 -0.18548237
Montparnasse -0.34832874 -0.30808365 0.5133305 0.1290399 0.05866016 0.18192253 0.674395 -0.029701695 0.010695757 0.16816196 -0.102282494 -0.17190199 -0.07385025 -0.41574654 -0.38472196 -0.15301938
Bamatabois -0.40679252 -0.34682718 0.39287233 0.11246548 0.035819955 0.06752485 0.726205 0.021281697 0.023164028 0.21981728 -0.1552506 -0.14464478 -0.07168837 -0.43711552 -0.31888708 -0.039179713
Simplice -0.43360317 -0.26063803 0.5030617 0.113657966 0.078210995 0.16614828 0.70887446 0.07428535 0.0928767 0.15261088 -0.17009768 -0.10201772 -0.031341262 -0.48539826 -0.26917914 -0.13265146
Grantaire -0.38828266 -0.22832413 0.37928328 0.13855824 -0.0057442016 0.08476208 0.61494714 0.043065656 0.112296924 0.12526385 -0.10468827 -0.06689285 0.03828704 -0.42344368 -0.23934424 -0.05797436
MmeBurgon -0.4868213 -0.30241135 0.56444234 0.15568464 -0.0024518175 0.06677441 0.81163895 0.0347046 0.10839774 0.18993828 -0.12554006 -0.1102091 0.023001354 -0.5179319 -0.43676752 -0.19351095
Child2 -0.47046643 -0.2579061 0.5498444 0.10480788 -0.016197242 0.16025014 0.7895815 0.102695756 0.03689083 0.28235143 -0.1802668 -0.112911 0.0032902984 -0.58329266 -0.4416477 -0.146399
Child1 -0.45539853 -0.27480498 0.43679076 0.15871166 0.09025641 0.09361754 0.7218803 0.08190391 0.13115303 0.16259094 -0.16495778 -0.13942282 0.07025434 -0.4796322 -0.43016815 -0.13694921
Woman2 -0.29134908 -0.31433207 0.37141117 0.21296306 -0.017263645 0.11854845 0.63814354 0.06747131 0.092637345 0.15137239 -0.1330871 -0.058023423 -0.008443346 -0.34103063 -0.36146075 -0.013299256
Count -0.33007452 -0.33105615 0.4381007 0.15566912 0.074906416 0.060475066 0.6039507 0.04745146 0.08513742 0.1341953 -0.102049544 -0.18747786 -0.06011211 -0.37054878 -0.3792958 -0.027661473
Pontmercy -0.31675538 -0.2448557 0.41035214 0.20154175 0.083941884 0.07378266 0.61012995 0.004581623 -0.015167577 0.19650751 -0.106736 -0.10123061 -0.032703415 -0.39152753 -0.25439414 -0.10510034
Anzelma -0.3818438 -0.17152013 0.3927895 0.19929321 0.077233575 0.11030759 0.64275336 -0.0020179737 -0.009454311 0.18133277 -0.06743239 -0.1328764 0.039363213 -0.36672872 -0.21055065 -0.065219834
Perpetue -0.43062496 -0.29598892 0.38368547 0.13672312 0.04613843 0.17639165 0.7645468 -0.010441308 0.073878355 0.19095019 -0.13182469 -0.17586958 -0.020396212 -0.47877607 -0.275443 -0.14052776
MmeHucheloup -0.26722574 -0.13938406 0.34867108 0.15318647 0.0037430057 0.123334676 0.56896466 -0.023374671 0.03659204 0.16258898 -0.08612677 -0.10067013 -0.016363254 -0.3582551 -0.25503966 -0.06840545
MotherPlutarch -0.41729325 -0.28453773 0.4514292 0.15212339 0.02621661 0.061748613 0.72304106 0.029688014 0.08089331 0.18178706 -0.061009705 -0.17370193 -0.04742015 -0.4695986 -0.25231096 -0.12386279
MotherInnocent -0.44527456 -0.29611537 0.40131408 0.21168905 -0.024868678 0.12833618 0.6139484 0.033231493 0.0857846 0.23569797 -0.161935 -0.16527095 -0.07013855 -0.4626761 -0.3875621 -0.08436533
Gribier -0.40193567 -0.34422213 0.4768242 0.17630638 0.06879423 0.12448323 0.6915086 -0.023512997 0.03057251 0.2192213 -0.14713804 -0.113514595 -0.015200046 -0.43346828 -0.26841712 -0.02093083
LtGillenormand -0.31233126 -0.18728304 0.39672536 0.09848762 -0.007500086 0.04983896 0.5423282 0.07567861 0.019769378 0.116485246 -0.119178236 -0.058609553 -0.04629716 -0.37978408 -0.2685506 -0.09689217
MmePontmercy -0.34132305 -0.23952912 0.3654548 0.19544725 0.055908546 0.0209658 0.6590297 -0.013300525 0.03799959 0.18954445 -0.1292741 -0.117086574 0.024761781 -0.3980038 -0.34107488 -0.017674115
Toussaint -0.3651661 -0.26045436 0.43278053 0.16708724 0.05386989 0.15645812 0.5732511 0.060396254 0.052567873 0.19499613 -0.088131696 -0.054059528 0.0030487059 -0.3407534 -0.30357847 -0.11850579
Woman1 -0.32097542 -0.22880167 0.35149688 0.17836353 0.060585458 0.12843253 0.6002654 0.07789331 0.029079137 0.20477091 -0.0749648 -0.1613898 -0.042870585 -0.36133054 -0.25055486 -0.06600759
Jondrette -0.43237576 -0.22533993 0.54597145 0.16094527 -0.0036264677 0.069655515 0.7000581 -0.034223918 0.07572688 0.15767126 -0.09357939 -0.07833199 -0.039271258 -0.53092647 -0.3464386 -0.16912507
Napoleon -0.27885816 -0.33017844 0.47094464 0.1690869 0.07074862 0.03836062 0.6007781 0.08756756 0.04245897 0.11614759 -0.17502867 -0.15818085 0.02383932 -0.3193745 -0.38992333 0.025983263
CountessDeLo -0.24544188 -0.22290207 0.43980914 0.09633286 -0.013676352 0.09193413 0.6130708 0.060254026 0.07579672 0.13048282 -0.056318715 -0.20209599 -0.06340967 -0.36334398 -0.3217221 -0.0005025491
Champtercier -0.2942608 -0.31157297 0.41931847 0.114610545 0.09401711 0.030300217 0.56562793 0.06272144 0.046494637 0.11799376 -0.086343974 -0.18551017 -0.031722575 -0.33286607 -0.24110982 -0.06138708
Marguerite -0.35858312 -0.23277558 0.37379593 0.11534835 0.08497742 0.112713926 0.566871 0.025289927 0.087374 0.205426 -0.0693967 -0.07864212 -0.008424236 -0.35890895 -0.32597548 -0.06289989
Magnon -0.33634943 -0.2329856 0.33199075 0.18395893 -0.017713249 0.041343853 0.57637674 0.023321211 -0.013173081 0.1596606 -0.124410465 -0.10191393 -0.07305089 -0.3491524 -0.25935513 -0.08787464
BaronessT -0.3273896 -0.2235146 0.39174196 0.15072435 -0.029604034 0.05463578 0.56002164 0.04503404 -0.024503542 0.16815078 -0.13775754 -0.14037272 0.0013157318 -0.3514488 -0.24114381 -0.020228423
Cravatte -0.2927278 -0.18089096 0.36136475 0.19364057 0.06633096 -0.0006311437 0.50594133 0.073584504 0.0679069 0.18498833 -0.052770983 -0.06873475 -0.07523746 -0.28428036 -0.3009319 -0.028201867
Geborand -0.25444946 -0.2223875 0.41474208 0.14741497 0.029139334 0.10437074 0.5195171 0.02614187 0.09311713 0.11051446 -0.07898555 -0.16631235 0.04503087 -0.283154 -0.27314612 -0.024616113
MlleVaubois -0.25206068 -0.2206108 0.2874296 0.14481452 -0.015091772 0.040277787 0.4996178 0.03833011 0.015775247 0.10751045 -0.0363146 -0.109196335 -0.041423935 -0.33132505 -0.2463813 -0.12224399
OldMan -0.29260746 -0.305147 0.36047825 0.07765831 -0.025060633 0.011054897 0.4751245 0.06756375 0.05183211 0.13383928 -0.1188514 -0.17233463 -0.011010457 -0.30412132 -0.2702928 -0.033443764
Scaufflaire -0.26313663 -0.19703455 0.2516205 0.0803441 -0.02278247 0.06907398 0.4958595 0.06525657 0.017623592 0.116440535 -0.018965354 -0.083213344 -0.034137197 -0.23268211 -0.21421622 -0.09046145
Boulatruelle -0.26563686 -0.19879523 0.3229714 0.13268869 0.034568507 0.11795359 0.5580346 0.012200571 0.046612512 0.15196924 -0.082590565 -0.12118237 -0.0520554 -0.2979282 -0.22296987 -0.020237297
MmeDeR -0.32311565 -0.19336611 0.29444563 0.17947946 0.04410843 0.10097359 0.50900364 0.062215175 -0.0058958526 0.18047363 -0.09801914 -0.116166465 -0.033051126 -0.23801705 -0.28033072 -0.072015494
Labarre -0.22484586 -0.19455028 0.25969476 0.07320873 0.08778144 0.11684557 0.5094805 -0.0016216598 -0.025588179 0.15193872 -0.032348603 -0.111047104 -0.06540708 -0.30539584 -0.25636327 -0.077579156
Gervais -0.28983545 -0.238309 0.37898663 0.058654383 0.056449514 0.10930823 0.4965625 0.07931573 0.094890594 0.097622864 -0.11777492 -0.12799455 -0.06536815 -0.32383916 -0.27527112 -0.117056824
Isabeau -0.27690542 -0.18781994 0.3602462 0.098646976 0.001439448 0.08507121 0.5131668 0.07433714 0.035406314 0.1792919 -0.13481176 -0.032713678 -0.030030511 -0.25343135 -0.28637338 -0.0546413
