60 16
15 -0.36603165 -0.48721632 0.26364905 0.89374274 0.18300228 0.082111634 1.085467 0.04391719 0.05229678 0.57557434 0.101062305 -0.41415662 -0.31036782 -0.21431318 -0.2417129 0.14553455
37 -0.23842463 -0.1647245 0.54342735 0.21546353 0.13852759 -0.07949254 0.7668055 -0.39965376 0.0027595821 -0.69985914 -0.3828552 0.5204175 0.29866508 -0.818041 -0.34049627 -0.6193654
35 -0.17883804 -0.21105157 0.5936215 0.2659101 0.12964901 -0.16047132 0.73324704 -0.44872573 -0.1061771 -0.6630935 -0.44576395 0.46762252 0.35468283 -0.8124793 -0.35316813 -0.553524
25 -0.21922226 -0.10304838 0.5262845 0.28882328 0.044168536 -0.110697344 0.7712143 -0.42044407 -0.01932873 -0.7078507 -0.39438412 0.5380776 0.32149738 -0.79294527 -0.34040502 -0.67115414
38 -0.25513822 -0.15153402 0.5863201 0.3045604 0.057040382 -0.09869146 0.764463 -0.35252658 -0.055104077 -0.74237746 -0.349075 0.48441663 0.3907145 -0.79488325 -0.31121722 -0.6741958
0 -0.3717685 -0.4813679 0.27869287 0.87942666 0.19405729 0.1358076 1.0762281 -0.043607805 0.05409671 0.6223309 0.04714516 -0.3941604 -0.24139515 -0.28759858 -0.1355664 0.17899871
23 -0.31301093 -0.21838352 0.5917401 0.30742076 0.0100414185 -0.09199854 0.75776845 -0.35726348 0.0027410875 -0.7105113 -0.35683495 0.52024907 0.3167129 -0.83227974 -0.28834385 -0.6894167
36 -0.2767789 -0.12800556 0.5838847 0.32467192 0.13290891 -0.056730017 0.7088552 -0.39435562 -0.026063142 -0.66795784 -0.31639603 0.39819255 0.38161227 -0.7678843 -0.34224263 -0.56174517
12 -0.35483262 -0.42626438 0.2942365 0.7705005 0.2232237 0.07925103 1.0139968 0.010052863 0.115050994 0.5954032 0.091494836 -0.3080512 -0.20352472 -0.30123204 -0.2512192 0.1409009
28 -0.25329986 -0.10446851 0.6306144 0.24467933 0.08471312 -0.11259558 0.75101316 -0.46777278 -0.043466177 -0.6715387 -0.38491896 0.5545309 0.41194353 -0.7440203 -0.29375607 -0.5525469
2 -0.39637178 -0.43015653 0.19890153 0.74656725 0.24035056 0.1497982 1.0060893 -0.051011626 0.121896766 0.558393 0.0014249877 -0.39778906 -0.20996869 -0.20977394 -0.19275403 0.06759122
8 -0.39897594 -0.50800276 0.25102812 0.8036701 0.16150671 0.14247355 1.0389873 -0.0341251 0.08061301 0.59326345 0.061040454 -0.48150384 -0.2647914 -0.26313746 -0.17347106 0.15505905
9 -0.35043842 -0.5448837 0.23630361 0.863517 0.2847136 0.09747688 0.98613536 0.008823478 0.07659254 0.59462565 -0.023216233 -0.39699405 -0.22626644 -0.22583887 -0.23044516 0.16147332
3 -0.40155283 -0.3987025 0.21634136 0.72953 0.29081172 0.11997559 0.99899966 -0.068536684 0.10169366 0.56733596 -0.045719832 -0.35918897 -0.2892789 -0.2980186 -0.20277002 0.03739391
4 -0.29491636 -0.5110513 0.27047315 0.8579119 0.19099355 0.14507125 1.0262139 -0.030127129 0.040967613 0.5826143 0.013660439 -0.4227676 -0.27367774 -0.20774712 -0.18213569 0.16150297
6 -0.3679019 -0.4198088 0.23454161 0.80414647 0.24383503 0.12756415 0.944467 -0.040602498 0.041406814 0.4916879 0.027637161 -0.342853 -0.26035693 -0.31423137 -0.24753612 0.071018845
18 -0.39452395 -0.532128 0.21731576 0.84479576 0.27430156 0.097030625 1.1240954 -0.018291894 0.022688359 0.65176034 0.078249514 -0.3545937 -0.31490126 -0.2420237 -0.17940632 0.1680054
16 -0.32138708 -0.46000078 0.20035234 0.86512905 0.29795313 0.14586373 0.9608955 0.0006918953 0.088721134 0.5357046 -0.0031822184 -0.40115798 -0.26876998 -0.26323602 -0.216678 0.12042268
17 -0.2982386 -0.4475393 0.21881786 0.81284565 0.27884102 0.07172931 1.0392703 -0.00042480917 0.10595471 0.47591802 0.0637851 -0.35628554 -0.27204674 -0.2391587 -0.2028371 0.060919642
11 -0.31391013 -0.4914539 0.25509977 0.8687719 0.26294833 0.058951963 1.0525912 0.031062178 0.11210012 0.53237885 0.10744326 -0.40753916 -0.19923037 -0.28819305 -0.260826 0.2029842
5 -0.32298794 -0.4828535 0.3068928 0.8603761 0.18029425 0.124935426 1.0113028 0.012552116 0.089714475 0.55171424 0.026945934 -0.40325007 -0.30087027 -0.27618226 -0.18291366 0.19775146
14 -0.28288558 -0.50806034 0.19559726 0.86347324 0.24842453 0.13456662 1.046238 -0.04671363 0.11271344 0.52992266 0.036359124 -0.34895623 -0.24990144 -0.29186693 -0.16849716 0.12802294
7 -0.41530824 -0.5483584 0.19865659 0.7902829 0.23567891 0.18185402 1.0361593 -0.031803183 0.08571781 0.5649132 0.07826401 -0.36280033 -0.22242732 -0.3131816 -0.20057328 0.17877148
19 -0.36537057 -0.5352226 0.29469705 0.76735455 0.21226622 0.1700614 0.9861684 -0.054767236 0.03284873 0.56452453 -0.01793017 -0.33127597 -0.27968696 -0.24860469 -0.17791876 0.12946607
1 -0.35414347 -0.4696932 0.29130942 0.82005733 0.21725906 0.05329203 0.9295999 -0.01621461 0.0732025 0.5010222 0.09101632 -0.3537917 -0.20621836 -0.30080548 -0.21134566 0.074457176
10 -0.39446896 -0.45607582 0.20262615 0.7626988 0.24557967 0.14086984 0.9959538 -0.0059561725 0.04084559 0.5646999 -0.019887162 -0.3118652 -0.29300955 -0.26808408 -0.22903185 0.08874927
13 -0.39161378 -0.46708763 0.28387272 0.8284017 0.24937482 0.06357157 1.1112233 0.0681769 0.0647029 0.615727 0.037373785 -0.3708179 -0.3436993 -0.2653518 -0.161147 0.1691528
33 -0.23655657 -0.24181396 0.5849994 0.22522172 0.055969592 -0.07073263 0.67696494 -0.35381037 -0.032992635 -0.6147475 -0.39689785 0.47532418 0.32066718 -0.77231437 -0.24164376 -0.5418754
40 -0.2007206 -0.2121017 0.54625475 0.3014371 0.14190099 -0.11872612 0.6642348 -0.40268108 -0.09780588 -0.61157644 -0.3184206 0.35927647 0.3160182 -0.74474454 -0.24769941 -0.52295315
39 -0.26463455 -0.17493755 0.59619516 0.34487858 0.04588543 -0.043528937 0.6404519 -0.31451762 -0.055807672 -0.536025 -0.30761692 0.4488899 0.2663843 -0.656293 -0.21178174 -0.59415257
32 -0.28387773 -0.20893571 0.55126804 0.21674907 0.002858655 -0.15614189 0.7075451 -0.34927908 -0.12403465 -0.6314876 -0.32021776 0.3883953 0.32794425 -0.7518937 -0.2343429 -0.6293506
21 -0.2124202 -0.13032234 0.56396884 0.29179516 0.02580241 -0.08826465 0.694488 -0.44530717 -0.10118476 -0.6193119 -0.32416415 0.4670968 0.26152268 -0.8059825 -0.3077925 -0.60838246
30 -0.2952707 -0.23334378 0.5396838 0.2323801 0.037051447 -0.13400173 0.6941182 -0.39261594 -0.09716641 -0.6135533 -0.2962512 0.49024358 0.26035732 -0.77962667 -0.26020545 -0.64905936
29 -0.23881423 -0.13136739 0.5928099 0.23580876 0.049949642 -0.16633901 0.72998554 -0.317402 0.011488411 -0.5840602 -0.3163618 0.4202663 0.37085274 -0.8198412 -0.3543147 -0.58760506
34 -0.23632015 -0.17343986 0.49939185 0.32016513 0.06900904 -0.10177494 0.6665336 -0.38832882 0.013380025 -0.48404452 -0.3654576 0.39539874 0.33716753 -0.7328163 -0.29896036 -0.5652733
26 -0.18247524 -0.18248048 0.59999967 0.23446943 0.104588374 -0.08678372 0.7230071 -0.34552976 -0.0834124 -0.63132256 -0.32068735 0.45275223 0.34522134 -0.7018592 -0.28154188 -0.49573147
31 -0.2802868 -0.14562201 0.52697533 0.2896973 0.117668554 -0.14841838 0.68554056 -0.41827568 -0.03430655 -0.6419126 -0.37103513 0.48963824 0.29187134 -0.6893751 -0.21932113 -0.4647574
22 -0.2896975 -0.17519493 0.58288985 0.2923769 0.0558225 -0.15605082 0.6841327 -0.39411634 0.009405549 -0.6045934 -0.32865334 0.42815298 0.28014073 -0.6965679 -0.22070672 -0.54759055
24 -0.2610755 -0.17787582 0.5791936 0.2785726 0.066906564 -0.040401954 0.6528074 -0.36825922 0.02749241 -0.56813765 -0.32691187 0.37542307 0.31372747 -0.7537013 -0.22861764 -0.55659044
27 -0.22554776 -0.15955809 0.51001847 0.24066249 0.07466511 -0.10848753 0.72586685 -0.26566598 -0.044567946 -0.50700355 -0.35917726 0.3882535 0.20899107 -0.75382066 -0.30095062 -0.5747259
44 -0.19636808 -0.28844857 0.38893113 0.385762 0.13048363 0.06775107 0.62963814 -0.23245443 -0.029115135 -0.066481054 -0.12435077 -0.021569159 -0.039388377 -0.40054488 -0.25366744 -0.2829384
54 -0.24809209 -0.3104233 0.32903093 0.31632555 0.08657077 -0.057799228 0.7038333 -0.19105569 -0.02720197 -0.12553197 -0.22360756 0.09548218 0.042790033 -0.5155345 -0.20630576 -0.19474775
56 -0.2738182 -0.24392061 0.3797806 0.4249596 0.17212555 0.051868256 0.7072921 -0.10233937 0.076589435 -0.031155529 -0.16296512 0.019844895 -0.002531366 -0.4547308 -0.12941447 -0.1849974
55 -0.2940154 -0.26450023 0.32795712 0.42212522 0.08879677 0.0017538115 0.69242805 -0.1681698 0.068530925 -0.115605414 -0.16505268 0.11547801 0.10543447 -0.4759683 -0.14914772 -0.17068489
57 -0.27828273 -0.24826555 0.35014024 0.3939149 0.084319316 -0.046828236 0.6936044 -0.18838052 0.036544017 -0.077611305 -0.15019971 0.068881266 0.08392041 -0.42697614 -0.23973794 -0.26352757
59 -0.27879882 -0.26928964 0.3089646 0.4516331 0.09665484 0.07000335 0.7438794 -0.09376643 -0.02983146 0.15919091 -0.15622726 -0.030083993 -0.05590764 -0.44323203 -0.21807802 -0.13144219
58 -0.27848172 -0.2570937 0.27022958 0.43280125 0.18901698 -0.017738549 0.67046523 -0.1339231 0.07309231 -0.0933839 -0.18086508 0.044304904 0.10746647 -0.4069584 -0.26355597 -0.21799377
50 -0.17662191 -0.34119362 0.2846848 0.5412314 0.085156344 0.03845585 0.7404591 -0.118797116 0.07869785 -0.013118382 -0.14917485 0.08210617 0.042950273 -0.35084775 -0.27083898 -0.056752916
52 -0.26840326 -0.3230907 0.3276221 0.47545567 0.17617121 0.006960333 0.70701486 -0.11727831 0.08450664 0.0047062375 -0.08763929 -0.07619406 -0.05765366 -0.39117002 -0.26203012 -0.11613637
51 -0.23763496 -0.28965655 0.3504487 0.5069595 0.17241216 -0.015810288 0.688738 -0.17672813 -0.06624404 0.06001842 -0.13320749 -0.0064459303 -0.021381121 -0.42531645 -0.14129792 -0.20666912
53 -0.30509746 -0.16635627 0.34830195 0.4967422 0.17701536 0.02298442 0.72691023 -0.18114562 -0.03380587 0.007909127 -0.08727885 -0.009980808 0.09039025 -0.4172904 -0.11386781 -0.1650129
42 -0.27307397 -0.25767258 0.26504257 0.3884826 0.12597129 0.06462411 0.7371187 -0.21223405 0.023375003 -0.055305615 -0.15386349 -0.013520264 0.04312319 -0.48403224 -0.14581373 -0.26194492
41 -0.19508831 -0.19299562 0.31760326 0.49381933 0.123333216 0.059890132 0.73846096 -0.22091535 0.0026420176 0.022831185 -0.114511676 0.0074282316 0.005963262 -0.4080098 -0.2054445 -0.12643406
47 -0.24422492 -0.27571476 0.34834316 0.42066807 0.12853433 -0.043968894 0.7060215 -0.20248666 0.023401415 -0.100344256 -0.11562384 0.04076371 0.017289892 -0.45795646 -0.1377268 -0.2091676
48 -0.31383213 -0.275941 0.294594 0.51460737 0.069625035 0.016584028 0.6556884 -0.13257281 0.067963384 0.059857424 -0.16644076 -0.048464485 -0.043000944 -0.4777123 -0.2720119 -0.16895911
20 -0.25562045 -0.3072646 0.36527833 0.45954677 0.17117687 0.015119972 0.7026207 -0.19794579 0.0134585 0.03715346 -0.14474559 0.011964973 0.028485421 -0.41804352 -0.12914202 -0.12097413
46 -0.26204357 -0.25397655 0.3924944 0.45307916 0.10905221 -0.050972376 0.7266659 -0.080173016 -0.0066807857 -0.012436243 -0.176891 0.049226254 -0.036068663 -0.47559935 -0.19565742 -0.19591162
45 -0.23713543 -0.26432937 0.29883805 0.5081695 0.15425408 -0.077726334 0.75281775 -0.17986517 0.016681323 0.027512357 -0.14617382 -0.012176373 0.065531865 -0.43218356 -0.25792563 -0.08985127
43 -0.2661141 -0.30873597 0.38013062 0.51006156 0.16779529 0.07831043 0.6663167 -0.12936792 0.045674954 0.035482917 -0.109651595 0.04043157 0.043043528 -0.38087067 -0.22762768 -0.19786333
49 -0.26971778 -0.24843346 0.3141956 0.48729935 0.14923373 0.058190525 0.7332411 -0.10660453 0.0029660554 0.014959807 -0.1013512 -0.016094513 -0.0014339138 -0.446931 -0.16827558 -0.21413721
