28 16
11 -0.016851421 -0.015084778 0.06365264 0.35833663 -0.03268927 0.061706483 0.6876719 0.037197717 -0.05897709 -0.052525606 0.07302122 0.052424464 -0.041718453 -0.0012303559 -0.31456026 -0.041961726
5 0.011524524 -0.011426832 -0.02720695 0.15974498 0.06644753 0.107589334 0.50668514 -0.008664796 0.017114235 -0.03928311 0.010982939 0.073622316 -0.060121927 -0.053844094 -0.2520798 -0.022822443
6 0.056835193 -0.06796418 0.013684624 0.21332642 0.07011058 0.03915891 0.4812188 -0.04719373 -0.08868953 0.0115706045 -0.03858508 0.016438697 -0.0089405095 -0.03688115 -0.26312354 0.043860573
18 -0.00939986 0.09452744 -0.02839021 0.25717413 -0.011293304 0.09537649 0.5411761 -0.05470964 0.036915816 -0.071221136 0.0053858063 0.11894481 0.014134103 -0.027047353 -0.23077449 -0.09349416
27 -0.036933728 0.028161915 0.015132585 0.27725437 -0.0021092314 0.10595753 0.54771274 0.032528825 -0.019034136 -0.084771186 0.054124054 0.06261669 0.059975825 -0.037165496 -0.23730591 -0.09543522
0 -0.030368758 0.026766261 0.06151897 0.26845866 -0.028264476 0.097457066 0.50535053 -0.055023503 -0.029486088 0.02136229 0.027943578 0.043915343 0.034263406 -0.025501437 -0.13596146 -0.0026761126
17 -0.08787643 -0.034816027 0.02560994 0.26955914 -0.042173047 0.110183015 0.52160585 0.0155378925 0.038274124 -0.060421765 0.033125333 0.0916339 -0.006578003 -0.06853262 -0.20654458 -0.091720805
19 -0.06768993 0.07678442 0.04402027 0.2373912 0.05299547 0.12310922 0.3750091 -0.029554844 0.02291115 -0.0555623 0.07112171 -0.01345522 0.07220314 -0.008387552 -0.20395917 -0.010883226
21 -0.024834469 0.052691333 0.073022194 0.0781004 0.0024939675 0.004826773 0.24741882 0.005426494 0.04490126 0.023747545 0.07063936 0.084341824 0.055972945 -0.058041673 -0.15379307 -0.021123858
20 -0.038225412 0.069730945 0.04766619 0.10932548 0.019890722 0.059047047 0.3062524 -0.0746625 0.0034189685 0.007910784 0.007865117 0.081488326 0.067743756 0.026349878 -0.11300027 0.026145479
1 -0.05873748 0.017841954 -0.014064687 0.06311776 0.02534008 0.06820218 0.24582885 -0.047823437 0.038311947 0.03393487 -0.018421194 -0.03975238 0.039452344 0.029202508 -0.087859996 -0.05193743
4 -0.05908804 -0.012696539 0.047810346 0.10634354 -0.056759402 0.07471102 0.30101812 -0.05366036 0.004420725 -0.027831566 0.0095704775 -0.03597057 0.02461746 -0.045208227 -0.10384279 -0.031569943
3 -0.007893013 -0.03926486 0.0037452993 0.16811922 0.03186538 0.044781324 0.25221327 0.010338299 -0.0034196265 0.0029629236 -0.029579721 0.0228437 0.0633635 0.029354408 -0.15018725 -0.009778244
22 -0.072419964 0.051878646 -0.010197856 0.14124978 0.06706295 0.06727119 0.38139495 -0.054838233 0.030195238 0.04271431 -0.03664538 0.0059187957 -0.032274988 -0.05130766 -0.16973478 -0.08013033
2 0.0381573 -0.03150981 0.069071904 0.15169488 -0.04058938 0.07141907 0.2815235 -0.060312 -0.055121347 -0.027113149 -0.04684862 0.01147527 0.004623524 0.006081155 -0.093903586 -0.021673193
8 -0.042095523 0.007311321 0.006124692 0.15442252 0.03341418 0.06798857 0.24724223 -0.022335876 -0.03282217 -0.019560384 0.021452334 0.007097299 -0.046633627 -0.06323933 -0.15964364 -0.050110087
9 -0.012468344 -0.03186255 -0.03253694 0.045327064 0.034053594 0.0003996757 0.19680683 0.005911448 -0.051873785 0.051678885 0.054564696 0.04648591 -0.04576558 0.027104046 -0.040420055 0.027607635
7 0.027928505 0.0041162837 -0.014450268 0.11536593 0.06669072 0.043170933 0.11727047 -0.0011929204 -0.00021096756 -0.059186142 -0.04538731 0.010640377 0.00043623894 -0.04436306 -0.090512164 -0.050492384
10 0.045060642 -0.0027679955 -0.019650206 0.14265822 0.06868051 0.011218897 0.27608442 0.030206572 0.028067587 -0.006951393 0.06363571 -0.020888116 -0.05562826 0.0438068 -0.10235233 -0.024395326
15 0.028354378 -0.030094719 0.022121891 0.09385609 0.04402477 -0.031185508 0.1657883 0.026907608 0.019386794 -0.04425645 0.05621233 -0.003213019 0.052054174 -0.042207763 -0.10164323 0.038520552
14 0.009884042 -0.02034785 0.06836952 0.13188185 -0.05222834 0.039281636 0.1875943 0.02200865 0.0055294605 -0.0068605207 0.011694379 -0.010966071 -0.04579306 -0.025340466 -0.04604362 0.048730716
26 0.048740402 -0.033500664 -0.05358445 0.13359424 0.026275013 0.059022356 0.19610777 -0.02099254 0.04284453 0.009017864 0.028109413 0.003842377 -0.017970515 -0.023138765 -0.039746862 -0.01135256
25 -0.07393279 -0.056241937 -0.032998215 0.11053924 0.021235926 0.09864861 0.27171695 -0.028931545 -0.0023184912 0.01878556 0.06387922 0.021517618 0.025407467 -0.049936388 -0.10671406 0.030238552
13 -0.013369495 -0.07008677 0.044117816 0.050371688 -0.002659332 0.08416671 0.14206702 -0.030709965 -0.0419778 0.033795968 -0.027477428 0.028508661 -0.03731658 0.025756165 -0.044282008 0.00887472
12 -0.010558857 -0.019752555 0.059818763 0.07392913 -0.008794692 -0.04595224 0.043280534 -0.009543825 -0.008208485 -0.01935759 0.06502368 0.0059592836 0.036390096 -0.05286933 -0.055657417 -0.037731208
24 -0.05743176 0.01728882 -0.03643231 0.083345234 0.030212985 0.07364823 0.20843644 0.006556907 -0.027302528 0.032368984 -0.02570479 0.053068493 -0.04316232 0.00096542714 -0.11977083 -0.04405927
23 -0.02851424 0.04054002 0.038282536 0.0322533 0.010677404 -0.02935691 0.18783705 0.055313203 -0.018969798 -0.0012356832 0.01425809 0.051015045 -0.05405961 -0.0023664858 -0.014137451 0.0031041866
16 0.0037169566 -0.06263043 0.06391364 0.04582619 -0.011162307 0.05035205 0.17310211 0.004793177 0.0056984844 -0.053198524 -0.05139511 0.07301914 0.035947993 -0.057021424 -0.058822148 -0.0076154754
